128
10
-0.089754015
-0.02968616
-0.031784344
0.2836575
0.32793966
-0.21698539
-0.25122222
-0.16843744
0.07251641
-0.016820442
-0.28407606
0.028361984
-0.09846915
-0.09514826
0.27488467
-0.27363217
-0.06881914
0.045577854
-0.19678807
0.27601486
-0.20477429
-0.131532
-0.30625394
0.17269109
0.34508482
-0.036281463
-0.31541544
-0.17035961
0.08262352
-0.08403049
-0.15143594
-0.28982693
-0.28897488
0.26979348
0.26947165
0.25672448
-0.3869424
-0.22726431
0.24933629
0.24004246
-0.31350878
0.21778461
0.25603825
-0.026050163
-0.18773323
0.25600508
0.2573686
-0.19416107
-0.06984806
0.21736577
0.19953455
0.053997323
0.067995735
-0.18701778
-0.032882042
0.10744188
-0.22739163
0.32286197
0.14586529
-0.07266132
-0.13725127
-0.16849603
0.07665622
-0.26647258
0.17663206
0.27035555
0.19220163
-0.13781978
0.19414118
-0.365929
-0.31589177
0.1548043
-0.07404655
0.11404235
-0.3264455
0.13732977
-0.31301203
-0.22536546
0.21140374
-0.2900569
-0.03809534
0.085700594
0.15611455
-0.36057618
0.003287314
-0.15777028
-0.05723601
0.23699139
-0.015940478
-0.12514627
-0.23471987
-0.29142913
0.17718282
0.06807228
0.22211985
0.20324525
-0.18214492
-0.24650058
-0.11323517
0.22927606
0.13799363
0.20086585
-0.13125606
0.10337431
-0.28747845
-0.18865456
0.26234823
-0.016444322
0.1336192
-0.21482289
0.08120013
0.051595233
-0.09454907
-0.2893504
-0.29884687
-0.24265856
-0.054903287
0.21448347
-0.30233032
0.3084247
-0.255269
-0.042311367
-0.35215902
-0.26494536
0.18072484
0.048719257
0.3061455
0.06425578
0.25052097
0.24328768
0.020811291
-0.27310228
-0.37189534
0.12199644
0.052190445
0.15396982
0.106912285
-0.11888599
-0.24729598
0.16295722
-0.23245442
0.10374089
0.3088358
0.077410966
-0.2843959
-0.013363038
0.34942374
-0.15641597
-0.11678161
-0.2144587
0.044665318
-0.37510952
0.0035562373
-0.10093356
-0.10055314
-0.35285747
-0.3321053
0.30536988
-0.31287542
0.2222675
0.00013667159
0.17039308
0.09705228
-0.39377156
0.27624717
0.020840334
-0.09211299
0.11859735
0.06901364
0.012280391
0.2421401
0.26283538
-0.011983421
-0.28459904
-0.19103387
-0.11055708
0.2857001
-0.31527495
0.057293046
0.17993495
0.14083506
-0.09519119
0.08727727
0.1166404
-0.23665632
0.008065413
-0.23478319
0.14200154
-0.2839453
-0.29926127
0.1629311
-0.036707304
-0.13871394
0.25215125
0.13740788
-0.20825547
0.23776484
-0.005427797
-0.27470464
-0.2148766
-0.20468302
-0.13872322
0.03987876
0.23191077
0.05443968
-0.3066338
-0.23531118
-0.22027403
-0.26728562
0.009110562
-0.23152424
-0.2437479
0.13641506
-0.09245293
-0.17299007
0.23455551
-0.18962842
0.12406798
-0.09568974
0.19107658
-0.26924038
0.30773884
0.26235765
0.14338681
-0.4061621
0.014797374
0.058029853
0.05868838
0.1385043
-0.2085562
0.31034073
-0.2778022
0.19489127
0.18577737
-0.3757854
-0.19236869
-0.3635184
0.34750834
0.18382145
-0.19069463
0.25020018
-0.2714795
0.15275317
0.253096
-0.27600995
0.13952085
-0.18221125
0.119382896
-0.32376656
-0.10812652
-0.2802906
0.30413926
-0.087713435
0.13334021
-0.24108765
0.15313593
-0.1200636
-0.22811101
0.2548921
-0.123127036
0.118543364
-0.21549247
-0.2027374
0.33760083
0.014378419
0.021911457
-0.21683443
-0.20151913
-0.17620865
0.23901698
0.18317418
-0.14668807
-0.23520672
0.15603635
0.14161511
0.19396634
0.28055552
-0.2150632
-0.32122397
0.013401451
-0.2334479
0.12664182
-0.08216647
-0.062273867
0.123983316
-0.3255095
-0.08843789
-0.24885131
0.22675271
0.177237
-0.11989062
-0.14026196
0.10243349
0.06975304
-0.22915728
0.20224546
-0.02824073
0.1664899
-0.12580723
-0.26013762
-0.18313693
-0.15383422
-0.16534087
-0.3688588
0.066129185
0.2576796
0.26476178
0.15527768
0.29056317
-0.22678524
0.13712989
-0.2954367
0.29271376
-0.27221167
0.03856882
-0.33953506
0.12962563
0.09955235
-0.17214945
-0.15045194
-0.029473942
-0.21641123
0.2747022
-0.16669823
0.022261374
-0.35122725
-0.32884988
-0.007164408
0.30914503
0.0025463714
-0.3825224
0.073520586
-0.034206226
0.16845468
-0.036587864
-0.2575494
-0.29942358
-0.022356777
0.30111626
-0.1929118
-0.095942326
0.25990173
0.12041942
-0.34318498
0.060751494
-0.34511435
0.1763568
-0.27476606
0.13162978
0.053407244
0.14589731
-0.16770963
-0.4124051
4.7638234e-05
0.10073908
0.13735572
-0.29991075
0.16919766
0.23452699
0.053745285
0.124137536
-0.05454087
-0.20430976
0.039315492
0.005591347
-0.04794053
-0.092204645
0.14948902
-0.23537023
0.21175148
0.27649164
-0.14194703
0.17596267
-0.22469117
0.17057326
0.0442375
-0.2632182
0.27055112
-0.18872468
-0.1918612
-0.1535787
-0.2852315
-0.09578148
0.13846283
0.20714845
-0.30891055
-0.22387812
0.2816271
0.07171544
0.078729704
-0.086107716
-0.059632987
-0.019693857
-0.27264753
-0.29252613
0.1031454
0.25551665
0.11746097
-0.14867583
0.1434501
-0.3685355
-0.0052204593
0.05012104
0.18775372
0.16998117
-0.3225654
-0.059366275
-0.0012230163
-0.27630487
-0.09804613
0.16843759
0.176157
-0.31642923
-0.3360572
0.23245601
0.02834123
0.11547553
0.20338482
-0.26927218
0.1633019
-0.34003076
0.21337368
0.29185355
-0.20924601
-0.2907082
-0.12039524
0.33063388
-0.1298512
-0.10012306
0.18422207
-0.2996349
-0.011038547
-0.2911365
-0.30477354
0.092801124
0.05881471
0.200548
0.047008462
0.029685948
-0.09288565
-0.12809087
-0.16100134
0.0074198404
-0.0070247073
-0.1995212
-0.20668471
0.25232205
0.1781075
-0.010923892
0.28801602
-0.016128136
0.025857447
-0.27869192
-0.20202823
0.21078937
0.07930908
-0.32755423
0.21399061
-0.04603224
0.17515123
-0.041251175
-0.35734284
0.18302436
0.19975522
0.07684693
-0.0023710285
0.28185126
-0.40240052
-0.24878833
0.2579553
-0.3824373
0.039370548
0.32873073
-0.27221018
-0.20004252
-0.12753518
-0.18052712
0.062030684
0.25696284
0.0031940946
0.2020424
-0.15730517
-0.076201655
-0.33335304
0.30945566
0.26579255
-0.19240476
-0.02026006
0.26868236
-0.07117242
0.26606625
-0.17872256
-0.07741602
0.06758166
0.24964888
0.08900163
-0.08018879
0.27185985
-0.2575069
0.26657805
-0.2409388
-0.16688009
0.1352654
-0.010744276
0.07895177
-0.31833434
-0.15786876
-0.27017286
0.3268425
0.31488165
0.23489663
-0.13593028
0.18542174
0.026888805
-0.35927626
0.1474877
-0.16060203
-0.31220782
0.18037733
-0.09487135
0.0023080846
-0.03717794
0.31143236
-0.0073323767
0.30022985
-0.30184814
0.3425035
-0.14717618
-0.20073119
-0.07266562
-0.08840538
0.16856958
-0.0008781365
0.15964451
-0.006186894
-0.304853
-0.19549954
0.15975408
0.20634937
-0.17432263
0.2186538
-0.18341355
-0.098166876
0.24216996
-0.19559576
-0.02900505
0.02591907
-0.26739138
0.16227569
-0.26720992
-0.03289228
0.2281524
0.20600116
0.15367436
0.03825639
0.15534158
0.233256
-0.26659656
0.19924909
-0.29084903
-0.33420852
0.13065913
-0.08248394
0.045747973
-0.3152865
-0.20286976
-0.31852177
0.12947737
0.20519
0.0053057615
0.18299012
0.17332077
0.117735706
-0.1063665
0.29233024
0.03959875
0.12527907
-0.3597072
-0.21700302
0.07292064
0.16940853
-0.030247811
-0.19490531
0.22004057
-0.32869792
-0.064430945
-0.3246369
0.19349515
0.17328729
0.1962154
0.21493077
0.13259156
0.25717497
0.09146192
-0.24397941
0.17218862
0.036654145
0.11279348
-0.27730376
-0.22553703
-0.06482376
-0.14877932
0.0862733
0.23399304
-0.20323025
0.2330693
-0.2891938
-0.3220522
0.120165415
0.198232
-0.09597216
-0.42586005
0.0865449
-0.24717253
0.10395923
-0.008993134
0.20609388
0.10284368
-0.05552869
0.26435652
-0.2806516
0.26738387
-0.09194476
0.21892007
0.2694401
-0.2583028
-0.21765742
-0.10517678
-0.15533723
0.12959781
-0.2588456
0.017775796
-0.23107214
-0.24371415
0.22098719
-0.3420864
0.19200219
0.29205558
0.09325102
0.15336399
-0.390486
0.26421562
-0.15794504
0.24424297
-0.22992624
-0.119158894
-0.16625574
0.2210948
0.20309554
0.20800775
0.25042546
-0.06688461
0.12031453
0.18135212
-0.27620926
-0.07630268
-0.28148234
0.12941071
-0.25204983
-0.29346433
-0.3176795
0.06501208
0.19811073
0.2495384
0.20912582
0.09540364
0.13422213
-0.16508889
-0.31757537
-0.2512406
-0.38113093
-0.116883
-0.18881252
0.3046825
0.054001004
0.28856337
-0.33342096
0.1848616
0.19001232
0.09681174
0.07452951
-0.1579416
0.12735417
-0.0796333
0.105838545
0.092087805
-0.1654671
0.36946106
0.17047212
-0.07098357
0.065966874
-0.2121435
0.23582616
-0.1833406
0.17281944
0.09916575
0.2738579
-0.276649
0.05829949
-0.26601237
-0.2354923
0.28516304
0.20516321
0.20913406
-0.027332336
-0.2164166
-0.17758703
0.1708712
-0.048702877
-0.240181
0.06430465
0.16552855
0.043600876
0.15691963
-0.32965058
0.10859702
-0.0038750528
-0.03140658
-0.04231494
-0.22573993
0.31782886
-0.27291316
-0.19751115
-0.26536313
0.2162504
0.07560335
-0.32392395
-0.014585279
0.118505254
0.091645926
0.088567555
-0.2421899
-0.3584538
0.04555854
0.2110629
0.1832551
0.16104561
0.06094602
-0.328107
0.1890761
0.25642905
-0.1180035
0.20138177
-0.1570416
0.25965443
0.19182257
0.03511566
0.23388432
-0.20522468
-0.29952678
0.07798955
-0.20756528
-0.25798947
-0.21722671
-0.1736418
0.0988787
0.1476956
-0.20776516
0.123962104
0.16643272
0.29622182
-0.21434467
-0.24981746
-0.37304518
-0.22193542
-0.2049044
-0.05920014
-0.06493859
0.015253579
0.26672763
-0.2793949
0.257774
-0.0890138
0.13149615
-0.33544713
-0.026408516
-0.17007677
0.24043694
-0.02271846
0.13365658
-0.17746085
0.29826787
-0.16990824
-0.20050061
-0.3516254
0.25113603
-0.15558933
-0.264013
0.24165928
-0.07022458
0.23895088
0.3282009
-0.4029196
-0.28480348
-0.035467718
0.29672167
-0.13874543
-0.19255643
-0.12748457
0.14322907
-0.056598738
-0.25842828
0.19864532
0.11512051
0.17630935
-0.27340606
0.20221065
-0.32022548
0.17898384
-0.018764408
0.13271528
-0.22064526
0.24076195
0.015934912
-0.3415409
0.16026983
-0.36727008
0.28179404
-0.33153385
-0.1609759
0.0081930375
-0.24033071
0.16448666
0.12613466
-0.111464195
0.2263413
-0.3373997
0.0051072654
0.2660403
-0.37628606
0.2800755
-0.26826775
-0.18352692
-0.24305235
0.09980993
0.059558626
0.06717421
0.032656234
-0.31838995
-0.22809559
0.30203593
-0.09674226
-0.17738114
-0.23919494
-0.24713664
0.29339397
-0.2908186
0.20402779
0.1268507
-0.24678868
0.27876568
-0.11387746
0.03794289
-0.15084502
0.23617351
0.2296299
0.28978044
-0.27506384
0.032466717
-0.18773443
-0.34395224
0.024386114
0.09369343
0.19725256
0.075844936
-0.1884201
-0.102380775
0.022119604
-0.15699922
-0.030708184
-0.2880974
0.32660857
0.11099145
0.07725226
0.19995104
0.19707663
-0.3336514
0.21318264
-0.24351998
-0.09787766
-0.4134243
0.16133857
-0.31066778
-0.058319833
0.24021034
0.18196826
0.05912058
0.09931829
0.097756006
0.13571455
-0.30898595
0.16205154
-0.16757002
-0.24075483
-0.01671705
-0.099274494
0.24029359
0.046025734
0.26201952
0.27141887
-0.007991338
0.0067480262
0.016134309
-0.170747
-0.39129484
-0.25953388
-0.17699124
0.23450238
0.2993927
0.12700279
0.23239751
0.28628716
-0.05752726
0.14500402
-0.20166107
0.029858556
-0.33730254
0.15462932
-0.19516487
0.08998063
-0.23846751
0.12700422
0.15708846
-0.15116723
-0.17078125
-0.21198124
0.16357626
0.31387666
0.05726361
-0.1040196
0.2848954
-0.008706808
0.21253847
-0.40102586
0.053285606
0.03279123
0.2994176
-0.25129983
0.17571719
-0.056692135
0.14506198
-0.3545844
0.07032073
0.26212087
-0.20810065
-0.057372972
-0.059484117
0.17446454
0.029238693
0.08567107
0.15708949
0.16000625
0.047920242
0.014679087
-0.20170112
0.17085895
0.029589338
-0.12185875
-0.16118449
0.0064066458
0.14628485
0.21727793
0.17965741
0.0015172125
0.10499319
0.011642412
0.09300714
-0.1683987
-0.24765967
0.056664865
0.017377404
0.2891327
0.03923278
-0.29803288
-0.119505644
-0.002206104
0.07512577
-0.0007512364
-0.23009613
0.20866485
0.121432565
-0.29429004
-0.22489542
-0.24397516
0.08488841
0.16144764
0.085798636
-0.31913018
-0.08551923
-0.19791743
-0.19531056
0.23270386
-0.045035284
0.032913342
0.24173032
0.13182905
0.1560691
0.20261127
-0.27949482
-0.032599382
0.19813865
-0.22559772
0.15494765
-0.25302285
0.030015528
-0.3399442
0.12447289
0.12250516
-0.055653244
0.1282652
-0.2599101
0.1927375
-0.144349
0.22919638
0.2447236
0.013633253
-0.19583794
-0.34314197
0.266833
-0.18511094
-0.089294285
-0.012566896
-0.16195326
0.29302874
-0.07921225
0.010831217
-0.13076401
-0.09465089
0.15730827
0.15284078
0.1922279
-0.044561766
0.1730773
-0.3570548
-0.111994706
0.21337652
0.22552916
-0.36336184
0.033290423
-0.17538635
-0.10133123
-0.009522901
0.20003363
-0.053771872
-0.3434658
-0.28609458
-0.09679296
-0.14803632
0.19309127
-0.13876855
0.03080684
-0.2377848
-0.043075636
0.26169193
-0.011615349
-0.19256556
0.2284825
-0.029670639
0.14187625
-0.13435495
-0.10441787
0.24531485
-0.22505786
-0.38706526
0.21398787
0.09792454
-0.20282872
-0.22014582
0.07005576
0.22227615
0.1083806
-0.120336436
0.31931058
-0.04290794
-0.17454891
-0.19345078
0.31432047
-0.040134538
0.01020405
0.13433933
-0.28584594
0.13196534
-0.3022187
-0.025032733
-0.10246777
0.17829911
0.10810875
0.24236535
0.1399942
-0.062553756
-0.16718009
0.20163217
0.020716764
0.21174395
-0.10258176
0.27755705
0.11655291
-0.24509542
0.10056103
0.0619618
-0.13905928
0.027344989
-0.0816889
0.24468221
-0.21490185
0.20156035
0.13983147
0.16791098
-0.19758196
-0.06764023
-0.13379538
0.02430391
-0.17353593
0.005888701
0.081777304
0.05634692
0.287308
-0.3161263
0.02819077
0.21328728
0.22858828
0.2480401
0.15544507
0.21931614
-0.2890724
-0.18684946
-0.27967283
0.20461781
-0.117453285
-0.16041054
0.3093456
-0.30939218
0.21316586
0.11612743
-0.031036578
0.054672062
-0.11486268
-0.19326502
0.27516523
-0.125477
-0.27519694
0.2215019
-0.029943407
-0.39965075
0.22414677
-0.078395575
0.24668594
-0.2425048
-0.07062076
0.032889746
-0.29458204
-0.036949795
0.16058002
0.22465536
-0.058028806
0.17936546
-0.23603204
-0.19600636
0.19207594
0.14696412
0.15879111
0.14682156
-0.20764993
-0.00070599525
-0.31367067
0.053235717
0.10859355
-0.25868532
-0.118624225
-0.04687561
-0.08318304
0.3290264
-0.111642174
0.21439636
0.11207767
-0.27463064
-0.22182436
-0.20332853
0.12858838
0.01293605
-0.3185403
0.24892999
0.107154705
0.08421452
0.29055065
-0.21093254
0.14349844
-0.17592914
0.18836164
-0.3578789
-0.32366556
0.042788252
0.26981476
-0.2851006
-0.21353312
0.19239047
0.22366725
-0.2144
-0.00035698494
-0.06680984
0.034793083
-0.21790668
-0.00028798188
0.3455989
0.3341813
0.1657891
-0.27539584
0.030791344
-0.3298505
-0.12302817
0.21812014
-0.30917746
0.13945112
0.11790247
-0.44702932
0.25120065
-0.11257075
0.1895736
0.15086669
0.12728815
0.18520561
0.013865729
-0.069364496
-0.31265152
0.13408388
-0.29839095
0.07018423
0.19615394
-0.030826202
0.22613844
0.115785286
-0.37830997
0.1478977
0.106963776
-0.13115358
-0.07619021
-0.27538985
-0.021617634
0.09967338
0.3013383
-0.25210395
-0.12787688
0.1251863
-0.31186417
0.06788866
-0.0933504
0.16866198
0.12323874
-0.14900994
0.07462161
-0.21524157
0.1253885
0.28966138
0.025067832
0.3149505
-0.21145919
0.0011944445
-0.0979058
-0.24165303
-0.288965
0.1618294
0.18944491
-0.29792562
0.14780787
-0.015845228
0.15541305
-0.11111564
-0.23103638
0.020618724
0.19484438
0.014792282
0.2756986
-0.28464034
0.2840742
-0.09187547
0.21477126
-0.18996698
-0.19674629
-0.29802892
-0.014276517
