256
128
-0.11515841
-0.22905545
0.007483866
-0.14191192
-0.02710099
0.0767547
-0.011287119
0.16051139
0.02592473
-0.14792281
0.09875256
0.0014642554
-0.022708202
-0.067148566
0.085286304
-0.18752092
0.062677175
0.16420428
-0.0053035067
-0.10673577
-0.08908051
-0.02282035
0.09188609
-0.024493044
-0.10414717
0.13568655
-0.0013477964
0.09993418
-0.14759755
-0.057300005
-0.0034696748
0.09106799
0.053146265
-0.036628887
0.03537916
-0.12785092
-0.030581528
-0.0038711075
-0.18807209
-0.030854128
-0.18648557
-0.0019544954
0.05344002
-0.09506572
-0.10013541
-0.13099664
-0.03145269
-0.041629516
0.09726449
-0.13297951
-0.102866575
0.051719073
0.046654116
-0.044914145
0.14578448
0.13315912
-0.08108746
0.14410248
-0.07069015
0.06437515
-0.016875146
-0.14929232
-0.088937245
-0.11745001
0.031633765
0.05170702
0.04033589
-0.12722857
0.03408152
0.11858809
-0.11775306
0.12971647
0.10129618
0.008222272
0.05459144
0.01709404
-0.00873626
-0.14018059
0.13322152
-0.0057100113
-0.049345255
0.026245886
0.15585333
0.06647664
0.0022043844
0.17791647
-0.0044912323
-0.001872509
-0.12945965
-0.08301996
0.10500034
0.04043478
0.017886316
0.15584478
-0.1207111
0.15532316
0.043285266
0.060287576
-0.0028453534
-0.027999042
-0.073197
-0.015593406
0.07887671
0.12805463
0.11512367
-0.049382273
0.11098872
0.14637291
0.026600445
0.044516686
0.016904267
-0.08078237
0.064648144
0.1666435
0.0049186666
0.07177569
0.046727378
0.09130788
0.06042995
-0.077282354
0.07682523
0.013423662
0.0054063955
0.0600576
-0.1787472
-0.12157219
-0.062173124
0.14703348
-0.029537616
-0.005111278
-0.012617507
-0.034752063
0.025423259
-0.13839863
-0.07736276
-0.0473756
-0.1610609
0.09090058
0.11910225
0.14148904
-0.02825552
0.098152615
-0.039740007
-0.06609158
-0.006111653
-0.027576244
-0.1764748
-0.090947464
-0.008724471
-0.06955272
-0.019618545
-0.06230426
-0.1645286
0.19932887
0.18426569
-0.05469621
0.09062685
-0.11249306
-0.0076420144
-0.09884072
-0.010880689
-0.012778033
0.04459532
0.010450248
0.15672746
-0.20341831
0.06265945
-0.103085354
-0.07693293
-0.093575366
0.07604674
-0.11808941
0.025873978
-0.031127656
-0.005387496
-0.021461748
0.012351858
-0.052585583
0.092431106
-0.02590203
-0.033705283
0.12707102
0.06324341
-0.06444756
0.15999955
0.0072828396
0.17698714
-0.03083789
0.21160889
-0.017718257
0.24425998
0.0013064931
0.103784665
-0.11312929
-0.01521215
0.025451895
-0.0076534743
-0.046553902
-0.0027338874
0.10331036
0.08784027
-0.12978716
-0.21261989
0.082132556
-0.023653112
0.15273757
0.09576631
0.11897307
-0.05998165
-0.23534907
-0.14877778
-0.18069546
-0.11323447
-0.15788911
-0.08600253
-0.0027272718
0.026620384
0.08646322
0.08938022
0.08115305
-0.09763379
-0.13585179
0.07373885
-0.03956356
0.08325788
0.15878773
-0.052483585
-0.04431504
0.044332765
-0.003695348
0.15309602
-0.20383064
-0.04202693
0.06988103
0.060607094
-0.1286003
0.020189714
0.054353267
-0.029838394
0.12244059
0.018555844
0.016953947
0.030290749
0.17115512
-0.003526766
0.22788939
-0.124353215
-0.14164484
-0.13342771
-0.106964536
0.03859353
0.04657171
-0.14479639
-0.12619756
0.24454829
0.18050326
0.15023889
-0.0063501615
-0.0445516
0.08941334
-0.053285327
-0.20271912
0.01181258
-0.12238465
-0.04112479
0.037879955
0.043566838
0.0023206847
-0.031847645
-0.08236176
0.18241535
-0.06600478
-0.0890485
0.085132085
0.02956585
0.16904199
0.099879794
-0.16922516
-0.05097298
-0.10533498
0.049447622
-0.16108054
0.03320295
0.16485448
-0.08144418
0.066029824
-0.113059014
0.060563557
-0.12976563
0.12609114
0.049309034
-0.13023259
-0.04707425
-0.06127177
-0.11733873
-0.13266553
0.0012936154
0.029526135
0.10205954
-0.18034081
-0.18727219
-0.005030278
0.15978485
-0.070557825
0.05532923
-0.17838669
-0.08763529
0.10800003
0.2665163
0.025175314
-0.036606155
0.1395589
-0.18627547
0.26883596
-0.12285785
0.061831895
0.032939956
-0.07805423
-0.022152482
-0.10807465
-0.19915257
0.11817443
0.17109084
-0.067676336
0.03181445
0.21422407
0.034782037
0.046419464
0.03694183
-0.110901676
0.15569371
-0.064857535
-0.23035888
-0.04471609
-0.08095604
-0.10596424
0.11425711
0.092220716
0.045224633
0.07422555
-0.22291775
-0.025671015
0.0664495
0.08973467
-0.005124759
-0.13421369
-0.24084836
-0.063432686
0.09881606
0.14459336
0.018734626
0.027276587
0.20154354
0.043570634
0.014704131
0.03057436
-0.05573722
0.07795841
-0.1056157
0.0353402
-0.005921727
0.07689668
-0.063388854
-0.042209152
-0.19851628
-0.035704136
-0.14939009
0.08294052
0.1367849
-0.03360298
0.13528877
0.06560285
-0.030905114
0.14024377
0.11610169
-0.07338377
-0.009922576
-0.119996905
0.026584908
0.01791998
-0.0806055
0.13782907
-0.16434772
-0.06688988
-0.06726964
0.04295767
0.1373827
-0.12818658
-0.10498008
0.059192665
-0.03620954
-0.10440493
0.062694885
-0.17841086
0.067876674
-0.061993647
0.055954956
-0.10987579
0.052005313
0.004573216
0.0543394
-0.021331852
-0.06408964
-0.019477801
-0.052563667
-0.015688937
0.107479624
0.12574108
-0.1620551
-0.059184622
0.030148683
-0.07781478
0.13727967
-0.0813164
0.07203037
0.06613659
0.060952537
0.104499765
0.024013516
0.1586628
-0.08321359
0.005906007
0.18482383
-0.14042632
0.012328793
-0.033229165
0.0132740345
0.15607919
0.05507096
0.047526952
-0.1347535
0.12409128
-0.0077447556
0.032132886
-0.06717308
-0.03469455
-0.041494872
0.15540506
0.08897508
0.040271875
0.23038
-0.20550343
-0.03030724
-0.20065606
-0.16300485
-0.0970496
-0.06576961
0.1950987
0.1307193
-0.023417057
0.011813791
0.13663825
0.16582856
-0.14899002
-0.014636008
-0.14601782
-0.045896515
0.03171561
0.051069308
0.0714512
-0.004615474
0.12686147
0.07174013
-0.16010569
0.063847765
-0.08537546
0.08743135
-0.10600267
0.08210477
-0.010752559
-0.07240556
0.04883895
-0.07747928
-0.021201048
0.2072484
-0.07676579
0.0104462365
-0.05861593
0.030141074
-0.12747702
-0.13787213
-0.07058631
-0.11212277
0.08301295
0.1385445
0.11406658
0.06640136
-0.16916
0.050417617
0.060879026
-0.025814
-0.0035768454
0.049800426
0.07163549
-0.08604296
-0.023722066
0.12715034
0.0727119
-0.13864979
-0.15610293
-0.12279166
0.14872344
0.18528952
-0.016500711
-0.083946094
-0.08677946
0.0005657696
-0.08806038
0.07983814
-0.06497288
-0.17011197
-0.17351454
-0.05133342
-0.15775464
-0.19194582
-0.17750826
-0.07905568
0.14955458
0.10801659
-0.05296876
-0.009719169
-0.033403005
0.18247044
-0.08321866
0.03504173
-0.08069772
0.033138297
-0.034160443
-0.029370816
0.10847275
-0.03873605
0.12073527
-0.1447854
-0.11735852
-0.040736947
-0.072217196
0.028725771
-0.16065235
-0.10784992
-0.048388314
-0.01992233
-0.16670805
0.13632919
0.17902447
0.1199217
-0.02799066
0.15240149
-0.1411322
-0.10182462
0.104358524
-0.1455494
-0.020843294
-0.12428014
0.14599563
0.12284599
0.012116997
0.02304451
-0.113816045
-0.01000599
-0.025728509
0.03314189
-0.062198017
-0.00063812436
0.09212763
0.040906355
-0.16004221
0.010331695
0.10495794
-0.050175898
0.118848026
0.06347122
0.011887104
-0.11606641
-0.0032488087
-0.07944182
0.118516326
-0.15852018
-0.043234732
-0.14322235
-0.16207826
-0.025096396
-0.020340003
-0.1370814
0.02447438
0.12639795
-0.035729676
0.072792195
0.063152194
0.06982545
-0.21694693
0.14782447
0.009527299
-0.03363164
-0.051308036
-0.016775213
0.16572875
-6.944212e-05
-0.0034273735
-0.09920109
-0.1430098
-0.059389226
-0.00811789
0.0918307
0.015903013
-0.079762414
0.0676252
-0.10481778
-0.046081543
0.08815095
0.12851445
0.18050137
-0.14361463
0.07095227
0.0077995383
-0.18748945
0.15516105
-0.045896992
0.07285942
0.06861972
-0.014591648
-0.029004125
-0.19193178
0.0042514238
0.072541244
-0.08234629
-0.0980145
0.11923763
-0.22744891
0.18575457
-0.041484334
-0.08395539
-0.0018045288
-0.19401918
-0.12880291
0.21063943
0.046160035
0.03896468
0.019667549
0.14129469
0.045848064
0.07547542
0.10247173
0.14561102
0.020190557
-0.16447929
0.02284299
-0.20097299
-0.23198467
0.15540645
0.06784679
-0.0030737612
0.013975965
0.055134352
0.083470814
-0.16408148
0.16308577
0.0026691505
-0.044280663
0.014973879
0.15407382
0.21892293
-0.018394869
-0.22589251
0.06184001
-0.13666269
-0.09221955
0.031925227
-0.028127102
0.06355545
0.06931892
0.038990095
0.104708634
-0.02036655
0.065143
0.027156135
0.12331411
0.06793387
0.036216985
0.053256787
0.03998922
0.027151095
0.18036032
0.012412544
0.042936683
0.005633936
0.11371619
-0.03579517
-0.10434527
0.13740432
0.23070005
0.044733264
-0.1918747
-0.06711372
0.079289526
-0.092820376
-0.20960104
-0.053139847
-0.09322999
-0.0024628402
-0.075597055
-0.061141077
0.008853207
0.23146576
0.18077391
0.08862859
0.033760652
-0.08652465
-0.015516292
0.14081883
-0.001400188
0.044998463
-0.12646508
0.13370544
0.04716302
0.10943251
-0.18340406
0.10236548
0.021232473
-0.21248694
-0.09192369
0.03936626
-0.077606045
-0.17863293
0.12765399
-0.08658247
-0.09129971
0.20142688
0.16344449
0.1674925
-0.10835286
-0.10928731
0.13635741
0.101410985
-0.09304021
0.02907124
-0.12770168
-0.0058379835
0.00066684134
-0.084550366
0.21359795
0.037646364
0.086086996
-0.009527326
-0.24617313
-0.20626356
0.047130194
0.12935172
-0.2140672
-0.08349058
0.012219137
-0.07477438
0.02583238
-0.11331343
-0.21391673
-0.044235744
-0.12753312
-0.05222653
0.038210724
-0.08172596
-0.22460623
0.13880417
0.037927147
0.0690611
0.09583075
0.029170195
0.13787949
-0.11274285
-0.10719865
0.14821845
-0.115025096
0.070653655
0.23698741
-0.10707917
0.019078968
-0.046643734
0.15160343
-0.18697502
-0.0071348613
-0.15913561
-0.1501748
-0.13786113
0.09615513
-0.06237422
0.072030455
-0.051685218
-0.013221664
-0.08128889
0.07656718
0.026515398
0.064346425
0.017517086
0.13109307
-0.0016799642
0.05115836
0.21877305
0.04876777
0.10391032
-0.08990565
-0.16285844
-0.10608897
0.00658459
0.15895005
-0.03450322
0.113725215
0.07033355
-0.033147275
0.078094326
-0.22276838
-0.011627169
-0.13998692
-0.09089636
-0.15288202
-0.18468387
0.0063079144
0.12968177
-0.08144597
0.14111319
0.08559423
-0.06103015
0.14981724
-0.15335715
0.084242694
-0.012034659
0.12597734
-0.043611355
0.013673869
0.0056479215
-0.06590559
0.03621145
-0.04428774
0.10943913
-0.2056065
0.0774043
-0.0029976375
-0.04605116
0.17409395
-0.12814721
0.10305478
0.035457958
0.0076667103
0.012449997
0.11644051
-0.13834962
0.10942953
-0.04969681
-0.053738274
0.09176415
-0.05762964
0.06433067
0.0068838885
0.025950607
-0.02155574
0.010415271
0.12666368
0.019665465
-0.008029718
0.027053425
-0.15531692
-0.0011163121
-0.020068372
-0.005453776
-0.090286806
-0.062180784
0.05433402
-0.028359344
-0.04208466
0.058763184
-0.02489741
-0.12633322
0.220685
0.027287936
0.024217622
0.06505723
-0.09648763
0.10279572
-0.2158007
-0.16401406
-0.010679658
0.054346744
0.0019560056
0.036649704
0.048859317
-0.0422105
0.18801545
0.07936355
0.12667722
-0.04267514
-0.1627695
-0.032766424
0.079153925
-0.15824115
0.047261555
-0.1150485
-0.08347341
0.12515864
0.100471795
0.117148705
0.05954603
-0.05263258
-0.119131885
-0.20148142
0.04448994
0.016859537
0.114594005
0.19473405
0.0035190876
0.12786286
0.070474945
0.049561225
-0.15815452
-0.063656285
-0.0034073738
0.06578934
-0.119343005
0.13418292
0.064115606
0.008874401
-0.10731312
0.09274556
0.13994643
-0.07736571
-0.021927148
-0.16454388
-0.061347798
-0.061087545
0.10151024
-0.12958203
-0.051061317
0.043080635
0.0784028
0.014906278
0.001441124
0.107884854
-0.0864288
0.043042228
-0.041584566
0.13218786
0.034015
-0.13770749
0.12109288
0.08368627
-0.07870442
-0.17304274
0.08367001
-0.12452122
0.08661027
0.025607215
-0.021059675
-0.0833187
0.19957961
-0.04413663
0.023161752
0.18192331
-0.15025216
0.087893635
-0.0908943
-0.0028439944
-0.06831667
0.059514213
0.1673454
0.25236255
0.14741948
0.06519926
-0.055104755
0.111138724
-0.22210073
0.28261882
0.17711112
-0.007851659
-0.035821192
0.05743298
-0.20224416
-0.08995752
0.12876205
0.06951376
-0.107017286
-0.1055109
-0.026273444
-0.038799793
-0.1560633
-0.00015372362
-0.24119619
0.10324273
-0.043235984
-0.03871806
0.1358677
-0.0282032
0.049427677
0.063628405
-0.016149372
0.1534664
0.0071264664
-0.016696388
-0.04327448
-0.17421944
0.01924954
-0.081932366
-0.047494195
-0.029960044
-0.21337056
0.0035570953
0.13683946
-0.14694342
-0.02200821
0.049116004
-0.04235422
-0.022247234
0.019565724
0.24658783
-0.03378456
-0.15231314
0.06812935
-0.1166723
0.11837757
0.061850246
-0.20060411
0.025945881
0.06845778
0.050311446
-0.023236096
-0.007161636
0.15433283
-0.08655497
0.060128085
-0.12460748
0.03619674
-0.07956979
-0.03626655
0.009825471
-0.11264355
0.044750024
0.10946521
0.04250283
-0.12159938
0.009483655
0.16958861
-0.091934465
0.080181204
0.02448822
0.019971156
-0.18369423
0.07115952
0.029779509
-0.16766801
-0.14398193
0.04196881
0.1975945
-0.047205016
0.13966458
0.1400702
-0.015743181
-0.14818373
-0.014671095
-0.033648632
0.11381381
-0.10978328
0.09993622
0.045398306
0.021572901
-0.030984845
-0.08179688
-0.1967811
0.03992317
0.10614358
0.01842748
-0.08377675
-0.063565984
-0.021013904
0.15641412
-0.1630526
0.088497244
0.04697324
-0.13084735
-0.0060188966
-0.1241617
0.13286287
-0.16848719
-0.038310986
0.1227863
0.09131219
0.114987895
0.004285273
0.09306988
0.094663166
-0.0081798
0.10552659
-0.18502219
-0.116797216
0.006190549
0.032899007
-0.20381577
0.06547555
-0.005056674
0.008779096
0.08715604
0.12963158
0.024314942
-0.04043044
-0.13747136
0.17600614
0.15652266
0.19852585
0.105383895
0.13872224
-0.13774356
-0.047485713
-0.06531884
-0.08132238
0.13764285
-0.067857705
-0.04806753
-0.1558247
0.09319278
0.0031927894
0.11895872
0.040971965
-0.022573706
-0.06586023
0.042664837
0.09209019
-0.021358855
-0.037695125
-0.0057234694
-0.07425064
0.09078837
-0.09801783
0.108292334
-0.043278594
-0.021675065
-0.04867626
-0.06227156
0.0010241478
0.07306622
-0.005401389
0.12156702
0.05687409
0.13297343
-0.0042973063
0.032384183
0.06788987
0.0042855465
-0.10735025
-0.17338307
0.012179937
-0.14842272
0.26069558
0.024911728
-0.01061582
0.03629845
-0.013254862
0.047355298
0.0012056092
0.0069560464
-0.08702904
-0.052360415
-0.17405736
-0.067206316
0.057060074
-0.05479078
-0.11635296
0.04020066
-0.039625797
0.09897699
0.113155834
-0.16326664
0.05366356
0.14947535
0.07382485
0.131267
0.22034256
0.06800472
0.149159
0.17470574
-0.1564637
0.05446909
0.12626334
0.011214678
-0.026745606
-0.050049182
0.005682243
0.051978655
-0.06367215
-0.025529684
0.16714743
0.15373805
-0.020401835
0.22061388
-0.18457416
-0.1417837
0.03878867
-0.049174983
-0.17262264
-0.05977248
-0.014293732
0.14278147
-0.19755024
0.028673602
-0.16446805
-0.017906534
-0.056392245
0.07429762
-0.0036941622
0.013036935
-0.0744103
0.23828742
-0.007940538
0.08391487
0.032954782
0.03711441
0.11637851
-0.0626833
-0.051667005
-0.0030053167
-0.07813108
0.11070468
-0.030780507
-0.17998193
-0.023449302
-0.04571434
-0.16157909
-0.17758667
-0.021141984
0.06444929
-0.060325455
0.049258895
-0.17479217
0.14826252
-0.09230613
0.11695357
-0.16810426
-0.18621525
-0.11653832
0.2218002
-0.043661024
-0.15310134
0.11250997
-0.10594006
0.09224381
0.021368222
0.036156267
-0.13115217
-0.034434456
0.042084478
-0.07985122
-0.074852124
0.08466931
-0.11137654
-0.048178
0.21883158
-0.09970837
0.03681564
-0.17452464
0.17040613
-0.060570978
-0.15486845
0.0499104
0.21329884
0.04730524
0.04255819
0.05305394
-0.11528559
0.0002872508
-0.16029885
-0.11267436
0.018399617
0.15445177
0.16610222
-0.16185315
-0.032143228
0.124119826
0.16106868
-0.013758136
0.08182773
-0.10920343
0.14365052
-0.0651829
0.011146848
0.036708515
-0.09384754
-0.20039131
0.024358705
0.10680473
-0.011288261
0.03951956
0.0631046
-0.07880718
0.02623432
-0.2232763
-0.15536682
-0.12086798
-0.07077519
0.06218439
0.046091434
0.23359494
-0.122270495
-0.07302502
-0.14928366
0.056167666
-0.09648088
0.12178854
-0.04953808
0.009002435
-0.21208389
-0.072628535
0.08317337
-0.17834769
-0.007358626
0.19187249
0.029084476
-0.0111856265
0.14099509
0.01909237
-0.17084542
-0.043755207
-0.08668767
0.13125035
0.07458102
-0.13790172
0.033921055
0.16813713
-0.04232272
0.043938935
-0.04741309
0.21314384
0.16065769
0.119288824
0.17982216
-0.10957556
0.054225333
0.0741061
-0.10054621
-0.10996594
0.044260055
-0.21515618
0.04908875
-0.051157705
-0.0803923
0.14644663
0.043302488
-0.10682039
-0.15060106
0.097123235
-0.08665561
0.14396836
-0.11479053
-0.15740919
0.06632441
0.028967949
-0.121031635
0.027201315
-0.0905413
-0.115104444
-0.056292478
0.24672006
-0.061577257
0.19761889
-0.07659446
-0.066981845
0.029706182
0.13863578
-0.067059025
0.037468623
-0.10331388
0.18694642
0.057282243
0.0033948931
-0.11377449
0.006671492
0.22554342
0.14554119
-0.09755696
-0.10164636
0.0044779177
-0.017168496
-0.06587637
-0.09341562
-0.04237098
-0.08729918
0.006718622
0.18785961
0.10172321
-0.111796975
-0.013649057
-0.0047165817
-0.17398831
-0.019306775
0.11307558
0.015639937
0.13423528
0.03976226
0.14960933
0.05556848
-0.22601485
-0.24377474
0.17872757
-0.12848
0.038352836
-0.09844409
0.084726706
0.05391444
0.051503636
-0.0018571494
0.10487577
0.014090387
-0.0102852285
-0.012749963
-0.104018025
-0.133372
0.017018786
0.013761669
-0.049211986
-0.06038917
-0.09840235
0.08256833
-0.04926999
-0.014984883
-0.20723705
-0.029257057
-0.08862169
0.058063097
-0.10883483
0.21599384
0.103168815
-0.044741917
-0.16890039
0.026679704
0.17168742
0.17798075
-0.014381893
0.019262686
-0.035008524
-0.11002144
0.20664158
-0.051854555
0.10646597
0.2653934
-0.12630829
0.08343526
0.055487335
-0.18921542
-0.23086156
0.012821694
-0.27272528
0.03428987
0.12008519
0.10236772
0.04731714
0.0997591
0.09130343
0.005782374
-0.073586196
0.016263992
-0.06507425
0.020418443
0.07970858
-0.07817618
-0.02106083
0.19682069
-0.07149018
-0.028859312
-0.1073236
-0.025044331
0.13110268
-0.11103388
-0.053304877
-0.026494576
-0.06777358
0.19782828
0.14138602
-0.051748555
-0.001678326
-0.1689499
0.048021045
0.08039041
-0.0143166315
0.19993998
-0.14934577
-0.11613963
-0.0698045
-0.019875297
0.021177383
0.26374418
0.078610085
0.12740353
-0.12452829
0.01843675
-0.116484925
0.15225582
-0.06548091
0.23192503
0.15517764
0.13060758
0.03942115
-0.11399103
-0.0203644
-0.0035563298
0.092631534
-0.1456455
-0.13574527
0.19981255
-0.14498137
-0.18271412
0.077127025
0.068451844
-0.026084924
-0.13033108
0.1366952
0.022130521
0.0151219675
-0.03414773
0.06744486
0.095487215
-0.20559683
0.118767984
-0.14851657
-0.059833806
0.028745178
-0.023894638
0.18622938
-0.08964144
-0.038269565
-0.0884357
-0.011886165
0.06659403
0.016719053
-0.13171548
-0.20494473
0.032455385
0.15663816
0.12885942
-0.037525836
-0.12259248
-0.13867691
-0.022627499
0.0645171
0.17901129
-0.05366329
-0.032089405
-0.0350814
0.005611994
-0.09102122
-0.01368982
-0.22512232
0.0849743
-0.05654716
-0.0860002
-0.009569884
0.007376346
-0.18094614
0.1037847
0.06682478
-0.045537096
-0.14499831
0.062463578
0.20515853
0.020745076
0.18714155
-0.09069461
0.1310444
0.10145937
0.110789604
0.0136715695
0.093944356
-0.051322337
-0.07188106
-0.051314946
-0.17530265
0.07426296
-0.058497876
-0.061751522
0.06450874
-0.19001329
0.033107653
-0.08767096
-0.0540459
-0.13951242
0.12662613
-0.016383855
0.12084468
-0.23449764
-0.068359904
0.009423978
0.09541625
-0.13947639
-0.11264468
0.06311851
-0.08654932
-0.008010639
0.15943201
0.17303298
0.06964201
0.017238114
-0.030182285
-0.07302209
0.012388642
0.1925593
-0.024384504
-0.08790477
0.0722851
-0.20397057
0.07551971
0.24768049
0.18245904
-0.07755364
-0.006663899
-0.16203727
0.2087647
0.094740264
-0.10024268
-0.015896851
-0.02289236
-0.1235212
-0.08137614
0.08877301
0.0101157855
-0.09323903
-0.04566642
-0.015532114
-0.066141464
-0.12739412
-0.032222055
-0.049111396
0.072499506
0.08059518
-0.038611438
0.008518779
-0.096206054
0.008376876
0.008167094
-0.1708009
0.16919386
0.059364565
-0.054035403
0.05528105
-0.10146318
0.101380065
-0.10045952
0.008909627
-0.007851938
0.031668603
0.027769715
-0.049138054
-0.18035923
0.07185072
-0.1336837
0.034876995
0.16833
0.03286048
0.2111188
-0.025636315
-0.07787962
-0.032890152
0.007023343
0.008915118
0.072075985
-0.10382659
0.035587803
-0.08922417
0.041898653
0.15065302
-0.032433223
0.10757603
-0.025911229
0.08998527
-0.0031249076
-0.043229762
0.12555061
-0.02417011
-0.16787432
-0.029820472
-0.03030213
-0.105536714
0.14863563
-0.060215842
0.052179646
-0.042341612
-0.17175417
-0.086680986
-0.13409398
0.18189986
0.0022861185
-0.19743827
0.21633385
0.17254534
0.092389464
-0.046878133
-0.09627998
0.09520101
0.20656925
-0.13866438
0.17531274
0.070687234
-0.03510064
0.12943521
-0.043903008
-0.023715092
0.17192312
-0.025949974
-0.059429932
-0.014467572
0.104965806
0.08570718
0.17001258
-0.20368157
0.1498577
-0.15064047
-0.088298894
-0.13272248
-0.04038099
0.028139548
-0.07754221
-0.1426611
-0.07404129
0.13021706
0.14128557
0.0695807
0.05131683
0.08790875
0.08083041
-0.038142048
0.072666705
-0.044234417
0.123111844
-0.044681616
-0.03545403
-0.10927
0.056516517
0.016443891
0.025268672
0.21208239
-0.09083927
0.037040696
0.14769475
0.022082485
0.18623453
-0.07368465
0.14355217
-0.07153472
-0.0568897
-0.1892754
-0.096116655
-0.0914043
-0.14434779
-0.14514515
0.15536599
0.1972182
0.12895651
0.082002565
-0.09002288
0.06028267
0.04623709
-0.09196311
-0.12493999
-0.17022662
0.07454978
-0.04812293
-0.0883421
0.036415324
0.20888779
-0.19237214
0.052467808
-0.20912847
-0.012236393
-0.10210798
0.16714454
0.08150791
-0.010993205
-0.16553769
-0.088863306
-0.0009696933
-0.06517097
0.096025914
-0.17580965
-0.09030602
-0.09219607
-0.21899156
0.059074122
0.09391027
-0.21257833
0.11291629
-0.17647275
0.14408214
0.05171782
-0.045873016
0.091800615
0.11782338
0.08815869
0.066089846
-0.06934911
0.13949054
0.056784365
-0.007047302
0.12194143
-0.010720507
0.14295262
-0.038345225
-0.0054643285
-0.036699865
0.12990777
0.04644042
-0.18108511
-0.029733071
0.0031519155
-0.26867896
-0.16538209
-0.017079828
0.22732086
-0.19487675
-0.17071944
0.0323451
-0.06455752
-0.016432103
-0.07588637
-0.054139588
0.0885471
-0.016113088
0.11646892
0.008411169
-0.032343958
-0.038644996
-0.03432378
-0.120229684
0.057700306
0.010723611
0.09207084
-0.08530107
-0.042204283
0.068931475
-0.18624948
-0.076413915
-0.08353866
-0.02436252
0.046048652
0.021347636
0.06563614
0.022129789
-0.124165036
-0.05914115
0.17265067
-0.043273237
0.004298341
-0.13434367
-0.0020368933
0.21282522
-0.044976804
-0.13199463
0.24439599
0.19552289
-0.11325677
-0.057916827
-0.124176934
0.08089473
0.16790016
0.041121792
-0.038904447
-0.023514038
-0.10358417
0.11307841
0.12423081
0.0017194225
-0.16023101
0.15627533
-0.025204243
0.21186222
-0.05171908
2.5103262e-05
-0.08194519
-0.07253778
-0.16646807
-0.016503716
0.17468144
0.04816688
0.10109803
-0.09762343
0.08009916
-0.037550893
-0.011890088
0.07439622
-0.14701486
0.025189038
-0.17470814
-0.13673727
-0.14727637
-0.18416771
-0.09871269
0.20498821
0.050995264
0.17231794
0.08479546
-0.042548046
0.20574425
-0.122846946
0.025306478
0.12917578
0.049921554
-0.0107141165
0.13970512
0.18390772
0.030492937
-0.068847075
-0.04040159
0.2066944
0.1119102
0.0427398
-0.07955542
0.19243027
-0.06540405
0.13518734
0.18222709
0.05845763
0.13812263
0.15173866
0.0061025815
-0.015853217
-0.12586485
0.050073218
-0.18540055
0.07186145
-0.033115566
0.14502954
-0.05522996
0.08602053
-0.08933945
-0.035363372
-0.011462085
-0.024198137
-0.03725243
-0.18094547
0.004993292
0.015806548
0.091147736
0.09561711
0.07855219
0.059956223
0.08003582
-0.026967412
-0.010732264
0.10601936
-0.17919199
-0.07255026
-0.12938899
0.064624235
-0.06325243
-0.086962625
-0.153142
-0.20029727
0.058169357
0.042058583
0.08683622
-0.0015033166
0.1006281
0.09471581
-0.054260306
-0.13899626
0.12453256
-0.07842031
-0.07856216
-0.17369668
0.13613409
0.022609895
0.00018936984
0.19607137
0.12058776
0.2001636
-0.009472277
0.14775366
0.055892926
0.057320707
0.013984454
0.039739124
-0.074083254
-0.15528515
-0.022569288
-0.058633797
-0.13523518
-0.016045423
-0.08893267
-0.083823845
-0.00414702
-0.17338969
-0.0419435
0.18003426
-0.041623466
0.18641065
0.11609037
-0.10491453
0.054956984
0.026995746
0.052982993
0.074157804
-0.13109443
-0.11920374
-0.012274782
0.03448372
-0.11749943
0.15012588
-0.014922684
0.080413036
0.038690995
0.09452099
-0.059487417
-0.22731568
-0.23363072
0.08031285
-0.08915614
0.017169219
-0.0138163995
-0.11075216
0.16963187
0.0063631013
0.08410135
-0.10595997
0.17790367
-0.0549231
-0.14046828
-0.06202215
-0.014864561
0.008763209
-0.07731847
0.07274543
0.16212146
-0.10797443
0.08875852
-0.06606432
0.07179044
-0.06514054
0.14777896
-0.070951626
0.18350537
-0.024150873
-0.07845026
0.032477748
0.013315055
-0.1844754
0.04424439
-0.088252425
0.09778673
0.010115896
-0.047132354
0.10849118
-0.13303816
-0.0861139
0.18044564
-0.09913761
0.21031992
0.054688096
0.058533605
0.035747394
-0.0032700857
0.14547323
0.08003796
0.20433159
-0.10325354
-0.10190269
0.124066345
0.10542764
-0.080226555
0.05975059
0.06923206
-0.1539444
0.24771862
0.16565865
-0.051367816
-0.03845927
-0.056640174
-0.014167992
-0.20446324
0.022233576
-0.1282374
-0.09248437
-0.11648582
-0.21240328
-0.12732148
0.1707822
0.0171523
0.02647767
0.11541662
0.029872764
0.16630496
-0.24693877
-0.0007342085
0.03328355
0.1169257
0.20260961
-0.13472511
-0.08138742
-0.031756774
0.08772275
0.010022424
0.08354595
-0.05490731
0.13040933
0.059182107
0.13374732
-0.03830296
-0.13627788
0.06565178
-0.07425442
0.1705959
0.054433588
-0.12989046
-0.15738165
0.03415937
0.102772176
0.031703245
0.0003834164
0.06696655
-0.11363773
0.13521922
-0.06804713
0.12375402
-0.013102134
-0.0062687118
-0.18233293
-0.033582352
0.23310319
-0.06892279
-0.035142295
-0.17563628
-0.14551024
0.04037991
0.15623632
-0.15979287
0.21474807
-0.04588987
0.026908843
-0.035202727
0.10783378
0.09284566
-0.22914581
0.048093807
0.080801226
-0.14312062
0.07893839
0.080727324
-0.009328573
0.23421703
0.014829809
-0.14133443
-0.10706872
-0.18527663
-0.0944069
0.005512617
0.0041950652
-0.14295477
-0.12334296
-0.0094949175
-0.032282356
-0.054057237
0.031515945
0.21302654
0.0021617108
-0.17170358
0.07397871
0.14811137
-0.14545958
0.08315035
-0.024713358
-0.08414383
0.13267855
-0.18432473
-0.14040436
0.17748737
-0.005011559
0.1353763
0.1412055
0.03676331
-0.12616149
-0.07292323
-0.13436152
-0.071748205
-0.10623895
0.024397891
-0.08175893
-0.021931566
0.14004013
-0.015179989
0.052428193
-0.0129593965
0.16357154
0.06438269
0.005296422
0.20589171
-0.03295683
-0.04246757
-0.05694815
-0.11664353
-0.15001045
0.21208774
-0.098884046
-0.19038181
-0.02847895
0.15277779
-0.10742049
0.04765933
-0.12792574
-0.059467588
0.18958476
0.014229128
0.025209319
0.024414837
0.118093446
-0.113043375
0.079632856
-0.124178715
0.028654456
0.23327464
0.020347744
-0.035938174
-0.11941675
-0.09591286
0.2760261
0.0005640336
0.072502695
0.04446066
0.0016393585
-0.20629732
-0.025396729
-0.20246908
0.18749137
0.00037208508
0.20437771
-0.10391297
-0.04488274
0.10978408
-0.025055282
-0.11786726
-0.024186907
0.008038756
-0.15009496
-0.08133575
0.010625175
-0.050647717
-0.1730115
-0.10231406
-0.08524682
0.045853496
0.1082905
-0.20770872
-0.06469387
0.07493326
-0.042506505
-0.17689858
0.13983689
0.08046572
-0.010143851
-0.048154768
-0.021105913
0.23704024
0.090418875
0.08001456
0.052072633
0.031024223
-0.021823417
0.21625693
0.04296049
-0.20328912
0.10525284
0.19652107
-0.017111802
0.14095241
0.1754496
-0.21977186
-0.03795969
0.22246756
0.12055064
0.02504766
-0.0838186
-0.10343286
0.026903305
-0.023446824
0.0724129
-0.09032424
-0.0392775
0.1830718
0.11330049
0.014518756
0.057472695
-0.074649855
0.0053742304
-0.193195
-0.07000185
-0.0030182346
-0.108364046
0.17830266
-0.05538282
0.053334236
0.022370862
-0.038546294
0.074193895
-0.12585896
0.09869984
-0.109050326
-0.15355234
-0.027731845
0.0912882
0.073963985
0.08732909
-0.12332919
-0.12587382
-0.061835323
-0.107724614
0.055330116
-0.124711476
-0.050246213
0.036559686
0.088605195
-0.08806483
-0.22599705
0.25029024
-0.042675734
0.16902182
0.26376328
-0.15842916
0.0084413
0.019491935
-0.039122343
-0.19855216
-0.0658693
-0.00284016
0.18954416
-0.12660244
0.07340201
0.015222805
-0.10380421
0.0006990739
0.20359008
0.10244241
-0.021704119
0.15736552
-0.11517316
-0.088909015
0.049365062
0.10374209
-0.015566531
-0.119975545
-0.058716152
0.018048497
0.0654803
0.11069028
-0.028516617
0.020831693
0.039923143
-0.1606309
0.006419941
-0.031163447
-0.11213656
0.13317467
-0.08353528
0.14171965
-0.3216999
0.029981405
0.1098367
-0.00014270947
-0.0920425
-0.123344116
0.008094758
0.18471667
-0.12930053
0.06963144
0.1984552
0.0002633028
-0.08242893
0.16188729
-0.23911113
-0.12872325
0.12374559
0.10491537
0.15504715
0.025229825
0.099994406
0.03993744
0.20140186
0.052890528
0.24919699
0.019698054
-0.06426849
-0.011374734
0.18357222
-0.13368134
-0.0976155
0.18040772
-0.028083565
0.1430755
-0.2318812
0.035479177
0.079218276
-0.07397705
0.22546636
0.059840057
-0.085288644
0.21988362
0.13457808
-0.13745949
0.008192288
0.10032092
0.04652435
-0.1427284
-0.1595619
-0.045826748
-0.09358667
0.1108909
-0.18786149
0.14602669
-0.0066599553
-0.05042227
-0.21798562
0.08010881
-0.010726265
-0.10961099
-0.068891585
-0.1956542
0.0932169
0.043956894
0.08774695
-0.24891119
0.09397306
-0.11167407
-0.09152864
-0.13967063
-0.08064295
-0.07796981
0.1023745
-0.08331626
0.10742939
-0.15425062
-0.052696228
-0.24259083
-0.13611592
0.10531427
0.03782807
-0.062911086
0.043511797
0.042213228
-0.05258887
0.045917355
0.13469994
-0.09107237
0.11336289
0.0148034375
0.04233615
0.13747282
-0.05635696
-0.15574032
0.06421205
-0.25303316
0.1646519
-0.09446386
0.08793197
0.115653366
-0.17215404
-0.16150069
0.11803585
-0.031949207
0.09237568
-0.065191224
-0.01640142
0.20106626
-0.18458366
-0.2317331
0.23704839
0.056739736
-0.103281006
-0.05935012
0.13005295
0.10593621
0.23613463
-0.20355856
-0.13020648
-0.036389235
-0.11895119
0.06705198
0.017350925
-0.20294103
0.018256651
0.01687323
-0.109978124
-0.09960294
-0.08283827
0.13088286
-0.01022925
-0.21424742
0.19547895
0.15747261
-0.04374063
0.14046787
-0.04285541
0.19049942
0.080664374
-0.08245047
-0.030882875
-0.08116201
-0.005133294
0.017624982
-0.06374828
-0.0202563
0.05962121
0.05506634
0.040201183
-0.13073388
-0.0013437532
-0.05734815
0.06919753
-0.040077675
0.039335005
-0.0866889
-0.1906479
-0.06933242
-0.07303419
-0.019094499
0.11925445
-0.08716239
0.1824174
-0.017839469
-0.01326542
-0.24463478
-0.120351814
-0.12220515
-0.009997286
0.08554811
-0.037103325
0.1693543
0.086653896
-0.17058022
-0.005218642
0.08369747
0.01937793
-0.12757112
-0.020786012
-0.03257291
-0.08548717
0.02812217
-0.008704872
0.007153962
0.07911883
-0.019108186
0.050112993
-0.01606852
-0.08159978
0.027802607
-0.15506159
0.08529829
-0.14691246
0.05730167
0.047905914
0.16388129
0.1209077
-0.013854929
-0.06423744
0.028541049
0.12155921
0.17394175
-0.16412957
0.030396722
-0.013441607
0.1536156
-0.049923696
0.10526641
-0.088238485
-0.072958104
-0.0918205
-0.09392875
-0.037011523
-0.0755326
-0.15869483
0.17092907
-0.16186337
-0.18204702
0.11012761
-0.15760233
-0.10531626
0.05407399
-0.12399177
-0.14085466
-0.15626778
-0.035517484
0.19352747
-0.16417603
0.18515931
-0.006874943
-0.051815253
-0.034942087
-0.057174537
0.15275535
0.13952063
-0.18573947
-0.14873083
0.087154925
-0.121756725
-0.0072113196
-0.06846836
0.1376315
-0.10718872
-0.040401593
-0.17867021
0.0024321794
0.101410076
0.11834416
0.11485604
-0.020269642
0.006959126
0.20551902
0.013157293
0.09488757
-0.07228666
0.06313238
-0.16913135
-0.13655004
0.113512285
0.12860355
-0.20307687
-0.14243683
-0.09206361
-0.061362803
-0.17593971
0.0055314256
-0.029458605
0.05360234
-0.008529865
0.16164166
-0.211482
0.10973104
0.036775816
0.084970534
-0.013616352
0.20688759
-0.006766278
-0.13499044
0.1640252
0.057584062
-0.026716216
0.13308315
0.121726215
-0.0567365
0.2206949
-0.10141088
0.10980179
0.054091524
-0.14998244
0.07673879
-0.12736349
0.090806164
0.028169569
0.17522179
0.04548001
-0.013373111
0.062417753
0.1627616
-0.102791406
-0.17981248
0.068939455
0.18148644
0.026312541
-0.068798274
-0.09148866
0.13484171
-0.03179797
-0.0697541
0.015112142
0.1002539
0.19522604
-0.14462145
-0.279933
-0.049363483
-0.08347971
0.0022900505
-0.059776332
-0.0035315184
-0.06663418
-0.2571244
0.103553005
-0.23606381
0.07774666
-0.1422241
0.06096728
-0.031779114
0.0858755
0.050064575
-0.009716885
-0.031293824
-0.068786904
0.05821677
0.2020467
0.05803231
-0.06837943
-0.049697667
-0.18050097
-0.096133076
-0.01147002
0.09597731
-0.017583108
0.00670163
-0.13253894
0.060683984
-0.034594335
-0.1708227
-0.19079922
0.16410135
-0.13736305
0.05810944
-0.007095394
0.2546326
-0.10118042
0.11733354
-0.12111015
-0.14224662
0.030345397
0.006442779
0.046087984
-0.05305469
-0.17667845
0.068293445
0.17608938
0.05969669
0.109604664
0.22010514
-0.09165776
-0.022990376
-0.01980922
-0.13662487
-0.12706608
-0.1792286
-0.16125447
0.077961646
0.17214836
-0.1066132
0.03380251
-0.06574897
-0.026191143
0.11190441
-0.12984528
-0.077837646
0.08881898
0.12143376
0.050567634
-0.22212179
0.07646878
0.2118135
-0.018497206
0.034837075
-0.05371195
-0.03494472
0.071466774
-0.052160986
0.069925085
0.05944639
-0.0349194
0.117295526
0.055752903
0.008919094
0.00927518
0.058211915
0.00046451547
-0.08683528
-0.08804733
0.19924168
0.025938874
-0.06765017
-0.12306311
-0.09546161
-0.00201831
0.18814877
-0.062429063
-0.076082736
0.09633701
0.07711231
0.0597746
-0.01362345
-0.16101398
0.021477742
0.13074449
0.020807343
0.11037906
0.03768122
-0.012405057
-0.02824336
0.13815284
0.011027764
-0.036884643
0.18197858
-0.08495802
-0.16670904
0.00536918
0.09693208
-0.026498398
-0.104547895
-0.0023236768
0.092806086
-0.11829897
-0.0477021
-0.05501054
-0.185469
-0.24589206
-0.016266236
0.02437574
-0.16686691
0.13311473
-0.10940925
0.01009789
-0.08631712
0.008645235
0.03649255
0.022487437
0.104393266
-0.011293894
0.017407628
-0.09191065
-0.2012461
0.07845862
0.026049277
-0.0028863149
0.08186827
0.017052807
-0.13320214
-0.009945335
0.19835587
-0.096412405
0.08161655
0.091602676
0.10412012
-0.08082375
-0.0057434435
-0.10864542
0.12914763
-0.19928178
0.102152
-0.03402075
-0.030821905
0.13070163
0.11592968
-0.14541446
0.020732623
-0.061418816
0.08958933
-0.023882797
-0.1621873
-0.09712768
-0.015805438
-0.13799548
0.02133313
0.09890834
-0.0598194
0.08222595
-0.040577468
0.10090616
0.06597505
-0.12986283
-0.08911732
-0.10591127
0.12564714
0.043298952
0.22969052
0.1596573
-0.02018985
0.18543614
0.08832288
-0.030021274
-0.1454938
-0.14539
-0.073173426
0.09477162
0.17302147
-0.039924484
-0.15023871
0.054089595
0.16791041
0.14477865
-0.037426047
-0.16697732
0.047267497
0.110552676
0.043272544
0.115937255
-0.12022061
0.12066156
-0.04316625
0.23590761
0.017617261
0.03738015
-0.120966844
0.13378564
-0.09528312
-0.18090054
0.18878715
-0.09263242
0.048323967
-0.034125492
0.0088003455
0.14197834
0.13636117
0.07281854
0.16651563
0.14104713
-0.027115868
-0.019570641
-0.06919077
0.011271187
0.055371914
0.050721176
0.05655908
0.00888887
-0.11491327
-0.08883705
-0.035644736
-0.06396632
-0.08554086
0.059862584
0.05290058
-0.16035096
-0.013781208
0.18337435
0.0045743203
-0.031380553
-0.003150902
0.012914691
0.015330375
-0.11947927
0.1053074
0.09848284
-0.1740179
0.09465889
-0.03438616
-0.017247379
-0.117728
0.08255115
-0.06891981
0.06545136
-0.094287105
0.08216547
0.15112895
-0.1973663
0.15415578
0.05095299
-0.10247203
-0.10947788
-0.2030631
-0.03890633
0.14384353
-0.09588049
0.12854832
-0.141618
-0.16656546
0.0037062578
0.13297701
-0.047233574
-0.024831258
-0.011196084
-0.056515228
0.063800886
0.010626868
0.17845945
0.010524691
0.1906441
-0.10742914
-0.058847684
-0.111090854
0.048946846
-0.13735566
0.012894651
-0.19438173
0.09851566
0.093765676
0.046367574
0.06573989
0.048729945
-0.1778271
-0.093005456
-0.09280467
-0.10374664
-0.1305586
0.049005646
0.10086369
0.057546824
-0.07366905
0.06273198
0.14272955
-0.029981067
-0.105719246
0.19393937
-0.07363857
-0.011476682
0.1945812
-0.19284776
-0.06769296
-0.035780646
-0.06617318
0.0027823045
0.008343019
0.014491765
-0.12606978
0.14542583
0.09871261
0.15639187
-0.10823391
0.07231324
-0.012145678
0.19358839
0.06527903
0.13806532
0.19668017
-0.18449722
0.24776804
-0.20444097
0.03030014
-0.041834712
0.07278786
-0.16774933
-0.110792264
-0.18532082
-0.11454233
-0.050587174
-0.23064734
-0.103601374
0.18541971
-0.17930976
0.08166834
0.17163575
-0.08234019
0.13769297
0.032161076
-0.07026308
-0.19506837
-0.008877145
0.02198394
-0.03981553
-0.05218574
-0.015872044
0.18711752
-0.10055822
0.18036252
-0.16941288
-0.005216694
-0.09459994
-0.044852793
-0.12259656
-0.13131522
0.005309434
0.09656111
-0.19526316
-0.07894645
0.09085817
0.10666303
0.25496975
-0.031016137
0.105664775
-0.11731639
-0.048086304
0.26307237
-0.052697156
0.047581404
0.10761608
-0.03307991
-0.03489
-0.14783818
-0.16146354
-0.027527563
0.0028440214
0.09101633
0.08618213
0.03367019
-0.041523006
0.03048969
0.060346372
-0.045349658
0.11620062
-0.058427863
0.13326971
-0.115472354
0.069345795
-0.039363615
-0.07016983
-0.011871893
0.0581248
0.03658759
-0.09257142
-0.054120127
-0.035891134
-0.0088055935
-0.12218418
0.06900335
0.13810012
0.030196693
-0.02139974
-0.025911223
-0.19971743
-0.18346372
0.16760926
-0.13305762
0.0841259
-0.12620161
9.465244e-05
-0.0710634
0.10144955
-0.10414823
0.16401678
-0.008120414
-0.01566113
0.042584322
-0.106613144
-0.04113744
-0.023684036
0.10819139
-0.117244564
-0.025634065
0.15689096
0.12885056
0.14742617
-0.20519824
-0.120295435
0.012608246
0.001617804
-0.08238614
0.17455362
-0.2036392
0.1351144
-0.17738268
-0.1504323
-0.20335461
0.0057288334
0.1814412
-0.088731684
-0.20101424
-0.0831797
0.040391486
0.0097029265
0.22962621
0.0005755262
0.004002831
0.13751817
0.03228659
0.019755108
0.08557376
0.029787969
-0.054952554
0.017360369
-0.09194956
-0.01499788
-0.019721158
0.10768853
-0.084835626
0.008297118
-0.05853572
0.15426822
0.09183529
-0.1512682
-0.0554755
-0.044911087
-0.119897656
-0.06457047
-0.080189444
0.08469307
-0.14264585
-0.070041314
-0.02558626
-0.034131445
-0.22934055
-0.16067903
-0.15930273
0.026393129
-0.08860333
-0.029440343
-0.09960463
-0.011802745
-0.11140541
0.058196288
-0.108701944
0.13556074
-0.09367188
0.039558392
-0.1361518
-0.20674148
-0.09308218
-0.017734269
0.11949213
0.09636754
-0.021609714
-0.019186249
-0.008446712
-0.17122793
0.14269166
-0.11810514
0.011090371
0.061697923
-0.22314738
0.16888338
0.16650985
-0.039422307
0.0598465
0.055213835
-0.030753696
0.2115546
-0.08154066
-0.06740888
0.08248229
0.0140202
-0.06393512
0.09260707
0.2072024
0.00046097627
-0.0901242
-0.10252061
-0.13486932
-0.2505845
-0.18674077
0.02714364
0.1112671
-0.10302726
-0.07570059
0.058809236
0.04591526
-0.0590248
0.17017247
-0.06986882
-0.08127923
-0.0008815371
-0.013918363
-0.08536442
-0.015698353
0.066936284
-0.14028881
-0.12901445
0.055617344
0.11774424
0.12347343
0.18640466
-0.050305054
-0.063199416
0.052114688
-0.1610567
-0.041900076
0.08216623
0.08431418
-0.013630974
-0.025387142
-0.046459652
-0.0037297248
0.043598145
0.092645146
-0.08745926
0.18381537
-0.110527806
-0.12720744
0.024139833
-0.097427964
0.18598759
-0.15406679
0.13016567
0.14496456
0.041973814
-0.038043905
-0.114162736
0.01497941
-0.042533692
-0.119705535
0.09389165
-0.06028335
-0.1194472
0.009754785
0.10504789
0.02340694
-0.07526378
0.065035574
-0.17412889
0.0105065545
0.081767835
0.11314105
-0.08951105
-0.12481909
-0.034097232
0.08694945
-0.08400454
-0.012009857
-0.08188256
-0.025473759
0.15382576
-0.067856364
0.06754312
-0.05951339
-0.087694354
-0.0616273
0.081317335
0.12033998
0.107937545
0.14160648
0.017469723
0.0986396
0.02888594
0.01454011
-0.1795196
-0.09220179
0.12092125
-0.08588836
0.06056568
0.077623345
0.20395331
-0.053636353
0.014884653
0.02014593
0.023434224
-0.14422947
0.16094965
-0.11981613
-0.15285103
0.030509133
0.08615239
0.09210419
-0.17445965
0.044799827
-0.16114011
0.039646164
0.080384254
0.03694126
0.13075271
-0.04225022
-0.03528799
-0.14912029
0.04605799
-0.0030000615
-0.10972136
0.028639004
-0.114547245
0.091736436
0.124463975
0.15307008
0.040030472
-0.1535935
-0.097443886
-0.09434324
-0.043675914
0.07729094
-0.17332926
-0.049002647
0.07909629
-0.018300356
-0.0640022
-0.015996026
-0.074650764
-0.045509845
0.07587451
-0.07154069
-0.19232747
-0.048321206
0.05374057
0.10036398
0.018746117
-0.033730883
0.08486775
-0.013239606
0.12661874
0.07163376
0.08185867
-0.01643807
0.16794983
-0.1996352
-0.034542352
0.09468137
-0.22692503
0.08861825
-0.04743315
0.059406072
-0.1313863
-0.16957895
-0.15205455
-0.18498246
0.003922861
0.15698273
0.031743586
0.055821884
0.078332275
-0.071897455
0.16232003
0.036287796
0.08152269
0.0060676048
0.1742263
-0.058371082
-0.1583297
-0.036521763
-0.088393316
-0.054125104
0.15452404
-0.1280675
-0.12998843
-0.07990388
-0.14325729
-0.0076161735
-0.09650681
0.08140655
0.011771178
0.036561962
0.016324067
0.09963698
-0.06177504
0.21727744
0.1423212
-0.13821235
0.11064528
0.027148101
0.11341023
0.09004066
-0.21053918
0.0055427505
0.02355986
-0.14522414
-0.2149229
0.113558285
-0.17468189
-0.16405082
0.041685566
0.10549559
-0.0062810364
0.120304964
-0.0209286
0.11253693
0.09608573
0.17774399
-0.098645374
0.04307994
-0.11450012
-0.08227971
0.045292377
0.05716744
0.15223798
0.113115184
0.0044997944
0.1336303
0.052014064
0.08453788
0.123482786
-0.02187936
0.02311275
-0.09493951
-0.16316961
-0.037618916
-0.19523829
0.07918851
-0.03299556
0.051981132
0.15044065
0.028934218
0.08038424
-0.17532577
-0.076363444
-0.031683333
0.021845879
-0.16836415
0.047740165
0.16343482
0.19328307
-0.037356634
-0.1650021
-0.108326435
0.22876981
0.0763512
-0.22005181
0.06459827
0.045110952
0.14086276
-0.0061184
0.12763996
0.24956454
-0.17431495
0.03842406
-0.010559311
-0.2292695
0.23909204
-0.13438344
-0.13306704
0.083198756
0.14294282
-0.01883458
-0.09411155
-0.00010726254
-0.07192195
-0.18212408
-0.030639574
0.23969792
0.10777261
0.0034278587
-0.17845975
-0.08283914
-0.07510916
0.12887336
0.18890117
0.1898444
-0.09429784
-0.071148634
0.06107279
-0.011525737
-0.03212585
0.1849997
-0.17281115
0.0666369
-0.17575839
-0.020755444
-0.085635364
0.17550167
-0.18244664
-0.023138983
-0.096729875
0.11254703
-0.07775179
0.2544036
-0.079281345
-0.06319398
-0.14580037
0.1326522
-0.082798585
0.20101745
-0.045239445
-0.025092663
0.08025
0.02384145
0.02565068
-0.18797417
-0.10761506
-0.010787538
0.008273095
0.13398749
-0.04496491
-0.11228318
-0.045643713
0.17462058
0.10008108
-0.20130302
-0.0016758883
-0.05096904
-0.04906664
-0.18412937
-0.07785313
-0.10842508
0.09121255
-0.15536009
-0.039091032
-0.1698021
-0.11603435
0.18052661
-0.1537657
-0.17023899
-0.006245076
-0.28947198
0.06186576
0.1256668
-0.044474103
-0.059031583
-0.08166241
-0.08459004
-0.0058569033
-0.12573159
-0.10478715
-0.12442667
-0.062064093
0.029837755
0.0653887
0.07329512
-0.07046964
0.02821873
-0.04862879
-0.022969041
0.054933034
0.023783823
0.010744811
0.1375838
0.05419145
-0.08810815
0.20524038
0.025150165
0.19155933
-0.192556
-0.0329112
0.07534797
0.09239812
0.06445541
0.075146206
-0.04020395
0.081812024
-0.055630475
-0.15268756
-0.06448773
0.13044804
0.12006364
-0.0046809786
0.030676387
0.031033471
0.045312364
0.17962393
0.10643029
0.052448384
0.107352324
-0.06908295
-0.18023154
-0.07081155
-0.10964865
-0.0029564365
0.075941786
-0.084334865
0.023526324
-0.05009836
-0.04815122
-0.029394928
-0.17427786
-0.10198763
-0.07657803
0.027721424
0.31046826
-0.19285415
-0.03413255
-0.030250447
-0.066010185
0.10873134
0.19326676
0.08981629
0.07815406
-0.061215106
-0.17912208
-0.09694512
-0.16596642
0.16861367
0.095227666
0.029167667
0.18064518
-0.091354966
0.066010624
-0.13736859
0.28521714
0.007868461
0.09653646
-0.15627664
-0.005136381
0.020091241
0.06944778
-0.077712364
-0.25486726
-0.09613805
0.09104135
-0.06619262
-0.040318713
0.010018308
-0.092026435
0.12887836
-0.01921517
0.08698461
0.076128446
-0.10555959
0.12492316
-0.06684491
0.27670234
-0.054060217
0.21640065
0.106550105
0.038056888
0.14482994
-0.19856429
-0.13344093
0.20301165
0.094977945
-0.041510325
0.016830586
-0.09238662
-0.14184965
-0.15066057
0.16724075
-0.10936358
0.014491775
0.05391639
-0.010329542
-0.132183
-0.25193095
-0.26021376
-0.1185561
0.308591
0.04114728
0.06953132
-0.13446288
-0.015930561
0.17894049
-0.1449457
-0.2037157
0.08199376
0.01199958
0.17080717
0.11385122
-0.27554324
0.09501492
-0.043196253
0.012927823
0.25825095
-0.29762638
-0.07381702
-0.02613723
-0.056565695
-0.104780935
0.12115345
0.09724494
-0.044104256
0.004273261
0.19221444
-0.2009267
0.10501681
0.00633822
0.016865714
0.22113615
0.02829408
-0.21920413
0.16014151
-0.014189073
0.044295114
0.048450418
0.033748534
-0.02362905
0.17853874
0.2814372
0.09025007
-0.007829798
0.16199891
0.11707165
-0.097506955
-0.096865445
0.052314393
0.19718497
-0.023812043
-0.011012511
0.1436725
0.013788593
0.0045779417
0.01966867
-0.09167899
-0.09530177
-0.14663404
0.14679125
-0.036229186
-0.071452454
0.11997776
0.058947034
-0.0032930349
0.17305662
0.09672017
0.105658315
0.06256455
0.018085785
0.021960827
-0.040792726
-0.08387641
-0.1318303
0.10429799
0.050285526
-0.049633235
0.03627618
-0.057434298
0.014022678
-0.0061114873
-0.15224025
-0.176762
0.03904259
-0.19188963
-0.15937683
-0.17017733
0.05451874
0.10021592
-0.12235764
0.0010698095
-0.062757924
0.060168885
0.13604356
-0.1551981
0.14496025
0.17778894
0.042903144
-0.04670521
-0.15636513
0.10686245
-0.099542275
0.105207026
-0.2211538
-0.059191342
-0.045556817
0.1499911
0.040273335
-0.062105875
0.09476096
-0.13897441
-0.03152029
-0.09713756
0.10174756
0.099341705
-0.15428896
-0.15263505
-0.024470821
0.16238794
-0.065783106
0.05062093
0.0018864931
0.05659643
-0.06346293
0.052750394
0.09442417
0.052952424
0.07262055
0.005391983
-0.110297844
-0.0029653513
-0.09704882
0.09929308
0.05274985
0.039352376
0.04939583
0.018009
0.034426004
0.026123378
-0.15443857
-0.09162924
-0.18532196
-0.09434412
0.18714231
0.107071996
0.08183799
-0.069081195
-0.013001256
0.061718564
-0.13837494
-0.020741187
0.13916528
0.007758137
0.008612216
0.05083485
0.037316244
-0.1876926
0.09896359
0.06669135
-0.061457254
0.011182503
-0.095268846
-0.10148319
-0.007227983
-0.114385635
0.04875525
-0.15604182
-0.029427785
0.18564701
0.11632491
-0.022296501
0.092554376
0.099353634
-0.12562107
0.012987336
-0.07508263
-0.13378398
-0.026053084
-0.0043394254
-0.02391659
0.028894132
-0.064617604
-0.1278548
0.101080984
0.09345116
0.048951346
-0.16703603
-0.08629142
0.23400003
0.1147471
0.1986662
0.09358421
0.09997306
-0.026900271
0.18331303
-0.0504992
-0.050648443
0.091864884
-0.09437204
0.08940262
-0.18013285
-0.001178815
0.023348518
0.073830925
-0.066574976
-0.1431721
-0.036193755
-0.05170791
0.09264268
0.052925788
0.1359978
-0.16158885
-0.10294473
0.0043871673
0.13696013
-0.0133207375
0.019098515
-0.15082625
-0.28161934
0.07848391
-0.055462524
-0.056995645
0.026001202
-0.021641966
-0.14816265
0.02552638
0.13118182
-0.15121917
0.047609843
0.17785622
0.0966753
0.031138126
-0.0131737925
-0.011202243
0.12109535
0.24127565
0.21202804
0.15486182
-0.017339608
-0.14736278
0.11649559
-0.017500913
-0.2246193
0.14389414
-0.034498215
-0.097550735
-0.088475764
0.22346976
-0.045127705
-0.18753882
0.04775505
0.15218079
0.09718498
-0.12759838
-0.065554895
-0.16749227
0.17614624
0.11163618
-0.06088649
-0.12996796
-0.09035814
0.19731672
0.1716666
-0.1728443
0.11319647
0.023739593
-0.1486738
0.036364
-0.2518354
0.111293435
-0.049300432
0.048453186
0.047424406
-0.21140529
0.038941514
0.15228209
-0.1920518
0.012027689
-0.08059515
-0.003362312
0.27824825
-0.11383172
0.17050979
-0.15260446
-0.104525805
0.027562622
-0.0907858
-0.06806436
-0.16308624
-0.09157811
-0.0066953343
0.12858115
-0.00045179192
0.12100045
0.087667525
0.010811868
0.06221879
-0.00092073274
0.015800362
0.10582277
0.12653755
0.12310798
-0.056143753
-0.020867974
-0.036995735
0.17627375
-0.051795833
0.023079714
-0.040888563
-0.26211226
-0.06428004
-0.017715596
0.11646595
-0.028386962
0.0063242693
-0.090853244
0.0038052355
0.11268608
0.05914489
0.036133807
0.09903744
-0.06591127
0.04912045
0.13560101
-0.10875041
-0.011818128
0.1009763
-0.06338723
0.055276673
0.08735025
-0.074149616
0.12468004
-0.07006953
-0.036381796
-0.198125
0.13950613
0.18972577
-0.08407681
0.23023216
-0.099217474
-0.0054609566
-0.023867454
-0.17272888
-0.07726349
0.12333084
-0.029202892
0.040770527
-0.12868151
0.058159154
0.015170388
-0.04377007
0.17718634
-0.05443306
0.075888194
0.12397277
-0.06592782
-0.0877929
-0.114802286
0.02389966
-0.024333423
0.21696234
-0.09927678
-0.007059662
-0.0060783294
0.05894831
0.16439845
0.09085743
0.03137603
0.2158535
-0.06738246
-0.022570575
-0.1711539
0.09897233
-0.1718814
-0.20629382
-0.089251816
-0.08274788
-0.106649145
0.057316422
-0.02579214
0.08316834
-0.13787295
-0.15081307
-0.061016355
0.13835844
0.21835113
-0.07315649
-0.049416732
-0.09182328
-0.09434404
-0.09293955
-0.009377952
-0.110328324
-0.08386372
0.008545331
-0.23182635
0.026840635
0.1093862
-0.052308626
0.22960484
0.05124154
-0.022148568
0.016261257
0.13610339
-0.109008394
-0.030314008
0.060365923
-0.054477677
-0.016591707
0.0684851
-0.12886837
0.0711011
-0.041469652
0.0033040894
-0.1674201
0.059992906
0.24584328
-0.08041912
0.06836539
-0.07109009
-0.20166309
-0.10313779
-0.0069431146
0.2217561
-0.0017161447
0.01751557
-0.0283768
-0.10734215
0.13622193
0.06454262
0.12227453
-0.0225895
0.038459726
0.19346753
-0.2240495
0.18429136
-0.06420517
0.06298029
0.21594565
0.04249517
-0.0095433565
-0.21585526
-0.13465643
-0.06461443
-0.16327417
-0.019867152
0.010351056
0.13178118
-0.10492095
-0.014978908
-0.17544714
0.2041761
0.12584023
0.108789325
0.13735351
0.06325282
-0.043113545
-0.12323095
0.009064873
-0.13106422
-0.09945016
0.15593995
-0.13824627
-0.22400618
-0.13309672
0.11031898
-0.18319933
-0.09907801
0.04730827
0.08071875
0.03586287
-0.026558336
0.0519576
-0.08918736
-0.02845465
-0.07690864
0.07308244
0.08887114
-0.06998158
-0.11665934
-0.080798715
0.1058829
0.10434349
-0.012745593
-0.079951674
-0.09557124
0.10162912
0.11011233
-0.06172604
0.10005164
0.061562687
-0.0534658
0.0388767
0.20723115
-0.10172809
0.008304804
-0.1275912
0.08835878
-0.054593824
-0.0018674418
-0.19069049
0.15502775
-0.04023061
-0.104021326
0.22934306
0.17907047
-0.12487205
-0.17810808
-0.11925546
-0.10218654
0.093220085
0.026560469
0.03314199
-0.13574909
0.122335315
0.2078057
0.00255434
-0.07326227
-0.14129281
-0.0844211
-0.14838074
0.1293879
-0.03668619
-0.10362237
0.023657667
0.011318049
-0.14689653
-0.04116571
-0.024609167
-0.022688715
-0.13168651
-0.1466016
0.12435151
-0.08702158
0.08609899
0.1948173
-0.0067041637
0.25230598
-0.20347092
-0.09182304
0.12803122
0.15038966
0.11037832
-0.110666595
-0.0119323945
0.14781524
-0.09214796
0.011374923
-0.18976149
-0.06239615
-0.02848479
-0.08406801
-0.0060215574
0.041091066
-0.10173763
-0.16530465
0.08204475
-0.13681874
-0.00888818
0.06921039
-0.068457186
0.19135472
0.007240186
-0.19132961
0.120907925
-0.15043744
-0.13083781
0.073471
0.086054966
-0.08473789
-0.039591607
0.094955206
0.11463445
0.09755406
-0.17572625
-0.12037781
0.03995405
0.13679987
0.03821293
0.12028213
-0.13545918
-0.095833555
-0.09379724
0.11008193
0.07891635
-0.17264955
-0.09588613
0.039774913
-0.071113795
-0.01517941
-0.15891606
-0.14694187
-0.12605959
0.038849317
-0.041395627
0.023958486
-0.09080368
0.04199699
-0.107806936
-0.09513344
-0.09359939
0.004095448
-0.09934879
-0.21741875
-0.11677124
0.18095313
-0.015852518
-0.0007223625
0.15134601
0.18466634
0.035103858
-0.027072096
-0.016664565
0.10033783
-0.059343353
-0.16245131
0.021634728
-0.020902177
0.034419242
-0.10934704
0.11503464
-0.1542964
0.068603285
0.01743017
-0.052427538
0.08006799
-0.10699639
-0.10676573
-0.10462923
0.06949604
0.006472655
0.0153800305
0.08034323
0.04654991
0.012920383
-0.026373655
-0.0016659996
0.03514828
0.06324028
0.03904029
0.05594939
0.08041913
0.111350186
0.043402776
-0.018071318
0.03267143
0.13764815
-0.074318066
-0.16287301
0.17456126
0.008576067
0.07789555
0.120502025
-0.09461473
0.0100971805
0.0282089
0.02964477
0.11092556
0.11915182
-0.06531403
0.04925751
-0.11139679
0.0835436
0.12162468
0.10012322
0.0024734826
0.12100726
0.10150374
0.07259018
-0.032423083
0.16605768
0.13395016
0.110833675
0.021951048
-0.107381955
0.09684733
-0.17837575
-0.03705223
-0.14764707
0.022080626
0.08581572
-0.058424983
0.007612457
0.06451817
0.08347944
-0.060681336
0.016344247
-0.06781875
-0.0029652165
-0.0078006824
-0.03500359
0.0699591
-0.01842905
-0.10758533
-0.0606712
-0.09056055
0.1976185
0.06865999
0.12826227
-0.07074356
-0.14916044
0.14476363
0.21704349
-0.018364381
0.018915234
-0.16355394
-0.05590804
-0.15583073
-0.15275241
-0.027769964
0.08755645
-0.15786733
-0.15049922
0.0030242
-0.082305856
-0.13140586
0.11078174
-0.30051345
-0.16134025
0.045039065
-0.01248604
0.040268186
0.1344354
-0.08525565
0.21629505
-0.036937445
-0.07559126
-0.08457525
0.050145444
0.032167174
-0.18997133
0.008958276
0.11865882
-0.069460504
0.3030491
-0.041279178
-0.124490775
0.037861582
-0.1831798
0.17883867
-0.28752133
0.010160045
0.04260143
-0.02908811
0.07831075
0.10514599
-0.089413494
0.05605908
0.0373233
-0.23943318
-0.018819269
0.11673253
-0.031183189
-0.0014887628
-0.11672666
0.090463385
0.08213298
-0.21349192
-0.023857925
-0.10790726
-0.05727148
0.029859755
0.23741877
-0.07094336
-0.097013354
-0.114186764
-0.25222492
0.06727792
0.031994108
0.053844515
-0.04484101
-0.07213202
-0.19969232
-0.048618924
0.07600184
0.09886244
-0.06757363
-0.045179427
0.26433307
0.17651907
0.003889553
0.24175346
0.07140711
-0.052293807
-0.06987537
-0.043519963
-0.09847224
0.02980481
0.02708572
0.18283811
-0.21002853
0.091371864
-0.080395
0.12550151
-0.12996286
-0.15718332
0.19613515
-0.08654839
-0.14029378
0.026416712
0.20517528
0.009405122
-0.019836206
-0.12063588
0.08224091
-0.19927874
0.095152676
0.25008637
-0.16578205
-0.0685945
-0.18194206
-0.03653489
-0.13360356
-0.22234876
-0.06243651
0.2051153
-0.18756986
-0.13305074
0.11075466
0.016088117
0.14707291
0.11722285
-0.21028787
0.035106104
-0.09271848
-0.012637582
-0.074945286
0.03574744
0.2597978
0.0021048815
0.041997857
0.074587576
-0.11125969
0.080722824
0.10066589
-0.010102392
0.04929773
0.15527055
-0.118409105
0.14533493
-0.03412427
0.14811435
-0.10720302
-0.15169553
-0.14154282
0.13848954
0.16716932
0.15325043
-0.22185636
0.09667056
-0.003749692
0.008492332
-0.120965876
-0.011041852
-0.08636518
-0.048591908
0.00018684728
0.04305463
-0.03284006
0.12197836
-0.23007023
-0.014229024
-0.047149125
0.05562123
-0.045526672
-0.07578877
-0.18525563
0.015844975
0.13624035
0.10148256
-0.039161563
0.04662296
-0.1892334
-0.21528393
-0.14526811
0.25022036
0.0049570757
0.028216733
0.109376036
-0.012553202
-0.06774421
0.16469494
0.043623324
0.0005083957
0.10730313
-0.04838508
-0.040514693
0.03580156
-0.020593729
0.124005176
-0.16931863
0.22228603
0.1704333
0.088086955
0.1903008
-0.018317891
-0.15196043
0.077663645
-0.20062965
-0.11494436
-0.083391495
0.17942521
-0.07494743
0.12399121
-0.07312661
0.1795399
0.14021279
0.111883596
-0.05568438
-0.0555125
0.066406325
-0.054042626
-0.19593595
0.20749068
-0.17924151
-0.0958681
-0.102979265
-0.04051275
-0.16493113
-0.05984186
0.11797835
-0.02963238
0.22614543
0.13305761
-0.20252858
-0.14540996
0.03116117
-0.08840121
-0.08397416
-0.01187558
0.19376098
0.15229179
0.089152046
-0.029731113
-0.01068375
0.00089792284
-0.013443597
0.057146806
0.018796349
-0.11721492
-0.08388749
0.020063937
-0.03796658
-0.08880381
-0.05857332
-0.07386254
-0.13538708
-0.0011180784
0.094142444
0.034574315
0.221045
-0.0019792742
0.024629757
0.05228742
0.02184144
-0.032432392
-0.069732666
-0.12821221
-0.20309691
0.07051887
0.046003837
0.012167463
-0.10230428
0.06457352
-0.1242869
-0.061173696
0.127162
0.03713176
0.19179045
-0.10844068
-0.14314626
-0.10183021
0.0032190676
-0.049525335
-0.030006152
-0.20613308
-0.033506777
0.07547582
-0.17294747
0.17329384
-0.10044258
0.20944889
-0.043498475
0.1030556
-0.11429297
-0.07112978
-0.038498603
-0.16472617
-0.07296861
0.044972807
-0.058323916
0.04354239
0.09440436
0.025136558
0.050317366
0.041270807
-0.018689023
-0.034336336
-0.049795363
0.026506167
-0.09669835
0.22913776
0.06343314
-0.22511409
-0.22515982
0.004656743
-0.0853349
-0.04185327
-0.19629653
-0.14386788
-0.017932238
0.1378524
-0.14156896
0.25297183
-0.008844393
0.09186727
0.1626903
-0.0025488017
-0.03082604
-0.13736266
0.06681911
-0.10867982
0.09867489
-0.08033856
-0.1833498
-0.061612953
0.024696076
0.20868854
0.03814303
-0.13401386
0.1346116
0.13913636
0.026501661
-0.11630384
-0.05617474
0.13065973
0.037319887
-0.014516773
-0.10873591
-0.08669285
0.042725123
0.09547863
-0.08901949
-0.08947919
-0.011447284
-0.023334987
0.20841596
-0.058818687
0.048462514
0.19405681
0.013653671
0.027157674
0.027306985
-0.050911475
-0.038432047
-0.024103465
0.0754345
0.043925233
-0.059935372
-0.09265407
0.14039513
-0.010589176
0.07891442
-0.23942138
0.008923058
-0.023450214
0.044357114
0.033862513
-0.05037413
-0.13277592
0.13977534
-0.06088221
0.039307155
-0.263573
-0.033089615
-0.14096236
-0.115225784
0.07680756
-0.0003780656
-0.056323614
0.017730793
0.050319325
0.095904835
0.11634752
-0.18405783
0.17689319
-0.0058267997
-0.12552525
-0.025823222
-0.18367243
-0.15284002
-0.22599724
0.020733887
-0.028182102
0.16664378
-0.06928935
0.0059962315
0.08127929
0.10707755
0.039339468
0.23978788
-0.09351887
0.09962551
-0.08674198
0.13141918
-0.035775214
0.15661816
0.08053129
0.13641727
0.1873798
0.21080512
0.010596761
0.14688693
-0.045040693
-0.05260311
0.07381069
0.05383613
-0.25591722
0.036157764
0.08178744
-0.10344201
-0.061807103
-0.098912306
-0.026844652
-0.03142446
0.025079643
-0.072792
0.042300925
0.10056285
0.26569813
0.083453156
-0.10039085
-0.03501943
-0.15873767
-0.03139834
-0.028840384
-0.07130025
-0.15698186
-0.040991016
0.0471722
0.10872748
-0.006838268
0.016210498
0.08770668
-0.041435506
-0.16002676
-0.013576279
-0.18888104
-0.26051676
0.102364056
-0.21667121
-0.12109668
0.071344875
-0.008337365
-0.035493474
0.11947495
0.114002034
-0.16656573
0.09318183
-0.08863226
-0.0073107076
-0.023443824
0.15623198
0.18658392
-0.0003979945
0.06854983
0.123829454
-0.14418818
-0.14042738
-0.03787791
-0.09716059
0.08302302
-0.020443488
0.18548885
-0.13297139
-0.081911385
0.0136323245
0.10876193
-0.075562134
-0.15711887
0.20173702
-0.047493808
-0.17413525
0.025254015
0.12485479
0.053973813
0.0039516645
0.003174017
0.07847506
-0.010892809
0.16958693
0.12420713
-0.1722165
-0.07109408
0.007573617
0.013127959
-0.14107122
-0.21417427
-0.0014775572
0.15380037
-0.09177739
0.10069407
0.056756984
-0.11273881
0.041650835
0.113437295
-0.256602
-0.20999318
-0.0071219425
-0.026237251
-0.04126008
-0.080909275
0.15954605
-0.040832184
-0.09033675
-0.05529583
0.10188479
0.1605626
0.26586607
-0.16564445
-0.08633466
-0.20189781
-0.22800249
0.18628317
-0.075247526
0.16184595
-0.057513565
-0.035303634
0.0060559427
-0.1063575
0.073738605
0.24363545
-0.078961425
-0.0012708623
0.14872918
0.071123235
0.10897237
-0.10318111
-0.0077873813
0.12178968
-0.03715685
0.07858276
-0.13999759
0.12763049
-0.21996796
-0.051809773
-0.014262852
-0.039442778
-0.14224109
0.023461208
0.04535721
0.043450966
-0.09077289
0.25586963
-0.023563767
-0.14502302
-0.011360085
-0.05292168
-0.15289581
0.10041845
0.11039798
-0.15354069
-0.02109031
0.016606085
0.078550085
0.19897309
-0.15577665
-0.13835515
0.17017911
-0.2651688
-0.18498553
0.097899616
0.06798119
0.03202299
-0.14582889
0.29690248
-0.008619068
-0.004172448
0.07880044
-0.12211792
0.08165495
0.3127107
0.015640207
-0.020119969
-0.16963898
0.21576288
0.17993222
-0.13490288
0.07797842
0.14670846
0.051267147
0.03120725
-0.068820074
0.15626572
0.0036175046
-0.18424492
-0.10385486
-0.037329856
-0.14961782
-0.1377442
0.017657116
-0.07650204
-0.0040477547
-0.07185698
0.2115099
-0.18715897
0.21092843
-0.19060425
-0.07967855
-0.15608202
0.05823701
-0.17751974
-0.04327525
0.13399386
0.06360835
-0.07544217
-0.07374912
-0.06346066
0.1429917
0.14814462
-0.15322919
0.12526856
-0.031876303
0.1490924
0.18519472
0.23104806
0.09756571
0.0111046955
0.0056148646
-0.015836965
-0.16950975
0.20357169
-0.046061464
-0.10953831
0.030131178
0.20251127
-0.1988532
-0.11714082
0.17302045
0.12357544
-0.1628757
0.026370643
0.0879913
0.013898519
-0.21998872
-0.2668095
-0.027234362
-0.1463747
0.17000088
0.05910749
-0.01580456
-0.16081147
0.13152476
-0.09040498
0.0036539063
-0.104175664
0.00047868682
0.03219361
0.06308678
-0.07494326
0.0662111
-0.15035138
-0.03784435
0.030939411
0.0006892798
0.17763084
0.031460863
0.07715284
0.11461208
0.0574292
0.16694854
0.12575701
0.18681201
-0.10886557
0.033873543
-0.12102845
-0.18312377
-0.11963756
-0.03944655
0.08422356
-0.004269713
-0.23174793
0.08297464
0.12059332
-0.022989845
0.07011617
-0.09300443
-0.09638924
0.0046960674
0.18686886
-0.10812333
-0.07699727
-0.21501864
-0.2141275
0.13537496
0.12635215
0.06473927
0.060851887
-0.030250244
0.045301296
0.0698642
0.1301968
-0.02342012
-0.23985311
-0.0490585
-0.10552021
-0.14059396
0.08247271
-0.08034295
-0.020240238
0.06483188
0.03574328
-0.13920599
-0.15231493
-0.24924184
0.09022737
-0.21485636
-0.07832339
0.031316385
-0.014300779
0.029962037
0.053593542
-0.091653325
0.18604675
-0.048270844
0.07326161
-0.08187974
-0.08244902
0.21892257
-0.042713486
0.062348932
-0.076190464
-0.13869081
0.12452014
-0.07941387
-0.044410482
0.20713426
0.15752257
-0.026357165
0.08031431
0.10435103
0.09875558
0.028430331
-0.036713276
-0.031342067
0.0050246543
0.052934088
0.08004481
0.054038957
-0.054949902
0.092356004
0.13212235
0.12516654
-0.068733774
0.061960783
-0.045190863
0.2146895
0.039013326
0.12836036
-0.027550496
0.010555392
0.0041750045
0.19440687
-0.0533337
0.06967092
-0.002830509
0.1950843
0.082579024
-0.19626302
-0.17139772
-0.17113207
-0.12174486
-0.09804023
-0.22509257
-0.2614383
0.029562423
-0.06094849
0.06412072
0.22673965
-0.032060795
0.09794265
-0.01733185
0.10041675
0.04553812
0.20092267
-0.030676132
-0.13882144
0.02894281
-0.14574137
-0.019939037
-0.035921805
-0.06237226
0.15392655
0.14033377
-0.089023225
0.045750003
-0.03526042
-0.010150703
0.14580509
-0.20280263
0.1462543
-0.122699395
0.10271618
-0.031860836
0.04674547
-0.01950931
0.002838889
-0.007270864
-0.10737087
-0.17983499
0.0741287
-0.060378183
-0.07982976
0.23908074
0.08261599
-0.17149854
-0.119470455
-0.04304728
-0.02241179
0.09697564
0.03736275
-0.1696863
0.051589783
-0.1536021
0.031052146
0.16998187
-0.048842248
0.047109965
0.029935865
0.08871744
0.08938212
-0.091585025
-0.18095826
-0.056933817
-0.10421826
0.041645672
-0.15829779
-0.05063796
0.20914353
0.16653109
0.021508643
-0.11599704
-0.038112994
0.19809441
-0.2333074
-0.06890557
0.11414915
-0.06379327
0.024766533
0.06558634
-0.07354322
0.104402505
-0.058300093
0.1962096
-0.072494686
-0.065293305
0.23650514
-0.10879099
0.019081201
0.13826235
-0.060081203
0.051776946
-0.23875973
0.008170236
0.21799625
0.024985744
-0.033170406
-0.057109393
0.13961834
0.07103447
-0.20366374
-0.00396833
0.0507841
-0.15988243
0.004857904
-0.022920301
0.1265466
-0.05022206
-0.064354494
-0.082532905
-0.058671925
-0.1205773
0.24785766
-0.042390756
0.05249041
0.0071316482
0.12037501
0.018299585
-0.077300265
-0.21773954
0.09317807
-0.05968834
0.20370007
-0.018608348
-0.011109668
0.057634454
0.022028454
-0.0037688478
-0.06805511
0.10052098
0.10629887
-0.08104504
-0.044843037
0.13032752
0.010777011
-0.07880402
0.04518239
0.043024648
0.058451273
-0.1322484
-0.011574181
-0.009376648
-0.006971611
-0.06586629
-0.20421171
-0.12285928
-0.13479741
-0.025364803
0.08263965
-0.13895099
0.15324873
0.015255896
-0.093364455
-0.16035855
0.12087209
-0.0401949
-0.15688851
-0.10770274
0.09933351
0.0015496273
-0.009581655
-0.08256979
0.07543101
0.20560348
0.11090854
0.02324426
-0.0791214
0.033217747
-0.05379552
0.02366772
0.0245679
-0.08196996
0.05853014
-0.054570653
0.19067758
0.09154567
0.022559788
0.16361089
0.0044802334
0.1189869
-0.25124618
-0.077098124
-0.029818349
-0.03647644
-0.13288637
0.0319193
-0.06667104
-0.1257746
0.10565634
0.024376966
0.021278434
0.00937966
-0.1763781
0.08329725
-0.024163196
0.17430344
0.0863063
-0.010453359
0.022240127
-0.17847508
0.2040594
-0.052485447
-0.22785807
0.07725351
0.007589685
0.08219959
0.080443695
0.12523006
-0.10458637
0.039301164
-0.098414004
0.0071751573
0.11369006
-0.12060331
0.09676713
0.08588998
-0.03254305
0.2045809
0.007764841
0.12646966
-0.18864183
-0.018890055
0.17476042
0.0011349699
0.10028813
0.030118346
0.1559402
0.23909466
-0.10454803
-0.098403364
-0.24550089
-0.14792517
-0.02517863
0.17832255
-0.054125424
0.035917547
-0.030057741
-0.009147837
-0.093275286
0.07729721
0.035522666
-0.07177547
-0.10384652
-0.14300133
-0.013604795
0.09017236
0.07876336
0.021672463
-0.0733479
0.22998126
0.11312229
0.0058505046
-0.12996194
0.11766363
0.07266812
0.02264783
-0.09025528
-0.035054717
-0.1272712
-0.034373164
0.089599006
-0.09721349
0.09373647
0.20940422
-0.1785469
0.135731
0.012055889
0.034483083
-0.16655369
-0.1985396
-0.14168476
0.14626308
0.17929184
0.026013145
-0.1268944
-0.057975385
0.02611661
0.048995983
-0.1075531
-0.097385526
0.05687174
0.029207915
0.1546656
-0.14764084
0.09252721
0.2062547
-0.025972387
0.15486999
-0.13179515
-0.03968479
0.17111419
-0.08655727
-0.06635649
-0.04327304
-0.030828195
0.08498342
-0.022163885
0.056402978
0.029888958
-0.19659795
-0.15960231
0.09674716
-0.077170506
-0.07988384
0.0022531792
0.100999884
0.007802024
0.14315067
0.0045506153
0.124714755
0.03990032
0.0680893
-0.006981397
-0.034564793
0.026905246
0.18957911
-0.17005636
0.07427344
-0.0851863
0.24444592
-0.08230209
0.03645694
-0.1040271
0.081678845
-0.13769524
-0.20575614
-0.1020623
0.10152565
0.028396847
0.102286525
0.02229363
0.024424437
0.118625574
-0.0802361
0.19038892
-0.08684747
-0.058373455
0.011611994
0.059019078
0.14994097
-0.20569684
-0.062350366
-0.105915405
-0.080894955
-0.122349024
0.085957624
0.016288482
0.113497786
-0.1055867
-0.054283567
-0.034101266
-0.060022045
0.14534783
-0.090354644
-0.15026237
-0.13185412
0.010830057
-0.021840403
0.020241383
-0.13035288
-0.12674133
-0.06971749
-0.008841645
0.12044179
0.008945896
0.07002968
0.13441512
0.089557566
-0.15426026
-0.015378055
-0.068864435
-0.052706357
-0.048597097
0.06502575
-0.08345097
0.11632642
0.18849897
0.03497073
-0.19734871
0.18639044
0.122664735
0.086822
-0.057488155
-0.07459833
-0.11552049
0.013577812
-0.15249242
-0.07909344
0.042233307
-0.108018495
0.028124455
0.054492854
0.09709157
0.005133692
-0.041148923
0.10179816
0.12684207
0.017783904
-0.0982761
0.18976147
0.16526628
0.046904743
0.15708211
0.057838168
-0.1821088
0.1467479
-0.19809003
-0.04437797
-0.098444976
0.18648586
-0.050793283
-0.021942649
0.15168911
0.1517699
0.06443443
0.11737987
-0.20991912
-0.025503282
-0.099215165
-0.15267533
0.136484
-0.1160161
0.053996153
-0.0011704501
0.003072327
0.043576986
-0.14744724
-0.06208385
0.09567616
-0.050160445
-0.19102204
0.04133973
0.14179964
-0.15806969
-0.15513608
-0.09115228
0.16102535
0.17982765
0.10509515
0.0065781362
0.10237894
-0.08356781
0.116608396
0.17365749
-0.0077994606
-0.006441634
-0.021045659
0.029520124
0.0310769
-0.010469684
-0.07686535
0.012152157
0.10899073
-0.09941838
-0.04094949
-0.042806372
-0.13624208
0.033224054
0.06222878
-0.08808758
-0.19201736
0.005620028
0.022265771
-0.12462919
0.078151666
0.06573138
0.086568505
-0.06902748
-0.07422267
-0.113334715
0.18397431
-0.041838057
0.112025835
-0.09604629
-0.11419881
-0.09064496
-0.14466618
0.110626675
-0.10529314
0.08884681
0.0021785637
0.046137672
-0.2045266
0.014310532
0.060368452
-0.015442439
0.1219566
-0.035513345
-0.087911524
-0.09794608
0.0014441552
-0.18255644
0.064664565
0.1011597
0.11161772
-0.06603599
0.005224418
-0.09481309
0.117694706
-0.07945707
-0.018625984
0.11858118
-0.0052395496
-0.1827989
0.06454699
-0.013974217
0.083684295
-0.13766769
0.14005484
-0.09625796
-0.048374422
0.051575664
0.17257564
-0.15800744
0.11089489
-0.11385812
-0.096276574
-0.12166075
-0.05938551
-0.08584158
0.15947977
-0.10239525
0.023201263
0.24189034
0.046347298
-0.101990126
0.1380617
-0.14315349
-0.07554323
0.12030138
-0.1478142
-0.11103164
0.19463347
0.03609314
0.07481812
-0.09394049
-0.0142971575
-0.09827524
0.038986042
0.113876946
-0.12956448
0.029206911
0.050752494
-0.0020183811
0.075734794
0.09876937
0.031151172
0.16469781
-0.16238113
0.2694178
-0.24899653
0.06883119
-0.19931053
0.1140044
0.0070589264
0.1337899
-0.1927283
-0.059626002
0.2661248
-0.21563669
-0.029368354
0.18597919
0.055252984
-0.18182133
-0.04867113
-0.0034653693
0.10828328
-0.23600186
-0.07421198
-0.17896481
-0.18990584
-0.19655861
0.16378172
-0.006189324
0.029493703
-0.053015966
-0.09096139
0.24504122
0.11500312
-0.006400999
-0.027121224
0.09783391
-0.2058461
-0.13525814
0.119574785
0.11837563
-0.06986946
-0.14453192
0.14741349
0.035851385
0.030798145
0.2242657
0.07165338
0.09127245
-0.24943021
0.08906863
0.03932399
-0.053519312
-0.0535678
0.11917689
-0.15435348
0.031675294
-0.061169777
0.06800721
-0.09618439
0.09617854
0.052276384
-0.11271142
-0.17823558
-0.056578454
0.24902815
0.022855386
0.17103313
-0.122399144
-0.0010977534
-0.1883378
0.049768016
0.25377247
-0.03714817
-0.09986233
0.097983606
0.14612414
0.008809936
0.11219109
0.06924398
-0.0048830556
0.017877258
-0.078433946
-0.17613642
-0.03942032
-0.061433837
-0.007866398
0.016801666
0.08106539
-0.19496089
-0.0048394413
0.083133474
-0.20679583
-0.13961846
0.009905291
0.095459886
-0.1097098
-0.11733071
-0.17022896
0.011388021
-0.059737794
0.17636387
0.16125247
0.05007504
-0.104923874
-0.07954144
-0.16038899
-0.117264114
-0.025188664
-0.04931376
0.04423717
0.18433869
0.046970528
0.0854212
-0.08845859
0.1509973
0.12459216
-0.08635902
-0.09605222
0.0467599
0.11251519
0.104499854
-0.21344043
-0.11070281
0.15414052
-0.108063765
-0.092247345
-0.08429487
0.00022711843
-0.05841232
-0.124408916
0.088768266
0.14055678
-0.010111124
-0.13045788
0.07789986
-0.14268996
0.19660257
-0.058207486
0.08607783
-0.12212948
0.20859122
0.2406046
-0.029672917
0.023768406
-0.012875009
-0.09888514
-0.095868856
0.17194344
-0.13595314
-0.08914677
-0.14704785
-0.056734174
-0.012246948
-0.026945285
-0.075751655
-0.08585593
0.048597496
0.08630933
-0.20256704
-0.17016035
0.23636155
0.03603681
0.06871314
-0.1126472
-0.1400749
0.039809484
0.03395713
-0.13063985
0.05890532
-0.13482435
0.14756712
0.010778098
-0.07847995
0.086856
-0.041849833
0.19457549
0.06519779
-0.17369469
-0.027455382
0.11718938
-0.09398173
-0.14823923
0.06136193
-0.05922873
0.12631984
0.113737784
0.0062526525
-0.040269908
0.03834828
0.13784459
0.029513882
-0.028153095
0.0051264567
-0.13432457
0.21322477
-0.15066025
-0.038400546
-0.14132077
0.0958983
0.12754813
0.12371075
0.20507528
0.056760643
-0.14018863
-0.07397395
-0.004233617
0.016886795
-0.20242304
-0.15124297
-0.06021731
0.025477642
0.10044493
0.039722286
-0.04646905
-0.07644795
0.02070878
-0.01620803
0.16763304
-0.041907765
-0.06428885
0.22404474
0.1820694
-0.014834314
0.0890375
-0.008197631
-0.050590347
0.23504788
-0.12536524
0.19951715
0.20671315
-0.020934405
0.054794118
-0.112296835
-0.06763762
-0.16290882
-0.10467384
0.028578958
-0.08300692
0.13869229
0.07377718
-0.10232168
0.07255128
0.105704956
0.06295347
0.09175249
-0.22151726
0.1023772
-0.18440756
0.23639826
-0.19452062
-0.07343284
-0.0206603
-0.118839115
0.12799421
0.11121821
0.006905364
0.019227624
0.007953106
-0.15896101
0.003104464
-0.07195833
0.049225345
0.023302117
-0.060675237
-0.063448906
-0.19919597
-0.10143447
-0.0072121127
0.14520001
-0.077758275
-0.050314732
-0.04879951
-0.09650819
0.093368135
-0.025335912
0.16990648
0.15555257
-0.05175601
-0.10628864
0.026667558
-0.0122606
-0.15080793
0.07222822
0.1769472
-0.0031940136
-0.041272987
-0.14675304
0.09686577
0.09073604
-0.071687005
0.020366695
-0.07699231
-0.23666567
0.120410204
-0.09459695
0.08889135
0.18013413
0.19969936
0.057231665
0.02046723
-0.05565188
-0.09957968
0.02266412
-0.021901472
-0.040732622
0.038302254
0.03802549
0.013909882
-0.10397317
0.07766114
-0.13056311
0.1234994
0.14421372
0.11123163
0.09213013
0.11468586
-0.107255116
0.09519744
-0.016556216
-0.016190043
0.049639814
0.059972703
0.20512672
0.19265337
-0.026930893
0.05576328
0.083961695
-0.08736648
0.011292265
0.12932205
-0.044622652
-0.15903012
0.11812882
0.056443237
0.081137374
0.16431704
-0.011078649
0.19619152
-0.062029216
0.0016675303
0.09778708
-0.042766377
0.07237664
0.08794942
-0.053804003
0.12805586
0.04795345
-0.16046141
0.1289358
-0.077966385
-0.076223
0.1742185
0.01843994
0.120797634
0.08693835
0.116380125
0.0736638
0.061759967
-0.11570015
0.079939276
-0.09382495
-0.07351699
0.091973186
0.09717144
-0.13403328
0.119840674
0.17961515
0.09722564
-0.043101314
-0.081444144
-0.08778084
-0.10707911
-0.012591816
-0.09253991
0.1283044
0.12953714
0.0070618377
0.025328686
-0.04766538
0.019548032
-0.094196856
0.010240755
-0.16380703
0.1087254
0.030270988
-0.15011671
0.032070722
-0.23143409
0.23356672
-0.026159132
0.0503026
-0.09947642
0.0109904
0.017285349
0.041926477
0.11810662
-0.19763769
0.17289661
0.10876064
0.021832077
0.016650654
0.18263793
-0.0076186922
-0.055146936
0.08503892
0.13392693
-0.0672522
0.24547733
-0.0038121506
-0.015593846
-0.017832773
0.12542371
0.048347592
-0.09976199
0.18928082
-0.013177758
-0.024905114
-0.037938025
0.051538926
0.011649738
0.1038453
0.15958624
-0.07574458
-0.14014041
0.12590836
-0.03129477
-0.19419558
-0.140485
-0.16043466
0.020809874
-0.10553177
-0.03854383
0.16236143
-0.14535332
0.035773773
-0.13479127
-0.069636375
-0.07487465
0.19567156
0.062074717
0.090219535
0.026597345
-0.009387141
-0.07219729
-0.08155817
0.16271202
-0.060778074
-0.12446785
-0.16815072
0.05972038
-0.020830205
0.15848495
-0.100542724
-0.013369332
-0.12702048
-0.23352093
0.16017817
0.16209553
-0.15723658
0.026716074
-0.19478305
-0.12042707
0.28477374
-0.060520243
-0.17017944
0.073453784
-0.02572811
0.15721767
-0.012623084
0.10349056
-0.16017078
0.12712352
0.18865462
0.073156126
0.063550934
0.042967685
-0.014922971
0.011096185
0.15257484
0.21135987
0.1049805
-0.10890729
0.07706353
0.15257539
-0.065491036
0.056942727
-0.08552862
0.12296159
0.02449454
-0.12876175
-0.11757058
-0.025667356
-0.094922945
0.048096664
0.06649037
-0.14880614
-0.1601726
-0.008624999
0.004570338
-0.073824935
0.21255462
-0.004055869
0.020700889
0.08352087
-0.021064304
-0.06862589
-0.2261564
0.010435916
0.10690811
0.13563362
-0.060423873
-0.14839607
-0.13932565
-0.12542897
0.010787521
-0.0031449972
0.024184167
0.016664343
0.21159337
0.0986936
-0.026977157
-0.18342063
0.050296973
-0.0010719257
0.06926937
0.15249805
0.05226548
-0.21655771
0.04155985
0.010614587
-0.14789769
0.029831458
-0.1267742
-0.05057305
0.07122737
0.2661852
0.13214085
0.015621441
0.010124491
0.16431901
-0.10561345
-0.17154364
0.055422373
-0.17188719
0.037695132
0.056678947
-0.0077015134
0.08624265
-0.006972266
0.1459843
-0.11511557
-0.17495644
-0.04052131
0.20777738
0.007008169
0.06542772
-0.11891178
-0.022873312
-0.02618057
-0.12582739
-0.01720739
-0.039679836
0.03595178
-0.15954386
-0.08866951
-0.0455521
0.05421309
0.14592305
0.12936139
0.106244564
0.124470845
0.037192576
-0.14083385
0.03527461
0.10173921
-0.059784446
-0.17955634
0.13962445
-0.06077774
0.15375723
0.028764097
0.14382131
0.08307878
-0.04104282
-0.06502841
0.019305596
-0.008539804
-0.029013755
-0.080082975
-0.080123276
0.050817914
-0.1989442
-0.041748583
-0.064968266
0.1372506
-0.017878376
-0.050055105
-0.17266712
0.11188829
-0.19640742
0.16968776
-0.10736038
0.12126667
0.07943354
-0.07909532
-0.036635514
0.122769974
-0.033666253
0.022748359
-0.16502376
-0.19266436
0.1428296
-0.09226322
0.040136486
0.19877559
-0.13789785
-0.040695697
0.12937069
0.14013195
0.13427332
0.15426883
-0.118211165
-0.20630865
-0.16942915
-0.09846818
-0.039873287
0.00033188338
-0.07722911
0.12294406
0.020040022
-0.07711761
-0.14930405
0.15725595
-0.017637732
-0.03811346
-0.12128058
0.0023068246
-0.08209096
0.07365586
0.006994157
-0.08395494
0.10661612
0.076368324
0.09541255
-0.10143255
-0.10064549
-0.007701898
0.03521753
0.15597929
0.0034385952
-0.07820195
-0.1946358
0.1843092
-0.07881447
-0.04418766
0.052759193
0.07841252
-0.0003794983
-0.0012157726
-0.03828552
0.023429355
-0.04213516
-0.10646811
-0.09443294
-0.07299505
-0.084584594
-0.005445109
-0.24638556
-0.037681844
-0.14555597
-0.23723543
0.109658055
0.20973071
-0.040148154
-0.09076539
0.17927665
-0.07519645
-0.10985067
0.18152815
-0.0709371
-0.07679433
-0.13261376
0.04832828
0.101181805
-0.10793135
-0.08029307
-0.025340157
0.11118654
0.051646546
-0.061378814
0.05903157
0.10435804
0.031771056
0.12946571
0.019308938
0.021131396
0.012988144
0.13485403
-0.13727753
0.027016371
0.2524016
-0.02567515
0.009069481
0.15856373
0.21226585
0.14837539
-0.06837566
-0.23226783
0.067884594
0.022354081
0.09312427
0.09283394
-0.14094603
-0.0501272
-0.22878645
-0.03214936
-0.20495458
-0.123754434
-0.044687614
0.035845283
-0.15797728
-0.17310637
0.06023487
0.059604395
-0.14471434
0.22978336
-0.06680253
0.012962358
-0.049184892
0.2411025
-0.057263434
-0.04238214
0.041988876
-0.0684456
-0.06499049
0.12422955
-0.01990734
0.18797119
0.15552564
-0.12040825
0.07396977
-0.07053297
-0.068353385
-0.09053149
-0.1448416
0.106817015
0.12406641
-0.030278541
0.04082361
0.08261991
0.22639526
0.08897556
0.014257831
0.00048270487
-0.11293578
0.120438375
0.13253124
0.009678339
0.13220552
0.19811438
0.06379673
-0.0031719983
0.08773676
0.23694432
0.005024866
0.12399249
-0.18725243
-0.15830347
0.027984347
-0.2642635
0.09501095
-0.04112541
0.2238808
-0.08115416
0.05762552
0.035477508
-0.16904148
0.12669435
0.05251649
0.053278595
-0.04173886
-0.0037999174
-0.06474241
-0.08444858
-0.18295495
-0.13378735
0.1345028
0.05384723
-0.055616073
0.027389342
0.123848714
0.0057238587
-0.0122808395
0.006426591
-0.03796963
0.07086491
-0.148976
0.093696795
0.022425156
-0.112861454
-0.100573674
-0.11019023
-0.045939445
-0.016717197
0.21517831
0.119767785
0.004786986
-0.016048364
0.20011711
0.08725345
0.06901438
-0.013842745
-0.035564788
0.012273697
0.19635087
-0.22349648
0.03733356
-0.025899088
0.07036308
-0.12224309
0.0659021
0.039966203
-0.056365594
-0.15191661
-0.035834353
-0.039443385
0.16243802
-0.06507058
-0.17692108
0.026157053
-0.01567052
-0.13427047
-0.2537038
0.03668727
-0.1873707
0.1381411
0.24562843
0.21779692
-0.0054565934
-0.06525654
-0.032951012
0.0013429985
0.054716177
-0.021692526
0.23236625
-0.000579156
-0.21122293
-0.0431625
-0.037800603
-0.02670664
0.049010627
0.13234627
-0.14605819
-0.13749535
-0.060542863
-0.120647624
0.05922195
0.041090634
0.10731327
-0.16484693
0.00134406
0.02942369
0.2559988
-0.017903112
0.047960162
0.13045344
0.18707253
0.08565332
0.10390778
-0.0071605085
0.09961087
0.055596154
0.053382196
0.001879392
0.17505477
-0.017350735
-0.14454909
0.032951497
0.020910513
0.05438849
0.062211767
-0.11130673
0.090477176
-0.19855605
-0.14650851
-0.036155183
-0.18607397
0.010242336
0.018309876
0.0733695
0.0005267111
0.056786355
0.12476281
-0.08427174
0.099003464
-0.028889557
0.10331954
0.1075981
-0.095159754
0.08474645
-0.08245245
0.12009408
0.0013655175
-0.11227156
0.11216925
-0.03381252
-0.15844554
0.16483179
0.22623089
0.015171419
-0.061313156
-0.056369554
0.17213356
-0.06616229
0.024375603
-0.070057064
0.08956635
-0.23738697
-0.035771698
-0.16285874
-0.18666339
-0.0015692334
0.089978255
0.21675771
0.1426525
0.09951274
-0.08841615
-0.058509145
0.24881361
0.00043332207
0.048156455
-0.116634026
-0.065239415
-0.10150168
-0.14688204
-0.1050809
-0.073353164
-0.17146693
0.09334863
-0.21346076
0.009204347
-0.08840397
0.028925007
0.1645048
0.053018596
-0.018266609
-0.10645557
0.09876858
-0.15188454
0.049382567
-0.16540998
-0.14172494
0.027124641
-0.093233
0.14137645
0.21547078
-0.10617228
0.059885807
-0.24256304
0.17413008
0.20793466
-0.16511346
0.10661063
-0.087473474
-0.164853
-0.047294132
0.021945652
0.20621699
0.0078089405
-0.021184262
-0.15501982
0.1383595
0.028136516
-0.13382193
0.19724093
0.024438772
-0.05351129
0.21741311
0.1591568
-0.10305939
-0.022938143
-0.00069234235
0.04394241
-0.028143065
-0.08129149
-0.17654228
0.085367374
0.19055979
-0.1021959
-0.10980605
-0.12825379
-0.16312471
0.18843603
-0.27009106
-0.09949591
0.1513253
-0.08814096
-0.0934354
0.045857757
-0.071491554
-0.06878173
-0.14937271
-0.04240488
0.013390719
0.13935782
-0.07363886
0.060274348
-0.16564766
-0.1484317
0.08624949
0.090288185
0.10093457
-0.05501784
0.014468698
-0.11974062
0.1832263
-0.08823687
-0.016650422
-0.015220696
-0.07384333
-0.15966626
-0.20230152
0.067748494
-0.015320952
-0.025088757
0.1326717
0.13631484
0.22685826
0.020473175
0.11713055
-0.111380324
-0.17742348
0.13765086
-0.123685636
-0.021021118
0.0921892
0.117773235
-0.13282423
-0.2046653
-0.017694486
0.19487044
0.17873566
-0.08214715
-0.13497172
-0.14825454
-0.04373081
-0.058252454
0.113282464
0.107685
0.2854541
-0.22177343
-0.09861668
-0.054326665
-0.11476251
0.08730396
-0.018076187
-0.09289983
0.19747621
0.15414585
0.05867916
-0.020844871
0.18997265
-0.060289208
-0.16002645
-0.23038217
0.25315022
0.086315215
0.00034873126
0.0234515
0.023051385
-0.14116271
0.16448474
-0.06648079
-0.1061253
-0.0343561
-0.064073846
0.25637814
-0.27202192
0.018142546
0.2079324
0.014350428
0.06980537
0.04948802
-0.01562605
0.17467879
-0.074818395
0.20129001
0.06695253
0.16010442
0.16298205
-0.058121428
-0.17897013
-0.123108625
-0.1565402
-0.032795146
0.12839767
0.23207192
0.19967127
0.052427415
-0.024553675
0.09774309
-0.051080126
-0.18436179
0.09101933
0.001022794
-0.14034331
0.10397069
0.08290301
-0.05621676
0.14863804
0.01153516
0.04963481
-0.12917654
-0.01034642
0.07156623
0.04766511
0.048750903
0.12280331
0.035507925
-0.041508973
-0.18962088
-0.14340158
0.036777038
-0.26199505
-0.021242825
0.109435
-0.049983785
-0.1590504
-0.15121517
0.17177269
-0.0524733
-0.2159158
-0.11889652
0.0090227155
0.17100795
0.12761663
0.08617177
0.04012073
0.14789924
0.16621256
-0.15234351
-0.091194585
0.023284089
0.031527344
0.06912575
-0.029125806
-0.029377773
0.0714233
0.10294528
-0.06672434
0.102724284
-0.07366627
-0.059297096
-0.16292784
-0.19312346
0.06044717
0.05833942
0.04691431
-0.18991755
0.10070886
0.1112764
0.106229134
-0.10503301
0.091103464
-0.04362845
-0.0013223263
-0.027148033
0.10926094
-0.08723468
-0.0065876413
0.046729494
0.2537713
0.17977957
-0.12599768
-0.0668578
-0.014878062
-0.1915925
-0.06009761
-0.07628187
-0.030585382
-0.013034834
0.13896464
-0.0122776395
-0.0764642
0.055315457
0.08628548
-0.08141204
-0.07977001
-0.085863665
0.016692707
-0.07413753
-0.090991005
-0.036171354
0.09289048
-0.011599691
0.03747764
0.13970484
-0.061401222
0.12654085
-0.10043027
-0.018303877
-0.06522188
-0.21872833
-0.00784076
0.02771003
0.12986237
-0.08451745
-0.106733955
-0.12172642
0.13317862
-0.009774456
-0.20730644
0.04678066
-0.11507256
-0.049980547
-0.076311104
-0.041203845
-0.11581137
0.17328995
-0.13407068
0.2368881
0.04434822
0.21605186
0.12915376
0.0123675335
-0.08436781
0.13827416
0.034144763
0.1317995
0.17145105
-0.008988602
-0.030484274
-0.06999144
-0.13398138
-0.013270053
0.15685815
-0.22624016
-0.08502628
0.01623344
0.14730226
-0.22563075
0.15534598
0.0373948
-0.14793761
0.03999968
0.055670343
0.17231028
0.10879572
-0.040423755
-0.07127567
-0.10486899
-0.07878768
-0.025742028
0.0003563151
0.04790424
-0.06523589
-0.02585483
-0.018305363
-0.05118278
-0.059616983
0.09651966
0.16960336
0.14558786
0.0860023
0.26050434
-0.04867646
0.07947616
0.1779459
-0.09479793
0.06904805
-0.02694606
0.21525133
0.16487251
-0.10327844
-0.089085005
0.22038281
-0.002281954
-0.28634393
0.12660345
0.028072346
-0.03452471
0.05143384
0.0750372
-0.017168459
-0.073489785
-0.03459942
0.05417013
0.19282362
0.20653549
0.20516557
-0.083345585
-0.127367
0.014117482
0.06917235
0.10829143
-0.1541355
0.010863738
-0.0642987
0.20190774
0.22178872
0.06628852
-0.15735683
0.012917289
0.016008709
-0.013350694
-0.021457074
0.02777383
-0.020375466
-0.06220321
0.059038192
-0.16052803
-0.103283636
0.20719044
-0.0020861381
0.22928439
-0.12035604
0.025678147
0.087746926
0.09340308
-0.16159007
0.039100647
-0.037483726
0.05999259
-0.050580606
-0.12136898
0.07295996
0.07265444
-0.06742339
0.04162985
-0.022383682
-0.13032395
0.015611082
0.08512666
-0.05708793
0.123336405
-0.15984537
0.0017390249
0.13601948
-0.13442272
-0.0057445206
0.14147611
-0.116563454
-0.08574603
0.0647092
0.121643856
-0.15834324
0.0702753
-0.05296104
0.10376203
0.04218401
0.053957086
0.14971939
-0.16286416
-0.04105405
-0.14414248
0.10751984
0.108827256
0.0064655934
0.07998675
-0.045451492
0.16000341
-0.19175299
0.053918883
0.07033449
-0.07684764
-0.08857809
0.14490221
0.23458761
-0.15304016
0.0341852
0.0438364
0.080103025
-0.108233124
0.033366032
-0.18507773
0.108147986
-0.09294491
-0.19295238
-0.09938412
-0.1797206
-0.010021209
0.10450459
-0.11724115
-0.08807613
0.056811273
0.009772386
-0.14848198
-0.020575121
-0.06111088
0.11291471
0.019187745
0.038777094
-0.12219561
0.1344846
-0.1327763
0.035798557
-0.12443481
0.1256395
-0.093975075
-0.013061305
0.009943052
-0.10686581
0.13118303
0.1792709
0.09593481
0.09165314
-0.010718281
-0.047482215
0.06228442
-0.14779423
-0.16461422
0.08483209
-0.110009305
-0.0151017755
-0.031521324
0.10577317
-0.095585346
0.022691816
-0.10439758
0.03210947
-0.13719891
-0.044392023
-0.11321344
0.08413775
-0.13879448
0.026976315
0.122998595
0.13519706
0.096118934
0.16205181
0.056251742
-0.103984326
-0.06972682
0.18129893
-0.020713687
-0.038178213
0.11205249
0.009851248
0.10845343
0.050344404
-0.000971315
-0.13598196
0.1795957
-0.011142424
0.03666996
-0.109505184
-0.13704021
0.13136736
-0.11039791
0.028519344
-0.06701898
0.08983142
0.06255862
0.06916633
0.05550679
-0.02943008
0.032537803
0.19363652
-0.13975634
0.04943219
-0.030972755
0.14490509
-0.053538814
-0.018911092
-0.056176748
0.15329488
-0.201555
-0.07659408
0.0034391435
0.06382468
-0.08875862
-0.15262632
-0.106986694
-0.12732291
0.11204772
0.09744703
0.10763451
0.06459429
0.13114646
-0.16408642
0.00274657
-0.019865064
-0.061420165
-0.18429887
-0.14030427
-0.008612802
-0.060758565
0.11749185
-0.11985516
0.1177143
0.22215588
0.011321447
0.14304367
0.17527913
-0.020336265
-0.25543925
0.015352559
0.041970793
0.03479529
0.18088876
0.22204477
-0.109054774
-0.08435835
-0.088953756
0.14196548
0.11906232
0.1256261
0.121410355
0.016265716
-0.08502077
0.08163126
-0.1284545
-0.1184031
0.13936666
0.22980444
-0.033358533
0.18082596
0.003210524
-0.062279902
0.17075624
0.05860813
-0.17339641
-0.034102596
-0.16734608
0.13370427
-0.018061506
-0.06249547
0.027837563
-0.18646564
0.19984454
-0.061204225
-0.19111255
0.054535385
0.23426513
-0.1402731
0.19502936
0.06901181
0.12549615
0.1827267
0.0044214674
0.18825391
-0.048276864
-0.05977173
-0.13944142
-0.09925429
-0.034318566
0.16500309
0.15183932
-0.028433708
-0.014951411
0.004163026
-0.059548903
0.22777706
0.1635619
0.094721735
-0.17178196
0.104308985
-0.007386874
0.14797592
0.058488138
0.010425575
-0.12438029
-0.073954016
0.16238451
0.0003121496
-0.017268924
0.020576281
-0.18863823
0.022245284
0.06156647
-0.16251434
0.046023104
0.19991066
0.17063677
0.21392588
0.07482278
0.036609698
0.01869092
0.07311066
-0.09182781
-0.0671845
-0.22316489
0.07957575
0.06475711
-0.11612288
0.078612946
0.08742628
-0.009399329
0.048070937
0.13330877
-0.096191466
-0.10563109
-0.21669826
-0.11744299
0.25333112
0.18233271
-0.02134972
-0.033712126
-0.033133544
-0.08833914
0.05219384
-0.05107845
-0.07880999
0.102813356
0.03734601
0.013297377
-0.16747697
-0.06750352
-0.11383352
-0.09189499
0.05083883
-0.008955962
-0.1440342
-0.07495694
0.06666591
0.09255402
-0.21715915
0.09649157
-0.006133744
0.09714513
-0.122429
0.097658016
-0.28192863
-0.21361148
0.13510796
0.26924002
0.06026405
-0.07378493
0.02510832
0.035834484
0.2420701
0.13256688
-0.016745433
0.14601636
0.1690814
-0.08813949
0.07592621
-0.090953104
-0.06761339
0.14491695
-0.16596499
0.15663515
0.015455673
0.15431976
0.026926007
-0.035787333
0.07770702
-0.03426128
0.13801046
0.08469357
0.15026513
-0.04415296
-0.00037604274
-0.22302319
0.1394734
0.06963588
0.06754492
0.17246836
0.006653526
-0.11099592
0.15968785
0.17617534
0.114701964
0.13021149
-0.11991605
-0.059779692
0.20209162
0.104847476
-0.043736115
-0.011310231
-0.026686816
-0.017684782
0.07805822
-0.20193161
0.11620446
0.15364194
-0.08557416
-0.15554519
0.025167495
-0.10383441
0.023638394
-0.022045247
-0.17496213
-0.13375302
-0.058526043
-0.121797174
-0.06915275
0.1541709
-0.15168291
0.042489164
0.0992314
0.07568821
0.12444227
-0.23206337
0.015688647
-0.24161296
0.20237717
-0.036035873
-0.26144683
-0.18107125
0.021150433
0.11667008
0.13949029
-0.066946246
0.22246484
0.009420285
-0.019308887
-0.027025547
-0.3273593
-0.046354298
0.1567364
-0.08145461
-0.009311592
0.03407575
0.20235805
-0.04625719
-0.1895865
0.19782577
-0.18238187
0.029445918
-0.07444818
-0.22222154
0.27153593
0.09942425
0.050736565
0.113871194
-0.11845483
-0.04546565
-0.12904844
-0.020740107
-0.11681311
0.15843233
0.1003256
0.26282796
0.09465713
0.06384648
-0.16848569
-0.024239691
0.079583466
0.042940594
-0.012738385
0.092208795
-0.104508154
0.05571241
-0.24084984
-0.10094504
0.056377485
0.12607846
-0.01655261
0.24848206
-0.10799789
0.062118806
-0.19624417
0.26252306
-0.02373938
-0.1429386
-0.05317919
-0.05591215
0.10716561
0.046758227
-0.032649904
0.1360527
0.19750722
-0.06425596
0.22014716
0.114127375
-0.041424323
0.11046002
-0.10274094
-0.016888361
-0.16568278
-0.16807264
-0.21903333
0.07260776
0.19027801
0.04345556
0.18313137
0.19827574
-0.063378364
0.20923851
0.091481455
0.070098616
0.003927641
0.12651864
-0.011571146
-0.09880254
-0.07100045
0.24546507
-0.12408541
-0.082990885
-0.0501399
-0.07454675
-0.114697166
-0.09951825
-0.011056363
-0.13888851
0.20864719
0.031748205
0.15138926
0.09753821
-0.017112877
0.033283986
0.15078281
0.044876732
0.05371432
0.0036083367
-0.1394912
-0.25703344
0.105931714
0.066100456
0.0979012
0.2006842
-0.065619685
-0.07628131
0.09499981
0.058578305
-0.15303993
-0.07783225
-0.039532878
0.0378653
-0.12666376
0.097416826
-0.043012623
-0.16256711
0.009177407
0.1714343
0.05809374
0.057131052
0.13274725
0.206116
0.011583505
-0.23771103
0.17809376
-0.10746519
0.0565434
0.18333885
-0.016287617
0.026727779
-0.07702191
-0.08658909
0.11410601
-0.077399194
-0.026499704
-0.11012992
-0.071314655
-0.13019225
0.15561077
0.060068056
0.08114624
-0.00088277797
0.07076289
-0.11855769
-0.110262394
0.04194231
0.041890785
0.097983755
-0.26589912
-0.12833127
-0.009564988
0.25031203
0.04690076
0.011724743
0.08037224
-0.058034573
-0.007756616
0.054168444
-0.093023874
0.08163617
-0.12674333
-0.17877458
-0.03208174
0.10760021
-0.12561277
-0.16807006
0.081477985
-0.08353936
-0.029268099
0.02725485
-0.017960241
-0.18162806
-0.06922134
0.14788732
0.15699576
0.09798704
0.031735156
-0.0021498152
0.069176964
-0.033194344
-0.0030506344
0.123325944
-0.0566412
-0.018383807
-0.15033855
-0.21254477
-0.13880901
-0.09899311
0.009131895
0.24453247
-0.0071995636
-0.04319859
0.17398609
-0.09375636
0.11108574
-0.03378919
-0.04061333
0.100661635
0.118998185
0.16837068
0.08580004
0.052033726
0.042754173
0.07305317
-0.117187515
0.08374013
-0.09972332
0.11702397
-0.07040505
-0.15684105
0.10295241
-0.044182114
-0.124869406
-0.028845573
-0.05675739
0.009547134
0.0106007
0.050272617
-0.05717073
0.08164709
-0.004484903
0.0471891
0.082030125
0.09594444
-0.056969285
-0.23634644
-0.009589354
-0.033318654
0.12550482
-0.1269209
0.022612503
-0.0393604
0.01792959
0.044148866
0.13280335
0.077748545
-0.13497105
-0.012617584
-0.046976313
0.11477409
0.055747222
0.021083191
0.031967297
-0.036004316
0.04818132
0.031337332
-0.17874673
-0.06155995
0.038850512
-0.0585222
0.118473634
0.07011651
0.06005427
0.011956119
0.14420465
-0.051189393
-0.017428927
-0.04211462
0.24215518
-0.10924963
-0.023179095
0.17548372
0.08296038
0.12772724
-0.16551082
0.1264333
-0.16282895
-0.1784187
-0.14520423
-0.10769471
0.05758609
-0.104280435
0.1476719
-0.16555573
-0.17812082
-0.06458638
-0.07948287
-0.089473136
0.01254353
0.122420624
0.1849609
0.0068144444
0.21934183
-0.08242938
-0.13124774
-0.21959233
-0.008346764
0.0045048282
0.06517012
-0.059227254
-0.0035662085
-0.04886795
0.05481676
0.13978644
-0.17521521
-0.06166221
-0.0045186807
-0.10209572
-0.0669999
0.027698755
0.027208306
0.006433951
-0.20148085
-0.19202255
0.07701701
-0.09339513
0.06226588
-0.04037189
-0.099707745
0.04720711
-0.022726785
-0.0702464
0.0021801586
0.12960906
-0.16983907
-0.01667609
0.15719964
-0.00036218017
-0.12041239
-0.08285145
-0.04458197
0.06319433
0.12855737
0.026767928
0.15538898
0.012046452
-0.032127373
-0.13304001
-0.065765455
0.066672176
-0.005939991
-0.15350972
-0.0103116585
-0.095369875
0.1271453
0.124417685
-0.06528748
0.083201416
-0.10100834
-0.08039714
0.16927508
-0.007153576
-0.053373072
-0.0019034854
0.12271637
0.102483585
-0.06354392
-0.070522234
-0.14942461
-0.012681008
-0.042845763
0.11909785
-0.025155948
0.080348454
0.10091652
-0.040592402
-0.06276018
0.0876809
-0.06674563
0.0018812492
0.08842729
0.14779764
-0.093555436
-0.08676927
0.074763216
-0.15658782
0.10667658
0.020809479
0.1148645
0.07698443
0.04883179
0.14570472
0.012204213
-0.15519892
0.05387071
-0.009488096
0.052795153
-0.027207421
-0.071188316
0.0018811855
0.2016725
-0.11076737
-0.107564084
-0.2268276
0.12439892
-0.09753918
-0.0820134
0.10760019
0.0006517939
0.13728684
-0.09457255
0.17897534
-0.11150681
-0.025397124
0.037131637
-0.08392571
0.08437293
0.050205477
-0.03347418
0.17103843
-0.19623166
0.060599636
0.020496756
-0.17976639
-0.105698645
-0.036419284
0.07236205
0.24414414
-0.071714126
0.12994064
-0.05476803
-0.11333378
0.027956646
-0.14213103
-0.12179084
-0.032790467
0.027896967
-0.13505444
0.2226128
0.11776415
-0.070114315
0.13111483
-0.073226616
0.026397431
0.03228063
0.13969475
-0.02942242
-0.11313181
-0.0831611
-0.02755595
0.17150518
0.10684328
0.02556464
-0.18548654
-0.0045329477
0.12446308
0.010969022
-0.25580788
-0.14549407
0.20125134
-0.03828078
0.04877213
0.0052227797
-0.010261745
-0.11546491
-0.30372342
-0.18695329
-0.1527921
0.054636322
-0.039828453
-0.041967645
0.038271632
-0.18235186
0.15460585
-0.046854913
0.28630814
0.0624531
0.048046682
0.08551307
0.20697038
-0.133183
-0.007122005
-0.06337169
-0.016599957
0.010195431
-0.056222435
-0.12010177
-0.17313008
-0.23277724
0.06046285
-0.07362591
0.07571324
-0.0008999542
-0.043006714
0.04595513
-0.11879257
0.014991287
0.051269542
0.20297924
-0.08334067
-0.17595159
0.007568019
-0.20813584
-0.06678355
-0.093986586
-0.011448244
0.1468636
-0.0919166
-0.14677554
0.15388699
0.13635014
0.18318449
0.054287337
0.2514094
-0.27313054
-0.116651125
-0.1540712
-0.14511459
0.12176332
-0.08840988
-0.122777134
0.18532369
0.046672467
0.06596157
-0.03990098
0.11139317
-0.0029832136
0.044406563
-0.13502286
0.12676714
-0.05807315
0.07268627
0.08531828
0.15509619
-0.13897458
-0.082701355
0.05164542
-0.035027884
-0.12170254
-0.14162105
0.2029119
-0.15601204
0.16013432
0.10004959
0.16253167
0.1564303
-0.056596927
-0.10168153
0.1817994
-0.10972984
0.26122668
-0.089798816
-0.18092379
-0.010142276
-0.13879083
-0.16583142
0.10438661
-0.13069333
-0.08579351
-0.12414035
0.16122277
0.28352976
-0.0885743
-0.08172025
-0.020695744
-0.028498491
-0.12804566
-0.059273764
-0.078399315
0.13057293
-0.06388859
-0.20028795
0.20970978
0.19257382
0.062088754
-0.11276083
0.089395374
0.09635808
-0.18347317
0.053706564
0.15535963
0.13077138
-0.0053367424
0.026013842
0.1771612
0.12926346
0.0121643515
0.10623273
-0.07784881
-0.05532214
-0.11074212
0.078583576
0.06363843
0.050884604
0.0037493173
0.12777571
-0.03245569
-0.03503814
0.092053115
-0.15268473
0.11264899
0.09502639
-0.0066654715
-0.08395937
-0.0025350282
0.12576702
0.041337103
0.029056242
-0.06335809
-0.10999259
-0.04227914
0.0244529
-0.09178778
-0.1468186
0.019837925
0.105105065
-0.043864798
-0.0032060246
0.16953789
-0.19624813
0.127704
0.11224129
-0.08839521
-0.0146982055
-0.13938777
0.15953298
0.21176991
0.10235569
-0.10809273
-0.06754137
0.053227298
-0.18940336
0.030338502
0.13378741
-0.11394475
0.015544031
-0.011180574
0.04584793
0.013937338
0.19344808
-0.029266017
-0.09294754
-0.1891338
0.05143763
0.07017955
-0.046279963
0.06581007
-0.24898887
0.10350952
-0.07748708
0.023676878
0.049828433
0.10029824
0.13822438
0.14236045
-0.16780345
-2.4963309e-05
-0.08868686
0.017143099
0.03939638
-0.15417613
-0.00029829025
-0.088815235
-0.026234804
-0.054860685
-0.06295901
0.044824477
0.06602309
-0.014398757
0.10057503
0.051842097
-0.037724636
0.20526639
-0.10997801
0.14387327
0.05034548
-0.092647545
-0.1807023
0.01541469
-0.07958292
-0.15072678
-0.12904541
-0.15544142
0.12578237
-0.0057567325
-0.023160873
-0.009171708
0.0145871835
0.017904231
-0.035070173
-0.11692908
-0.020103937
-0.108335845
0.155049
0.017047934
-0.11506416
-0.10574155
0.11317794
-0.14605643
-0.0037104182
0.095998414
0.09332403
0.013872986
0.14585909
-0.11929022
-0.019561814
-0.19130604
-0.044630762
0.12003703
0.07009497
0.06141234
0.11359992
-0.011328473
0.087015465
0.022329442
0.053134307
0.1922057
0.15104899
-0.15133463
0.119677335
0.075709894
-0.07622885
0.01682864
-0.07712973
-0.13481285
0.044174
0.2035826
-0.09457691
-0.13916147
-0.04941518
-0.12748037
-0.09119571
0.0121997725
0.08284698
0.13703749
0.079245344
0.103891425
-0.095083706
-0.18153639
0.0058278684
-0.1007798
0.018210726
0.01736371
-0.092852466
0.13612956
-0.1467458
0.017625147
-0.15245691
0.185035
0.04209075
0.14831716
-0.14474078
0.032993168
-0.16835317
0.01881926
0.04784895
-0.06951688
-0.046689704
0.019385751
-0.1030585
-0.06376058
0.09553196
0.08358078
0.0365061
-0.12266719
-0.044019748
-0.028022861
0.14452745
0.058761135
0.14403337
0.001040505
0.14074068
-0.10540038
-0.09114613
0.014387754
-0.0413068
-0.06636542
0.0041566156
-0.024824746
-0.0211828
0.007297613
0.086039014
-0.15870032
-0.07487624
0.11346535
-0.0247941
0.07056518
0.073576264
0.06409107
0.054490853
-0.01909094
0.070829526
0.1646606
-0.14185978
-0.097783424
0.08570835
0.074109085
0.105333425
0.05176008
0.017386803
0.12743333
0.02850436
0.089313574
0.013128097
-0.20983696
0.0068693077
0.23388536
0.11537964
-0.18758935
-0.117137894
-0.053569064
0.023161093
-0.124310024
0.0593354
-0.028102312
-0.21256794
0.02288281
0.18396293
0.09747005
-0.03275299
0.16691245
-0.024740346
0.012480486
0.14684524
0.1257545
-0.019591017
0.07175605
-0.17620938
0.0502591
0.005017075
0.083240196
-0.060169443
-0.087085575
-0.24101704
0.010037475
-0.050596345
-0.09223707
0.021227341
-0.044270355
-0.16641769
-0.09626775
-0.16871853
-0.14995082
0.039087143
0.052805737
0.08385181
0.05398074
-0.14040814
0.10413694
-0.05843719
-0.14033052
0.003460961
-0.04316721
0.17230701
-0.06616651
0.065255605
-0.1378538
-0.07701433
-0.17878743
0.17607164
-0.07667146
0.06892194
-0.17235664
0.16355819
-0.017407501
-0.2377041
0.13669395
-0.0029766397
0.020414626
0.049788643
0.053036895
-0.047001116
0.15945385
0.13351126
-0.10650639
0.02807393
0.0065762918
-0.07001486
-0.119405374
-0.082716025
0.067083605
-0.043880627
-0.14975394
-0.177801
0.0706773
-0.12812184
-0.08439121
0.14457756
-0.19822614
0.027883954
-0.018677136
0.11592487
0.15677842
0.17645118
-0.018577605
-0.08310369
0.14249967
0.21226253
-0.09206279
-0.13212557
0.09993696
0.1805771
0.15612763
0.11643731
-0.11030773
-0.053788066
0.1134938
-0.0020809642
0.014240683
-0.14167544
-0.16292006
0.19648965
-0.2506562
0.095877655
-0.108299464
-0.11097517
0.14756988
0.013619127
-0.18277964
0.16666442
-0.14313735
0.1232695
-0.1352056
0.100087866
0.10875999
-0.0908726
0.1917278
-0.06875772
0.051093426
-0.009733686
-0.200251
-0.06656659
-0.021000972
0.010061133
0.12598585
-0.0027861584
0.17522587
-0.036959954
-0.030368287
-0.08348835
-0.0058685094
-0.14066897
-0.1636145
0.03523672
-0.022681415
0.056292463
0.11716548
0.12338199
0.029800395
0.117220804
-0.1522084
0.021452364
-0.02041472
-0.08280718
-0.036431774
-0.14680056
0.112789735
0.08467176
-0.11359678
0.024165362
-0.092522115
0.15915579
-0.10601882
-0.15830526
0.17557795
0.1972898
0.09945813
-0.086463496
0.06216694
-0.052132983
-0.06925388
-0.09728993
0.034589976
-0.09591235
0.03896125
0.092936225
0.04498538
-0.07336942
-0.03304173
0.17445435
-0.18282744
0.05224783
0.08514712
0.0066451966
0.26159108
-0.086401634
0.13470435
-0.005463505
-0.1424885
-0.10665461
0.12752686
0.14081119
-0.07950341
-0.119908065
0.039231636
0.077635005
-0.11148084
-0.017830087
-0.10513569
0.062371578
0.06543889
-0.10137268
0.22830823
0.009559782
0.08570281
-0.089883424
-0.11851964
-0.06255102
0.17901687
0.0058460035
0.1499389
0.050933562
0.063004985
0.1458152
0.03577233
-0.22753711
0.1264179
0.045997325
-0.14912589
0.073630065
0.09079949
-0.06556349
0.043772213
0.026077637
-0.19122332
0.0023839816
0.019024013
0.09967466
0.0108150095
-0.053306542
-0.040272802
-0.12984394
0.14592768
0.103933744
0.06966492
-0.040632926
0.03245616
0.10029176
-0.0064785313
-0.10375843
0.18038036
-0.22049458
-0.08014426
0.005973394
-0.22924894
0.024357278
0.041293576
0.10928595
0.10893352
-0.21053576
0.030872174
-0.032135583
0.055481963
-0.015615711
0.11638013
-0.049846932
0.07666505
-0.102992736
0.11414373
0.006986285
-0.033720747
-0.028469903
-0.120954774
0.047452938
0.13499257
-0.13211627
0.09016625
-0.004904853
-0.12980461
-0.050340608
-0.117859125
0.042008653
-0.11973946
0.09299418
-0.04441296
-0.07556418
-0.15349565
-0.058153447
0.006588538
