784
256
0.04223773
-0.017234754
-0.04711537
0.0038841888
0.017154604
0.049285144
-0.037726134
-0.023770213
0.04916039
-0.037685063
-0.027029272
-0.049551018
-0.01242432
0.040284544
-0.05494169
0.06977907
-0.008377507
0.05386053
-0.071574725
-0.011835784
-0.01116243
-0.009011529
0.030383833
-0.066368066
0.048755847
0.037403896
0.071425095
0.03312283
0.03211598
-0.008870676
0.04895445
-0.04747996
-0.03233168
-0.04774606
-0.065210454
-0.06267768
-0.074288756
0.038010992
0.056584135
0.06439763
-0.048007917
-0.015527163
-0.040209394
0.05873008
0.021910071
-0.037219096
0.04525862
0.0083571
0.0696798
0.008680224
0.004006639
0.040068574
-0.025992338
-0.07378579
0.060433954
-0.019905694
0.008011557
0.07131745
0.051700428
-0.015066121
0.0634391
0.04756335
-0.028763715
0.058116883
-0.016836405
-0.04900325
0.05402419
0.053690404
0.037390225
0.07355854
-0.07476128
-0.06923622
-0.039442196
0.028880969
-0.006149411
0.071333006
-0.07069259
0.004630722
0.065201804
0.07377416
0.022368908
-0.02386574
0.012354866
0.011954695
0.020317644
0.035326973
-0.0018401444
0.007945351
0.070925474
0.028824128
-0.02488105
-0.05884518
-0.06735442
0.06036447
-0.0438001
0.04140862
-0.071199305
0.05729273
-0.03033445
-0.02216554
-0.021903284
-4.568696e-05
0.0010374412
0.07390377
-0.0083291605
-0.05960412
-0.05859495
0.059128538
0.017473936
0.06630984
0.05657719
-0.039201144
0.050586864
0.039177172
0.06429055
0.0024805963
0.0045112893
0.07013722
0.010664791
0.06623629
0.023139656
0.032754295
-0.061942957
0.070256054
0.029820226
0.012370005
0.050674945
0.021556996
-0.066170074
0.063486636
0.046756446
-0.07180939
-0.054529507
0.0044814646
-0.07386902
-0.001895614
-0.046958074
-0.07306079
-0.04749021
-0.009567156
0.06699523
-0.064909786
-0.071001425
0.026692368
0.05257605
0.07516506
0.016059592
0.029163219
-0.022968937
0.016650118
0.050815508
0.026079588
0.051215813
-0.047718786
0.02604632
0.027658582
0.05799295
0.0687639
0.03304085
0.018117517
0.03834541
0.036798023
0.03665059
0.073643535
-0.028539669
0.049125597
-0.054816246
0.04622601
0.073810145
-0.039297577
-0.06044167
-0.029671583
0.07518943
0.07554853
0.058030173
-0.07053135
-0.012204632
0.0039715096
0.0014525726
0.015762508
0.05090812
-0.06383917
-0.025260981
-0.005212821
-0.055348262
-0.011101335
0.03673321
-0.06627701
-0.00925684
0.046209008
-0.05813077
0.02414319
0.018062308
0.06428218
0.06845008
0.021026619
-0.02745846
0.042791076
0.042852886
0.034443825
0.05721064
0.028820343
0.047707975
0.014187932
-0.06170808
-0.021573532
-0.042138964
-0.0010081753
0.0627303
-0.06730714
-0.05945488
-0.07350323
-0.058832467
-0.06693124
-0.025999907
-0.0025483444
-0.05961571
-0.029767618
0.054308683
-0.07092251
0.015948653
-0.043673825
-0.026551895
-0.035006244
0.069349945
-0.049564257
0.03613825
-0.07017641
-0.0035569742
-0.04552634
7.877499e-05
0.018859565
0.027751885
-0.034858745
-0.0009395927
0.056374937
-0.03708447
0.021646403
0.015760154
-0.06521828
0.015241675
-0.018134288
-0.025210962
0.031877555
-0.05624863
-0.035976894
-0.0021379516
-0.05911184
-0.018332224
0.025800705
-0.06720889
0.0037896931
0.034874678
-0.07047967
0.011786744
0.033841185
0.011206493
0.05845487
-0.043886553
0.033038244
-0.03372344
0.0348105
-0.008551396
0.009990752
-0.040107403
0.06759125
-0.019539326
-0.02859769
-0.018147472
0.056849107
0.065667406
-0.04288249
-0.016835354
0.029909246
0.030682616
0.01973737
-0.0378485
-0.026157025
-0.029471114
-0.058668904
-0.044684082
-0.04158647
0.054007396
0.038531616
-0.052048024
0.0038997382
0.05692856
0.0051699355
0.050959244
-0.041393444
0.0112660155
0.072669715
-0.01061146
-0.067079335
-0.03575774
-0.031615984
0.03979516
0.055374682
0.05952908
-0.008648336
0.038449414
0.063356236
-0.019130457
0.034930907
-0.013828285
-0.023942523
0.04498042
0.02818118
-0.02046791
0.0074165985
-0.008514449
-0.04190333
0.02030743
0.07255529
0.042404592
-0.04133303
0.06374788
0.008580752
0.04845471
-0.00665801
-0.015851356
0.0516157
0.024923936
-0.009053022
0.04640036
-0.073151425
0.015170105
0.0029482841
0.020072877
0.03125366
0.06704724
0.06233655
-0.07346473
0.02968616
-0.06991299
-0.05890639
0.014050141
-0.013411447
-0.043717723
-0.011290371
-0.00773485
-0.04975763
0.04286637
0.026271835
0.009836517
0.0132409185
-0.059845135
0.022993147
0.011989713
-0.05898714
0.031115413
-0.07012556
0.017221332
-0.067710534
0.039949887
0.04065743
-0.035929106
0.04244481
0.04028
-0.03484766
0.0035984963
-0.014521942
-0.015908126
-0.072761856
0.016700149
0.03986662
0.061162844
0.055152103
-0.03830887
-0.031460118
-0.03292046
0.02520354
0.046406597
-0.042999584
0.05561644
-0.06585407
-0.07576118
-0.046203338
0.0125039965
-0.045730885
0.0074348003
-0.048395053
-0.024978515
-0.016000122
0.020638354
-0.022752207
-0.0007265955
-0.06862657
-0.042391334
0.017973647
0.0045897365
0.022949487
-0.025474813
-0.043460626
-0.004539013
-0.06375788
-0.03195316
-0.017486852
-0.019601244
0.070414886
-0.028211854
0.03744734
-0.010416061
0.06322217
-0.065901086
-0.07514907
0.064438894
0.050239176
0.059571683
0.050977737
0.06557116
-0.03827812
0.025747411
-0.062036816
-0.054310896
-0.0701177
-0.026500683
0.018607378
-0.051882036
0.018516973
0.045150504
-0.0042760298
0.005804427
-0.055773374
-0.010791324
-0.05316844
0.053913012
0.013695218
0.009575345
-0.042939752
0.027731381
-0.0071954355
0.03130699
0.06666091
0.05748503
-0.03558543
0.03382474
-0.021642022
0.0110403225
0.07580912
0.036423035
-0.008588739
-0.03489898
-0.02517574
0.019086018
-0.039778195
-0.011607468
0.0098988265
0.051652253
-0.034977958
-0.0060229376
0.057648942
0.008546829
0.037679628
-0.06343316
-0.059661977
-0.06724174
-0.04920767
-0.036343824
-0.0055275783
0.04289013
0.02329532
-0.03605212
0.026805043
0.00022743642
0.026724659
0.032526046
-0.024887823
0.025791235
-0.056770645
0.019058146
-0.042568803
-0.043541938
0.018161468
-0.047623187
-0.03881899
0.023169294
-0.05503019
0.029956803
0.058734626
-0.007218972
-0.018757936
0.04095801
-0.03776775
0.069677085
0.05272025
-0.046185426
-0.04455326
-0.07088794
0.03402853
0.065926805
0.002942361
0.07514581
0.019614518
0.045584783
0.054045886
-0.036031496
-0.067917325
-0.04077565
0.0033828318
-0.051698424
-0.0038938373
0.06499687
0.007969327
-0.014393527
-0.02493766
0.046682887
0.009922244
-0.019916795
0.02220203
-0.051719233
0.027681492
0.012254596
0.00047209114
0.005739726
0.006848283
-0.031494018
0.075090975
0.045849733
0.0036382452
0.034170665
0.040600188
-0.05890762
-0.021713138
0.045546263
0.043381035
0.05136399
0.00785026
-0.015103646
0.015373871
0.046674773
-0.07110757
-0.009619184
-0.030104883
-0.015967254
0.03971751
-0.006417297
-0.025702808
-0.013488051
0.03436143
0.0028626248
-0.06784925
-0.0066046193
0.07155083
-0.035617046
-0.07571954
-0.022720028
-0.03167542
-0.0043240935
-0.013104409
0.07162301
0.04678879
0.040952086
-0.06780052
0.057240188
0.063500926
0.035247616
0.017145276
-0.03225457
-0.014889322
0.03726866
-0.047645226
0.021011136
0.004437782
0.06397641
0.06637333
-0.0074435845
0.065169185
0.0755527
0.0064342692
-0.013207145
0.029761113
0.007993363
-0.030637074
0.05604346
-0.06423256
-0.07314835
0.009905852
0.020407371
-0.06784617
-0.075921714
-0.06395967
0.037645854
0.02521076
0.019532539
0.04653506
0.02904711
0.023456693
0.029274084
-0.022557478
0.027828969
0.023594588
-0.038744252
-0.040916484
0.012340218
0.024345107
-0.042219367
0.02685184
-0.0041005537
0.06235814
-0.017441433
-0.05478271
-0.032779682
-0.031853706
0.050859645
0.04940912
0.0013945326
-0.06405397
0.055010438
-0.07029908
0.054343
0.019116946
-0.0174925
0.033863932
-0.061971623
0.022137128
0.06406477
-0.06946108
0.043671183
-0.01794282
0.023653448
0.034878373
-0.0061114505
0.03953349
0.054272696
-0.06546543
0.00040286034
-0.00010597706
0.03592336
0.05603829
0.041446
-0.0028664097
-0.020512462
-0.040779
-0.027625985
-0.003607221
0.04198516
0.070338726
-0.051064476
0.052326128
-0.035904314
-0.06445458
-0.044938825
0.014096156
0.04254309
-0.042937722
0.054995134
0.07026078
0.07164255
0.007742636
0.03281393
0.028424092
0.015507296
0.024267495
-0.004691474
0.05397269
0.034160815
-0.0020832121
-0.036831234
0.034566566
-0.031123307
-0.03987361
-0.009314448
0.0564643
-0.03916873
-0.06431155
0.0488599
0.047880627
-0.05682481
-0.04641172
0.03926996
0.06534991
0.033533208
-0.0063848495
-0.019380655
-0.017270137
-0.047302764
-0.071526326
0.028750822
0.075770736
0.032101512
-0.02902418
0.05911888
-0.029050436
-0.070853494
0.0185422
0.03894338
0.049918607
0.0035677627
0.02318599
-0.015903909
0.008857191
0.034002326
-0.036940157
-0.05576642
-0.020566445
-0.009039544
0.03782215
0.07097088
-0.010589726
-0.021113377
0.058428764
0.04081636
0.0100943
-0.06414261
-0.07447173
0.03126329
0.07511802
-0.006530009
0.034109004
0.01832974
0.015813418
-0.038245887
-0.059029713
-0.023757268
-0.014551602
0.03145311
0.04274644
-0.044306632
-0.06270796
0.037009917
-0.0041707456
0.018061146
-0.049751595
0.03268175
0.038628332
0.05120261
0.029611118
-0.059134293
-0.049366288
0.04990436
0.009800114
-0.008399747
-0.02348074
0.0094265565
0.00049387664
0.07576504
-0.009594522
-0.00040198863
0.005581923
0.015857585
-0.038254704
0.04881327
0.01793056
-0.00044132024
0.074093536
-0.057207674
-0.025421917
-0.019429676
0.03389901
0.009077884
0.065311864
0.022699289
-0.07582309
-0.021537405
0.015380479
0.061609983
0.07537806
0.0020041838
-0.05678441
-0.012061231
-0.024057698
0.033508755
-0.023237877
-0.008430913
0.035634868
0.055558324
0.05188586
-0.012794919
0.026799776
-0.0136403665
-0.063539594
0.07183693
0.03228171
-0.013526481
0.028407976
0.018269151
0.025039539
-0.070228904
0.00095647573
-0.0026018918
0.02550491
-0.063588284
-0.040960018
0.003146179
-0.008887649
-0.049122103
0.057451606
0.074495584
0.04255314
-0.061510272
0.0416471
-0.03227264
-0.044051927
0.045129463
0.05122021
-0.06990979
0.07546775
-0.034623995
-0.044176303
0.009690136
-0.06232553
0.049941152
-0.07166426
0.024278231
-0.056568928
0.07115504
0.05053714
-0.046218023
0.021147497
-0.074337505
-0.053265795
0.05893819
0.030792288
-0.007836953
0.067534655
0.013850145
-0.0658913
-0.062031638
-0.026278842
0.0014919415
-0.010698602
0.07255657
0.011856519
0.050518796
-0.009635627
-0.044527765
-0.056675136
-0.07014403
0.07250367
-0.025184922
0.06889364
0.051127717
-0.045134116
-0.010640703
0.010648854
0.07565211
-0.0600234
-0.026901618
0.011451513
0.021729454
-0.029644202
-0.075942665
-0.04795053
0.010504112
-0.02672556
0.0028665587
0.043574385
0.009456292
-0.023222428
-0.0472911
-0.00025108457
-0.066774905
-0.07259214
-0.040816702
0.07244401
-0.043685
-0.02707766
-0.00052826107
0.030741058
-0.001544714
0.032332852
-0.049334086
-0.007480964
-0.037301727
-0.07012415
-0.03591748
-0.027522165
-0.062163636
0.06241621
0.03379079
0.027799018
0.009559788
-0.017142992
0.053700313
-0.03594276
0.048085243
-0.05584092
0.033218198
-0.042396586
0.06394327
-0.038138136
0.0649551
-0.052507218
0.073844895
0.06797153
-0.062841296
-0.006022826
-0.020477619
-0.06759357
-0.049326137
-0.031964496
0.0444932
-0.001093775
-0.021463972
-0.06577164
-0.02668016
-0.051444568
-0.023517318
0.015884697
-0.039734498
-0.023329075
0.028929614
-0.055673502
0.03239055
0.01759974
0.0012919828
-0.008941375
-0.0121753365
-0.008178674
0.03276302
-0.066845894
0.074942455
-0.06291622
-0.014412489
-0.060545288
0.039194122
-0.061478473
0.018146642
-0.058787685
-0.075323515
-0.051340878
-0.041101072
0.06456372
0.041494407
-0.016944733
-0.007603653
-0.004931733
0.022584155
-0.04034076
-0.045970038
0.0648123
-0.072230354
0.025542907
0.04342734
0.06216505
0.0101761
0.008091457
0.007416472
0.018822968
-0.008783139
0.06785311
0.0062639117
-0.048151195
0.04916142
-0.048276495
-0.049026556
0.047669746
0.07049665
-0.0049840137
-0.005754791
0.058048636
-0.02677013
0.0505677
-0.07041458
-0.010251701
-0.073430195
-0.003160596
-0.055373684
-0.04825393
-0.030654095
-0.027230065
0.023842417
-0.015831199
-0.07442827
0.05324298
0.052930832
-0.06929082
0.018395081
-0.06558314
0.016323604
-0.06540488
-0.0033195987
-0.02332288
0.032979697
-0.03736922
-0.0048978627
0.07585378
0.06472479
0.055342406
0.0060326606
0.0035457239
-0.043649398
0.037838504
-0.052032847
0.03479565
0.03625264
0.061283723
-0.052144706
0.026643254
-0.020256363
-0.04873833
-0.049066037
0.016822405
-0.06058254
0.023781098
0.018816791
-0.049228042
-0.065267265
0.039880745
-0.024468977
-0.010725133
0.005372107
-0.066049196
-0.042600602
-0.04786022
0.0498987
0.06992574
-0.04250765
0.046740435
-0.034207683
-0.05390644
-0.009603322
-0.03877031
0.0037083477
-0.027666517
0.059523568
-0.028321687
-0.039962437
0.066630065
-0.00074754655
-0.0719656
0.073511615
-0.06573569
-0.047106985
-0.012578212
-0.055607893
0.03653018
-0.037198108
-0.01240965
0.06198591
0.024084605
-0.012717232
0.051345646
-0.03469393
0.05830586
0.010315523
-0.035757087
-0.021871176
0.037447594
-0.046580024
-0.021437842
0.04688131
0.010327511
0.04763963
-0.04677707
-0.037984263
0.0272035
0.017920472
-0.044097327
-0.012784675
0.019547656
-0.047217723
0.008794218
0.063165784
0.03675586
-0.058437414
0.07503104
-0.010937534
0.03927456
-0.056421194
0.013735861
-0.06493536
-0.048438355
-0.05501297
0.016530648
-0.058164746
-0.01751472
0.0734459
-0.032218657
-0.0066537857
-0.0019778311
-0.0051406175
-0.046323366
-0.007378809
0.022050329
-0.020677164
-0.049647883
-0.015833374
0.030945748
-0.056792088
0.060967267
0.02294027
-0.055064455
-0.005441159
-0.010012262
-0.0023981854
0.014582917
-0.060794745
0.01008606
0.011059262
0.0465713
-0.06582662
0.045057043
0.010545507
0.026022635
0.066894606
0.034777142
-0.008492954
0.046675153
0.07089923
-0.014874525
-0.069502875
0.061246917
0.010219976
0.0740134
-0.030239485
0.026005901
-0.0546079
-0.0451712
0.039250895
-0.012291901
-0.049778163
0.009228297
-0.0634251
-0.018670049
0.015064821
-0.0037760586
0.01561749
0.015693441
-0.059444122
-0.035716284
0.018513985
0.03562101
-0.07343746
0.007244289
-0.038654484
0.05128771
-0.041695595
0.048441052
0.012522832
-0.02826919
0.0475903
0.036346957
-0.056561664
-0.042370398
0.03850258
-0.040245414
0.06678313
0.031423934
-0.037193306
-0.06388017
-0.0122318715
-0.007095672
0.029675059
0.03602249
0.031046666
0.008340329
0.013097838
0.009511329
-0.07154342
-0.033946276
-0.07494322
0.06983869
-0.009373933
-0.00391338
-0.0038840622
-0.04632731
0.043310538
0.072141096
-0.059757687
-0.0027995557
-0.071533
0.04924026
-0.0065359324
0.004596472
0.07481244
0.07000345
0.042165168
-0.041608546
0.070564926
-0.062073596
-0.012481816
0.06997183
0.02480711
0.019773498
-0.0756861
0.01898966
0.06866005
0.07210913
0.01264815
-0.03340789
0.029842228
-0.0050526634
-0.042498395
0.068414584
-0.074253224
-0.013941832
0.0053533465
-0.071823604
-0.058917783
0.038945712
0.026602946
-0.041139446
0.027156942
-0.059253328
-0.014364392
0.037311435
-0.034143973
0.045413464
0.016921826
-0.038144983
0.01264967
-0.052174643
-0.053848602
0.015909322
0.056410894
0.05474581
-0.0061151683
-0.012330949
0.0020660982
0.0720875
0.01637473
-0.019428119
-0.010799706
0.014192574
-0.066772476
0.036203027
-0.04085752
-0.068252854
0.01321964
0.039190046
-0.016563173
0.039864033
-0.019874528
-0.07339307
-0.03715814
-0.012542568
-0.012811042
-0.028819945
0.06127256
-0.010749854
-0.0015501827
-0.01097969
-0.05780921
0.0071412325
-0.011743069
-0.04980509
-0.043871
0.040679164
-0.045395814
-0.029677376
-0.05745454
-0.011933506
0.058956265
0.002137974
-0.035215765
0.050767794
0.00043847412
-0.025517661
-0.031991553
-0.03858764
0.029488645
-0.04558838
-0.052596007
0.07051177
-0.03101657
0.028403975
-0.028750714
0.028574258
-0.018331863
-0.07080844
-0.02695917
-0.024971489
-0.07445469
-0.041786432
0.057082668
-0.047169514
-0.019030351
-0.07085851
0.0447891
-0.020717006
-0.073162526
-0.017526418
0.018179342
-0.05294231
0.059335336
0.03326624
0.049884737
0.01801321
-0.0044569597
0.07273525
-0.051796995
-0.04219682
0.045732625
-0.04272907
0.010982484
0.060404733
-0.048486672
-0.06928475
0.06739767
0.017878264
0.0060604736
-0.052594543
-0.015317041
-0.07114154
-0.0567029
0.05606535
0.011790097
0.009444922
0.03611909
-0.054907102
-0.037176955
-0.055098172
0.07431431
-0.017708108
0.009798795
-0.008573815
0.057445034
0.0340098
-0.049962856
-0.065055944
-0.043849956
-0.049906813
0.030199662
0.013920158
0.05924125
-0.046097614
-0.012825236
0.02517391
0.04756058
-0.03211326
0.04352624
0.073365316
-0.06554033
-0.04623318
0.012016535
0.02055692
0.017067805
-0.040715616
-0.019913226
-0.029001959
-0.009757392
0.065400854
0.056080535
-0.026837114
0.015788533
-0.060446125
-0.011940986
-0.070994146
0.020577133
0.05819188
0.07024126
0.04221441
0.046682037
-0.018435825
0.031993486
-0.04711745
-0.0122421235
0.044284828
0.018298723
0.016881242
0.06887509
0.006307468
0.015804939
0.018030487
-0.03536408
0.064974055
-0.03767751
0.0069670975
-0.027312063
0.06604722
-0.027735274
0.040485196
0.039455615
0.047874413
-0.074947946
-0.031258527
-0.051146224
-0.06704513
0.039855465
0.0047708303
-0.06850464
0.018936127
0.012687914
-0.012606695
-0.06426769
0.059535682
-0.03196388
0.036279827
0.064840734
-0.046267044
-0.047327556
-0.03529016
0.048947945
0.07392396
-0.050687663
0.03128808
0.0100682005
0.017812818
-0.061769452
0.021655172
-0.052151352
-0.004327446
-0.0049542934
-0.061712444
-0.037739046
0.008285187
-0.06707188
0.0033698454
-0.014706273
0.07577407
-0.013283215
0.04436598
0.036034048
-0.02480575
-0.06301357
-0.045892403
-0.021934487
-0.06116562
0.032580987
0.04861387
-0.020233382
0.06068018
-0.061800204
-0.022585094
-0.073667176
0.06610027
-0.0315442
-0.056470126
0.05793947
-0.057189185
0.008284576
0.07348344
0.055048898
-0.053794548
0.068520576
-0.01259996
-0.022024017
-0.04305382
0.020979911
-0.031763356
0.05237201
0.073464826
0.07426362
-0.049550783
0.07220578
-0.00022627413
0.023722187
0.061843634
-0.009031817
-0.06714498
-0.013136044
-0.0051096156
-0.03216732
0.06793876
0.056274667
-0.045548216
0.052681208
-0.03668701
-0.045655064
-0.016286626
0.022665642
0.023193508
0.011971548
-0.030938175
0.055257827
0.07240382
-0.055243716
0.045832656
-0.05662507
0.019560367
-0.046093233
-0.018073734
-0.038720418
0.0058250576
-0.06524401
-0.042928632
0.029231347
0.04912427
0.05941838
-0.013966244
-0.045257855
0.05370152
-0.06716717
0.023368314
0.059789166
0.031542048
0.027628466
0.07013588
0.036631487
0.046208844
0.032921292
-0.028783869
-0.017005779
-0.036270827
0.030614875
-0.05033955
-0.0744437
-0.044577077
0.07535392
0.047062963
0.051552117
-0.045629077
0.023577712
0.02217327
0.02480711
-0.024156049
-0.032856736
-0.030090086
-0.07363681
-0.028144218
0.0757146
0.016876042
-0.06275599
-0.035530142
-0.027964357
-0.050854303
0.041343227
-0.03185756
-0.017566875
0.025372006
0.038261876
-0.001276955
0.0018916354
-0.027476694
-0.0063186437
-0.05366215
0.056973428
-0.020662677
0.011221506
0.032748573
-0.02577253
-0.06369448
-0.046918903
0.07008614
-0.0554358
0.060729966
-0.0096712485
0.059511557
0.07469162
-0.04242154
0.058284685
-0.01666576
-0.05274774
0.06563765
0.028976135
-0.053434573
0.029715225
0.018365636
-0.016505983
-0.0022848397
0.02240976
0.023112781
0.037347093
0.07473491
-0.00410977
0.040491194
-0.05491692
-0.004096389
0.06563434
0.050152466
0.03834498
-0.07458172
-0.0004839152
-0.06225976
-0.048850592
0.049892545
0.0077302307
0.0064655095
0.060651973
-0.061999366
0.06474382
-0.028935228
-0.029185224
-0.0726697
-0.030243002
-0.0051287785
-0.01319731
0.034323595
-0.054824706
-0.042005066
0.03640733
0.05402319
0.00575193
0.02804181
0.06311154
0.060170084
0.016313866
0.016389415
-0.011810251
-0.055178322
0.0191833
-0.0013534799
-0.017034356
-0.06859258
0.004293978
0.04213853
0.010545582
-0.06973886
0.073311776
0.05438164
0.064836666
-0.071265824
-0.04107559
0.044406287
0.06436847
0.006659493
-0.047315225
0.07096422
0.0722958
0.004679002
0.04971312
0.04187864
0.044676825
0.03881745
-0.0032546893
-0.007987782
0.06642035
0.014512487
0.02157069
0.049904928
0.03279084
0.016685829
0.043590054
-0.03570625
-0.04152946
0.010406122
-0.05119823
-0.0049087703
-0.06869905
-0.004042916
0.043060265
0.03094723
0.048557878
-0.020881835
0.07094538
-0.07331073
-0.05922944
0.07208128
-0.035182625
0.06809802
-0.063431114
0.06615725
-0.0042147115
0.0033147633
-0.013097487
0.016097963
0.028179295
0.0314793
0.029095821
0.0012981966
0.006877415
0.026594743
-0.030761845
-0.034429666
-0.021483023
-0.043485347
-0.024478737
-0.03873402
-0.03957981
0.03936907
0.048342958
-0.0647436
0.066982105
-0.07415069
0.0057738945
-0.02569696
-0.036726017
-0.03222427
0.030940875
0.028178662
-0.030816518
-0.045627788
0.034816697
-0.07140291
0.023427501
0.0441062
-0.0023675263
-0.0035362914
-0.05056984
0.032446094
-0.06229042
-0.038631704
-0.0028728247
0.05542624
0.052712306
-0.057049528
-0.07060551
0.06815682
-0.013921693
0.05630064
0.03487111
-0.07409412
-0.0056797266
0.035441674
-0.038857777
0.023960397
-0.049498938
0.001696974
-0.074934475
0.039397612
-0.012298621
0.048820823
0.011508532
-0.058676496
-0.039048757
0.022890724
0.05855462
0.058003396
-3.605336e-05
0.024085045
0.019633546
-0.011262417
0.0062860623
-0.033582915
-0.039575662
0.044185735
0.0074352697
0.010985069
0.0010892525
-0.03654882
-0.043528374
-0.045203023
0.026468337
0.0123941675
-0.0059418455
-0.039610125
-0.0480803
-0.022211011
-0.052966885
0.015211649
-0.0032229796
-0.0015869662
0.010856442
-0.03464605
0.036544964
-0.024090257
-0.05873006
-0.070840366
0.059878796
-0.0449119
-0.0044403225
0.059264824
0.005378753
-0.007945791
0.055973515
0.06604576
-0.008676603
0.033548377
0.014290944
0.04849761
-0.00883428
-0.020437617
-0.0127168
0.030103557
0.059514076
0.04153435
0.0008995384
-0.05664236
-0.06785628
0.06129782
-0.0019050166
-0.051489986
-0.068383835
-0.03188956
-0.06319539
-0.06459248
-0.00046560168
-0.040480994
0.008375481
-0.062589005
0.046826474
-0.02456079
-0.055583045
-0.020580389
0.0069643036
0.025356561
-0.06618444
0.063872606
0.06052068
0.039403133
-0.061766572
0.032490335
-0.02889184
-0.075119205
-0.06277629
0.043170266
0.031720854
-0.06208955
0.06316827
0.04142847
0.00376378
-0.019677266
0.07054414
0.0706944
0.03816387
-0.05788724
0.001734972
-0.031049311
0.062308118
0.031172276
0.049850926
-0.031625997
-0.035079822
0.005569339
0.04991606
0.058372512
0.054090634
-0.046888534
-0.010594547
-0.047187734
0.060397804
0.039447434
0.06569587
-0.025314115
0.046650343
-0.058039702
-0.04296936
0.05763799
-0.07388693
-0.053022675
0.072089955
-0.061376356
-0.058571205
-0.009051152
-0.064710334
0.011896506
-0.014364827
0.016510203
-0.04446989
0.0015073717
0.056824744
0.06825684
-0.011420943
-0.054518316
-0.015236437
-0.031761836
-0.003192328
-0.038500283
-0.028360315
-0.03280516
-0.00890056
0.023149103
0.0234591
-0.038065266
-0.031076167
0.03731154
0.026233315
0.04314951
0.015981108
0.038497843
0.039612062
0.04923454
0.059417352
-0.03688592
-0.043908812
-0.07386777
-0.05100493
0.07255535
0.024158329
-0.07356692
0.021969654
0.010761045
0.041057646
0.010486379
-0.064689435
0.07506795
0.06315018
-0.041993693
0.02308724
0.0017004386
-0.002213955
-0.06630124
-0.03463339
-0.037557032
-0.0736569
0.04765676
0.017810911
-0.06715312
0.027140878
-0.023875881
-0.045332015
-0.026413396
0.06468408
0.067042574
0.02814161
-0.004309736
0.009616613
0.070454344
-0.067474484
-0.071113706
0.036358602
-0.04356501
-0.035302926
-0.06634441
-0.01611993
0.0074634105
0.07258509
-0.062604524
0.027227655
-0.039248373
-0.05278945
-0.02986173
0.05775854
0.034148954
0.058837593
-0.006549351
-0.036928028
0.026976027
0.022618577
-0.075089544
-0.069877066
-0.012089282
-0.06448752
0.024064563
0.002038695
0.07262303
0.01967556
-0.07312772
-0.04967956
-0.008578755
0.0032826737
-0.05425718
0.045533404
0.04679913
0.02326198
0.0680563
0.06912346
-0.0671334
0.045509808
-0.04890224
-0.06312924
0.0052783415
-0.06565717
0.0021710172
0.0016432628
-0.028362252
0.048989452
-0.040097117
-0.026742276
0.006902933
0.064140484
-0.00026328862
0.013810776
-0.0021245852
0.07359515
0.005826056
0.04176861
-0.019063346
-0.034242522
-0.01945465
0.06597738
-0.07268848
0.05387315
0.06408349
0.047972478
0.07379511
0.016184725
0.05789745
0.05931674
0.044834897
-0.040974144
0.068473026
-0.017036311
0.056992576
-0.027215578
-0.02851493
0.050944105
-0.07393263
-0.065083236
-0.052149452
-0.02705906
0.07319264
-0.037129365
0.0006510988
-0.040519077
-0.004945822
-0.046726275
0.033031598
-0.07439762
0.04786759
0.03695131
-0.042621754
-0.05843354
-0.0016316399
-0.04023011
0.019217655
-0.020017862
-0.027486347
0.034005024
0.00789126
-0.012565225
-0.0017009601
0.0045442656
-0.047554918
0.049588248
-0.007135205
0.06459668
-0.043141615
-0.043217275
-0.027902603
-0.05056894
0.0075130314
0.03336622
-0.010486633
-0.055765748
0.072001874
0.010416552
0.06249164
0.05131261
0.039825678
0.020749308
-0.012616582
0.00792826
-0.064911634
0.022001058
0.014101841
-0.045372613
-0.06810418
0.002721265
0.026384749
0.015030861
-0.021700587
-0.0711862
-0.018224854
0.0019353256
0.06239237
0.048657656
0.015272588
0.04843571
0.01865466
0.023794644
0.0005977303
0.06656152
-0.07499856
0.065548465
0.04305011
-0.018513948
0.030495152
-0.021950494
0.04968688
-0.069142774
-0.012782209
4.6774745e-05
-0.07011721
0.07577987
-0.05074034
-0.035495464
-0.045729548
-0.059552126
-0.029755898
-0.026288334
-0.06986066
-0.07409422
0.0065681487
0.02426976
0.011758171
0.051244542
-0.01923906
0.06797749
-0.020451162
-0.028332718
-0.07140807
0.018690206
0.051334307
0.073471144
0.06344804
-0.04904925
0.051195383
0.03135684
0.06085223
0.015500255
0.07075511
0.030909926
-0.002025731
-0.04630031
-0.05683142
-0.04674694
0.021281198
0.03659279
-0.039718054
-0.06608678
0.069574624
0.054816544
-0.07366446
0.06418532
-0.017309543
0.06422298
-0.022907872
-0.06134584
-0.0155339725
-0.001422584
0.07148175
0.00058496
-0.0067859516
0.07261117
-0.0152191445
-0.014591768
-0.026154019
-0.05215092
-0.016308088
-0.007006772
-0.0022824258
0.0047912225
-0.06097062
0.05477713
0.0068397895
-0.008712582
0.059625432
-0.0044266805
-0.026439346
-0.046018895
-0.02359077
0.03969504
-0.07166708
-0.03323741
0.02095025
0.06817463
-0.0691728
-0.016978797
-0.02073868
0.047894515
-0.019720003
0.029954232
0.029023275
-0.016671829
-0.056635767
-0.06151308
0.044045985
0.060887337
-0.010303423
0.07205318
-0.0647813
-0.050529893
0.066890895
0.03122086
-0.042628907
0.033812612
0.023475036
-0.032318495
-0.054206766
0.0038402006
-0.044374526
0.025486767
-0.035919145
0.009062797
0.06378114
-0.046477545
-0.038246285
-0.011952721
-0.027612913
0.034033
0.043475695
0.003952332
-0.010233954
-0.024662562
-0.00491976
-0.010479465
0.022289626
0.0036041066
0.004455097
0.01833646
0.060538918
-0.07174008
-0.067875944
0.056365907
0.012742855
-0.020100605
0.017212167
-0.021640953
-0.044609204
-0.062456064
0.01710125
-0.009914689
0.06328079
-0.015593354
0.045291215
-0.022078779
-0.014988378
0.05092512
-0.011642836
0.01701659
0.023975536
-0.017599162
-0.063112
0.025666304
0.026485994
-0.07420406
0.026085623
-0.053459905
0.020091802
0.06866805
-0.021687206
0.0022981986
-0.020502303
-0.051756646
0.047995783
-0.051170107
0.021066152
0.013113551
-0.04599519
-0.024974238
0.039414868
0.03093122
0.008880347
-0.033218052
-0.027313095
-0.054049417
-0.059911326
-0.0060305744
0.0055112243
-0.07515401
-0.015634082
0.056463555
-0.011136733
0.010101303
0.008950308
0.017462097
0.020108484
-0.068484284
-0.011702247
-0.004954621
-0.05144832
0.016624324
0.023307957
-0.013847772
0.011087388
-0.036670096
-0.0040639713
0.0053346753
0.03333527
0.07077974
0.028268099
-0.033104308
0.056142256
-0.0034910887
0.02782064
-0.04108599
-0.053799003
0.041202523
-0.045797907
-0.060198065
-0.01988009
-0.05934099
0.06447628
0.030284815
0.06339474
-0.0029770955
0.0051952526
-0.07056862
-0.008161269
0.021388784
0.03783506
0.07369998
0.0141898915
-0.0734838
-0.051014207
-0.048754197
-0.030193835
-0.06538546
0.024399564
0.05593121
-0.030658025
-0.044554513
0.03931062
0.043639906
-0.06609516
-0.039494514
0.037442885
-0.028957557
0.04979521
0.061279327
0.03754001
0.06116426
0.06631766
0.0337227
0.06604013
0.05260524
-0.010140352
-0.020321626
0.045928165
0.049540713
0.05176501
0.016491875
0.010409288
0.041213855
0.06629187
-0.021181796
0.021458887
0.05946189
0.044920698
-0.069032595
0.042172864
-0.05848651
-0.0022720546
0.039501503
0.07430205
-0.0337652
0.047953375
-0.0067958757
0.014643706
-0.008028924
0.011290282
-0.013052851
-0.011436172
0.0074523836
-0.05184096
0.004996851
0.06302413
-0.042001188
0.026941694
0.019831829
0.03448336
-0.0050998926
-0.030319422
0.06940067
0.037608698
0.059206024
-0.055187702
0.025007725
0.037878014
-0.028919455
-0.015583374
-0.06567608
0.019392952
0.0010044053
0.039044812
0.008294627
-0.062459633
0.055900812
-0.07506938
0.05383928
-0.026318576
-0.03493721
0.034873523
-0.043031223
-0.018396057
-0.049706325
0.021409623
0.06672247
0.017393693
0.063374594
0.032789566
-0.04240926
0.012624495
0.028018288
-0.04228668
-0.061268806
-0.0031782389
0.066787615
0.0461284
0.019919261
0.016027361
0.035374366
0.0039663315
-0.016434632
-0.02996122
0.05847338
-0.023725647
-0.012577102
0.05778125
0.039164312
-0.036728155
-0.057929907
-0.018782925
-0.010411032
0.020595945
-0.02673782
0.02916652
0.022732325
0.0069020092
-0.011028297
-0.012995064
0.007204503
-0.01308094
-0.0055175647
-0.03186774
0.06448498
0.054952115
0.0043431297
0.021960765
-0.009633258
0.051937
0.06764233
-0.051800597
-0.048752747
0.044153504
0.01770521
0.003647156
-0.009950437
0.029575184
0.004629709
0.0006270483
0.008853145
0.00018110871
-0.0277021
-0.06972457
0.033809893
-0.0571601
0.012538642
-0.033619206
0.052379772
0.025244303
-0.038205646
-0.061569255
0.0008307621
0.007214196
0.073504955
-0.009988852
-0.04659359
0.0059614405
-0.048700415
-0.003658563
0.04632456
0.007957086
0.06926833
0.012580328
-0.07240277
0.024203785
-0.031807743
-0.041517638
0.06863867
0.066923544
-0.029410448
-0.010812603
0.070890695
-0.04944343
-0.019510932
-0.0006188303
0.061363623
-0.0095431805
0.05461417
0.07049842
0.005896136
0.02395504
0.04329451
0.02711194
0.061919585
0.056797072
0.03274285
0.060479015
-0.0355422
-0.070378475
0.021677643
0.06267072
-0.033273865
-0.074385695
0.060990408
0.015884638
0.037825786
0.0006772503
-0.060433827
0.061627984
0.06109482
0.025860906
-0.054169387
-0.07100016
0.028552674
-0.0074439123
-0.01557653
0.0054496676
0.067660496
0.041519843
-0.031065684
0.07120079
0.07308321
-0.03419169
0.045477897
0.06826377
-0.03395334
-0.015464887
-0.0055414513
-0.04783032
-0.01772897
0.04107423
-0.031397734
-0.01976017
-0.052051738
-0.067598075
0.044106744
0.0253307
-0.016253252
-0.019077905
0.056743562
-0.03863994
-0.0063513666
-0.052698415
0.07258406
0.049446434
-0.074465245
0.0704332
0.0027626306
0.004922949
-0.07094511
-0.030684158
-0.019265536
-0.0075610057
0.060210705
0.03798408
-0.059902884
0.070605725
0.06467493
-0.0025482327
0.017815389
-0.06211076
0.03619218
-0.075139344
0.005502388
0.0034248084
-0.057709083
-0.022896357
0.033531427
0.0036799833
-0.008753404
-0.051717367
-0.050003532
-0.0070627853
-0.044164475
-0.02891346
0.048914894
-0.011971533
-0.0065405667
-0.012010828
-0.040929377
-0.07312498
0.054577783
0.03662151
-0.009173915
0.060413405
-0.03292526
-0.023846634
0.02702976
-0.069748506
0.06533988
-0.05267987
-0.0047843754
0.014361545
0.032185048
0.071685374
0.03684429
0.023856863
0.014933147
0.07567687
0.011884734
0.06744407
-0.054731913
0.013015218
0.021114029
-0.07296104
0.04647144
-0.024623409
0.037107326
-0.062656336
-0.05580242
-0.028373536
0.026496857
-0.034645017
0.047360912
-0.02178559
0.06310639
-0.045421094
0.0011870787
0.03971027
-0.053506322
0.07525936
0.014680833
-0.045526035
-0.06805251
-0.018469255
-0.0059136823
-0.0668711
0.037641726
-0.018269926
-0.042501673
0.015061997
-0.004190415
-0.07462196
-0.0014996231
-0.04397853
0.031031713
-0.042371612
-0.003778249
0.06625126
0.004810035
-0.012585908
0.06316386
0.027445398
0.030478291
0.04542911
-0.009393491
0.023999639
0.039829895
-0.017857783
0.033411495
0.021737456
-0.01442837
-0.0334752
-0.059350483
-0.06701192
0.007775523
0.03156153
-0.007910475
-0.064823836
0.03499978
0.005286962
-0.033871267
-0.06233234
-0.0143674165
-0.024452712
-0.01871422
-0.016480088
-0.011131011
0.021023162
0.0720627
0.06388454
-0.068593845
0.05933422
0.038232684
-0.0058705285
0.029160812
0.063927695
0.047657542
0.023996271
0.0398027
0.041608542
-0.0091997385
-0.066496715
0.02809485
0.03723213
-0.04074211
0.04004243
0.049749702
0.03532643
0.039426804
0.018761538
-0.06846058
0.018944532
0.03815058
-0.022635113
-0.026222687
-0.06473967
-0.014236975
-0.042133495
0.014932655
-0.02635606
0.059250355
0.053493246
0.026086487
0.014193274
0.055833623
0.018294029
0.011641547
0.07536481
-0.00025965273
0.015544914
0.06575847
0.009798758
-0.011293486
-0.07238607
0.056069046
-0.03510595
0.026098914
0.0747498
-0.0076584145
-0.04200175
-0.011411183
-0.027235027
-0.020565648
-0.054593652
0.070468456
0.06615153
-0.064941496
-0.0022069663
0.06902768
-0.0066632926
-0.043905027
0.030536406
0.063472375
0.03551261
-0.036653183
0.019423105
-0.012325913
-0.022063911
0.03595279
-0.058289573
-0.030419473
-0.045993723
0.022737555
-0.03576413
-0.057822138
-0.02929926
0.0032298863
-0.01628862
-0.033061408
-0.00072972476
0.041992694
-0.029043537
0.03907907
0.069149524
0.05119367
0.06041199
0.036802888
-0.024566818
-0.07540035
-0.01328481
-0.037374616
-0.05510004
0.030347705
-0.06598089
0.05889137
-0.06555168
-0.062074594
0.04326447
-0.058121897
0.051188543
0.07328148
-0.03481854
-0.030027773
0.041525953
-0.018766299
0.030134909
0.045206934
-0.047664076
0.072998285
-0.06214082
-0.0434262
-0.034347884
-0.025574848
-0.03537893
-0.037980404
0.027750924
0.03964915
-0.07323339
-0.0012133121
-0.011027738
-0.043187667
-0.029769499
-0.0076306537
-0.072703056
0.071216494
0.028380781
0.05073224
-0.057712704
-0.024768338
-0.03954908
-0.044548843
-0.036330204
-0.014238551
-0.007715419
0.056201264
-0.02938066
-0.03049557
-0.036141217
0.009914689
0.023221865
0.07077415
-0.019921016
0.011122994
0.06506823
0.0027144924
-0.05380358
-0.040599573
-0.027461972
0.00028264523
0.038687967
-0.057398707
-0.023518298
0.07291731
0.0029782355
0.0609954
-0.06723473
0.06031558
-0.057472795
0.0310795
-0.0052003264
0.047111586
0.06578317
0.023973562
0.06837471
-0.012838982
-0.03718657
-0.07485899
0.07490626
-0.028566632
-0.00068391114
-0.03809728
0.042346895
0.017077021
0.020028241
0.02156403
0.042886876
0.070531905
-0.06304986
-0.05880768
-0.065534264
0.07302609
-0.075762786
0.005712457
-0.06469997
0.0029156506
-0.06085617
-0.04081172
0.06331281
-0.05312874
-0.036622994
0.014641911
0.019607455
-0.06033274
-0.018370036
0.022291057
0.0635533
-0.06254293
0.02320841
0.05285567
-0.07269808
0.04824935
0.056110606
0.058362678
-0.039352883
-0.06298798
0.025116593
-0.012137741
0.075459585
-0.014847472
0.019838959
0.068673715
-0.060040478
-0.05047122
-0.05868944
-0.040321145
0.07077254
0.03725975
0.01500991
0.017776057
0.04654354
-0.009636752
-0.021473605
0.02384352
-0.07593202
-0.018791527
0.057283342
0.038829528
0.0053954497
-0.024138484
-0.0028775483
-0.024161879
-0.06479731
0.005432375
-0.04622373
-0.061070636
0.03468225
0.041203313
0.0003061369
-0.022498406
0.058788434
0.05608882
0.06952514
-0.05962069
-0.0118981
-0.060715135
0.041132472
-0.027407028
-0.026647277
0.06814432
-0.015606228
0.0025965646
-0.01433029
0.05987996
0.038003497
0.02412682
0.068440646
-0.07136296
0.016984358
0.04105071
-0.07595451
-0.068647236
0.018587634
-0.003939688
-0.070936255
-0.053962417
-0.00031834096
-0.037464872
-0.05934668
-0.061073262
0.0051238164
0.062247932
0.049815536
-0.030323006
0.00037506223
0.0049065948
-0.04809035
-0.04967177
-0.07558729
0.0005889833
-0.03142725
0.031116985
0.07422447
0.045146428
0.016172737
0.056582004
-0.023645625
-0.060698673
0.049582735
0.03897375
0.06737584
-0.009011298
0.055381864
0.055255815
-0.06927445
0.030755505
0.010630436
-0.0012853369
0.06675528
0.030002803
-0.021734525
0.034097522
0.07412493
-0.059972297
-0.026732713
-0.002180837
0.028266653
0.012989558
-0.03816599
-0.05753766
-0.067364976
-0.059473153
0.02463469
-0.0062573403
-0.061093945
-0.06223189
-0.07365312
-0.052637443
-0.023613624
-0.023166329
-0.054635733
-0.03737009
-0.045478716
0.037341297
0.036701627
-0.050026022
0.016438618
0.0061955675
0.0038362145
0.061654672
0.011662371
0.017697565
0.007367924
0.04098092
-0.025895435
0.04377272
0.04870704
0.02069752
-0.068716936
0.003517419
0.05234465
-0.029922288
0.0228737
-0.033700317
0.005281493
0.0027398467
0.0055011585
-0.017968357
-0.07150285
-0.06483427
0.045927748
-0.01659979
0.024600662
0.03490617
-0.03875778
-0.07185209
0.0074502677
-0.060981125
0.052760795
-0.06373017
0.0065363497
-0.045989774
0.0025388747
0.026278086
-0.021093369
0.07559748
-0.013508152
0.010094188
0.0406861
-0.049251076
-0.047393925
0.011911012
-0.0138021
-0.03988761
0.060016453
-0.05814696
0.07103515
0.06365533
-0.046159603
0.017479368
0.03707082
0.006015785
0.035168752
0.006186694
-0.06333999
-0.074158855
0.048359275
0.07368663
-0.04405356
0.037290752
-0.01929998
-0.019331869
0.042160675
-0.071252674
-0.0073986873
-0.034877107
0.017749667
0.023455277
-0.047491536
0.042248778
0.075435385
0.053921267
-0.025596868
0.0004885495
-0.07391681
0.017761149
0.041210793
0.05784726
-0.01393877
0.0700047
-0.04777679
-0.03181265
0.041434333
0.0060860664
0.046127804
0.011260964
-0.075372025
0.048141293
0.023908585
0.03624578
0.035381608
-0.06704803
-0.04249287
0.0027326196
0.029672489
0.04385727
-0.018315528
0.047165334
-0.040628985
-0.0265482
-0.034186676
0.063381046
0.027448155
-0.059107766
0.020600908
0.073911816
-0.065630004
-0.033843886
0.015445493
0.052553862
0.038340576
-0.017470915
-0.034986306
0.0706062
0.06961174
0.022137873
-0.039865028
0.0021354333
0.064131975
0.06058091
0.010373794
0.007870562
-0.066548645
0.036842987
0.07310693
-0.0007104948
-0.02962602
-0.0035998896
-0.015725099
0.0038744584
-0.008169487
0.0070857853
-0.07464929
-0.0018137246
0.044030182
0.048359886
0.044220798
0.05997874
0.056394964
0.02220375
0.014777102
-0.034037746
-0.040033173
0.047991633
-0.03784895
-0.027974859
-0.0584799
0.048592374
0.053980783
0.05307235
-0.022694819
0.023480758
0.053281352
0.052965343
0.02763991
-0.045093894
-0.065328866
0.012769803
-0.042619146
0.06771988
-0.054314315
0.013941996
0.041357607
-0.06262714
0.037730604
-0.0052189976
0.014042661
-0.0118459985
0.00031741709
0.049985543
0.03577742
0.03424535
-0.025611918
0.02292446
0.039600343
0.040447384
0.06529923
-0.02031219
0.07257481
0.05448085
-0.03625346
0.02794221
0.019941315
0.00959456
0.004556909
-0.055552803
0.0069173276
0.028512701
-0.06579645
-0.0033742115
-0.06474706
-0.051326517
-0.018621989
-0.065780096
-0.0016731098
-0.004296802
-0.0005303994
0.019637063
-0.055019632
-0.03513326
-0.04374934
0.061042503
-0.014570456
0.04511278
0.044478923
0.03185162
0.046505414
0.03932471
0.035413772
0.03655847
0.032059968
0.01646962
-0.06561343
0.0707849
-0.05080941
0.014086597
-0.05898156
-0.049604785
-0.018747993
0.05827892
-0.063252196
-0.055227615
0.041511573
0.041532107
-0.07113388
-0.017427742
-0.0029693618
0.005652383
0.012992114
0.036876924
0.0143665075
0.017977305
-0.037728943
-0.025055367
0.022907548
-0.019888327
-0.032149933
0.03747192
-0.008109532
0.0049899668
0.06659125
0.036789
0.07298659
-0.017633606
0.06735617
0.032495134
-0.05656022
-0.049814455
-0.037380032
0.075241834
0.069455594
-0.03433629
0.000963822
-0.0038849264
0.020004205
0.026093751
-0.052689992
-0.03887737
-0.008316591
-0.07194942
0.01177597
0.02397117
0.020015672
-0.07090684
-0.071640335
-0.0029287636
0.065058395
-0.014005467
0.050386354
-0.056282602
-0.004660614
0.03704934
0.06164302
-0.03421619
-0.07425016
0.043552093
0.014437951
0.008447267
0.039796717
0.034832343
-0.005990267
0.07107134
0.043287538
0.024197884
-0.012303658
-0.0012887567
0.04214143
0.053574115
0.055678904
0.005756438
0.008680314
0.059094906
-0.07468429
0.0021969676
-0.06533799
-0.015704092
-0.011718132
-0.05067017
0.070622906
-0.021850731
0.061090514
-0.01802444
-0.042746257
0.07398702
-0.07070239
-0.0029882714
0.053567678
-0.06335953
-0.012633838
0.015523866
-0.055461027
-0.0026501864
0.07190521
0.06843336
-0.041073762
0.035300083
0.040181868
-0.005619265
-0.06312847
-0.039581474
-0.04371937
-0.05713627
-0.029931176
-0.017502118
-0.06641506
-0.062235944
-0.06685111
0.033294633
-0.009464838
-0.021288242
0.0072774887
0.035519965
0.06285231
-0.055863213
-0.025316723
0.031392515
0.03891091
0.024485797
0.042831354
0.031240001
0.027689166
0.0064563975
0.017538644
0.07226519
0.041678175
0.046536908
-0.06789587
0.047495194
0.06464063
-0.031001505
-0.05450736
0.014307894
0.019849844
0.07431677
0.021638438
-0.0624967
0.050665647
-0.024923988
0.07441345
-0.07171799
0.06734195
0.059489608
-0.053235225
0.027600706
0.04821883
0.06321849
0.06995545
0.016825214
-0.037561502
-0.025666554
-0.001679033
0.021679565
0.033345446
0.01960671
-0.0462623
-0.021358125
-0.054840386
-0.07361458
0.010814443
0.021665096
-0.05936133
-0.05680038
-0.045203276
0.033890158
0.058494255
-0.02860669
-0.010300323
0.0017442405
0.065644324
0.04861398
0.071962014
0.0021067709
-0.058508366
0.0050115585
-0.071620926
0.06698544
-0.032065
0.07114655
-0.019505173
-0.021610621
-0.04858301
0.07150695
0.011335067
-0.019819133
-0.069448724
-0.018525593
-0.06715545
0.030871026
-0.0028265715
-0.044635516
-0.018687688
-0.03277271
-0.06646466
-0.06335544
0.07208823
-0.040937345
-0.053146094
-0.00045278668
-0.07094719
0.03147819
-0.0074369535
-0.021712359
0.0024676844
-0.026619006
0.05308208
0.060651913
0.055694893
0.041587614
0.06895997
-0.021801908
0.06042072
0.027355783
-0.05135174
0.04505918
-0.05956446
-0.054379128
-0.047823764
-0.028814275
0.056521803
-0.067312986
-0.028355245
-0.020493899
-0.02981669
0.02498313
-0.06057124
0.003120251
0.0114188045
0.029039986
0.05901365
0.018039286
0.012233175
0.06452425
0.008501254
0.05447875
-0.03502888
-0.038332194
-0.0041834936
0.036795735
0.03563387
0.0591245
0.0282972
-0.049783126
-0.046570063
0.02304972
-0.059244305
-0.012277089
0.046760283
-0.053357117
0.024423376
-0.046280228
-0.00927341
0.063847885
0.01467891
0.07263689
-0.065853655
0.064749226
0.0639018
0.06326221
-0.02098801
0.007648565
0.018481463
-0.04966853
0.013231665
0.03847812
-0.032336984
0.016084328
-0.0725201
-0.039034326
0.021640375
0.050971746
0.007835157
0.012807891
0.049971357
0.03491365
0.034337014
-0.026127215
-0.009025641
0.00061618537
0.017646462
-0.0640084
-0.04071214
0.06021674
0.026445433
-0.037273277
0.07216194
-0.06376039
0.016733311
-0.046915155
0.023069821
-0.053229194
0.03688156
-0.035409316
-0.031159505
0.013403431
0.06153898
0.07000747
-0.0044242367
0.072568774
0.043016918
-0.049985692
-0.054059826
-0.07393521
-0.06252779
-0.07191734
-0.06935748
-0.014503397
-0.0009926185
0.026408762
-0.026782732
-0.044188164
-0.00985194
0.068935454
0.014243349
-0.030332461
0.05920282
0.011961319
-0.06847865
0.06894618
0.07497637
0.05094999
0.016009971
-0.013768148
-0.012542732
0.022842482
-0.052964095
0.07234204
-0.021976769
-0.053353734
-0.008321047
-0.024793856
0.060198948
0.07431269
0.045807287
0.07203397
0.0072835907
0.0067549273
0.003916964
0.014082283
-0.012114868
-0.050994664
-0.041800577
-0.050893053
-0.06234996
-0.0008048117
-0.008507825
0.024656445
-0.067197286
-0.054994732
-0.06367583
-0.011543848
-0.029195745
-0.022417076
0.021224879
-0.012393951
0.0029454604
0.038781956
0.014984399
-0.058175087
0.059030995
0.072907805
0.06544605
0.050853267
-0.019894052
-0.01953511
-0.053113334
-0.029602062
0.006216906
0.05702284
0.022360906
0.026404373
0.040589236
-0.06323883
-0.062460408
-0.038468685
-0.07316868
0.021072127
-0.03884952
-0.05789119
-0.01937149
0.01566501
0.07109536
0.02570109
0.07088682
-0.04532897
-0.02028117
-0.015347648
-0.045549866
0.008402266
-0.032046493
0.040360965
0.0417218
-0.06551744
0.0013700128
-0.04279754
0.050603107
-0.01677724
0.017261483
0.067965984
0.0074888915
0.040428735
-0.029488228
-0.015087564
0.056781873
-0.008160815
0.042375304
-0.06014988
0.0304114
-0.0625695
0.008659542
-0.042708986
-0.009091251
-0.0396638
-0.06473383
0.05238594
-0.013091639
-0.07532424
-0.009080797
-0.07449487
-0.040849373
-0.0052640364
0.015547082
-0.072588496
-0.062198788
-0.010047756
-0.037324183
0.050533608
-0.02151765
0.011569329
0.052758634
0.028676793
-0.0049212053
0.027472384
0.049925253
0.053928167
-0.067022584
0.07133004
0.03227391
0.046206743
0.05295533
0.01520817
0.010097809
0.010302879
-0.06708017
0.041150004
0.073048875
0.032402053
0.042264894
0.053013444
-0.029156975
-0.048581164
-0.057085693
0.054310754
0.057128027
-0.019950714
-0.029348098
0.024215214
-0.04010655
0.07041922
0.019440725
-0.049136028
-0.026341375
0.018585175
0.030482836
1.6368926e-05
0.07466264
-0.04074863
-0.0019963384
0.05435151
-0.0017827749
-0.040779036
0.026708506
0.061072126
0.04510559
0.048116826
0.050228074
0.011411034
-0.016493779
-0.027186874
0.07540052
-0.0617075
0.012570858
-0.0031418577
0.0056564957
-0.054149993
-0.052216858
-0.059863605
-0.0026090443
-0.056280486
0.045725293
0.06355679
0.055404782
0.020545527
0.04226835
0.0055023506
-0.01312156
0.045900606
-0.06385543
0.052208826
-0.017341688
-0.049733832
-0.058141965
0.06996542
0.0191124
-0.008089088
0.054577038
0.021754302
-0.058267552
0.04541912
0.0038982406
0.05524607
0.060702726
-0.041566912
-0.04549239
-0.013134487
-0.04754173
0.06436482
-0.0695615
0.041540854
0.026428662
-0.045525163
-0.022353023
-0.022649925
-0.06436548
0.025914237
0.0056418628
-0.025218531
-0.04520496
-0.019016046
-0.029475477
-0.05178908
0.043055594
-0.0365517
-0.043526072
0.0059203655
-0.010026157
-0.056515902
0.052653998
-0.07016518
0.0013707057
-0.066919275
-0.039010186
0.033720344
-0.005198948
0.06920013
0.0560385
-0.027094882
0.017219432
-0.075374685
-0.058337435
0.03780225
-0.027559381
-0.030709766
-0.032179344
0.056911677
0.029437356
-0.06693928
-0.06109965
0.054011315
0.012957051
-0.050729673
0.07062577
0.019876465
0.0033923388
0.033000417
0.02608475
-0.04121967
0.060461566
-0.060975946
-0.006644517
0.064751044
0.067273155
0.020806588
0.04352685
0.004558496
-0.06127987
-0.040835463
0.07198137
-0.0259749
-0.0413236
-0.03098115
0.049361646
0.025554478
0.053328916
0.052802503
-0.0102953315
-0.043546572
-0.042399682
0.012255378
-0.034292396
0.013587818
0.023872547
-0.0028145686
0.011585556
0.024527378
-0.068309754
0.015693136
-0.070659705
0.014669225
-0.035123825
0.074731946
0.034288265
0.06402074
0.05690542
-0.028101876
0.024460986
-0.052373484
0.002205968
-0.018087242
0.05434148
-0.02561228
0.06277269
-0.027853563
-0.014391337
-0.052682534
0.011328407
-0.0068795905
0.048955187
-0.011993356
-0.023617662
0.035118178
-0.0043637753
-0.05367711
-0.006019406
-0.034934293
-0.058633342
-0.0509813
0.0074922964
0.031806313
0.019693851
-0.02360015
0.07436566
-0.0613836
0.05607371
0.013748422
0.044945143
0.06178707
0.05437614
0.07210781
0.060903654
0.03549447
-0.009306878
-0.05697452
-0.050494365
-0.006073244
-0.026470803
0.060722053
-0.041478522
-0.069921486
0.06776315
0.044094995
-0.051179126
-0.027434409
0.016225204
0.010900088
0.034855105
0.046231896
-0.036718845
0.029514901
0.028110586
-0.03345177
0.031755716
0.07389964
0.044181317
-0.025640603
0.017466277
-0.029122278
0.044309095
-0.0003246218
-0.006495185
-0.065276735
0.008405529
0.073903546
-0.04470279
0.06571829
-0.05984477
-0.04528951
0.05297762
0.042779125
-0.037613567
0.0062250197
0.03090708
0.008596741
0.0040902346
0.031081058
-0.05183872
0.04423829
0.033382773
0.03255625
-0.041296616
-0.006198287
-0.044372316
0.039365686
-0.07022188
0.046288684
0.0028730258
0.015289098
-0.038127813
-0.05095242
-0.05986172
-0.030368336
0.008751757
-0.040936135
-0.067544706
-0.038102046
-0.027835708
0.049441442
-0.02048193
0.028373443
-0.0042894334
0.0004975647
-0.07291177
0.017979257
-0.0013155043
-0.064366095
-0.057953104
0.07299358
-0.031803433
-0.0033028051
0.019814476
0.067215264
-0.029895939
-0.046180863
0.036554724
0.0031905845
0.05961208
0.026378952
0.056529403
0.0022020414
0.04487043
-0.015551358
-0.057091847
-0.05016175
-0.066178046
-0.03358947
-0.058644876
0.03914106
0.045321964
-0.04810069
0.046271786
-0.06858083
-0.032559402
0.018121175
-0.0019693598
0.045519643
0.04905404
0.031343535
-0.020989947
0.07354012
0.017758198
0.00914333
0.048950717
0.037918307
0.061784357
0.06561057
0.057084367
0.070038006
0.059050635
0.036703378
-0.03258269
-0.060993366
0.05194214
0.019138806
-0.04043844
0.06267676
0.027494662
0.043357603
-0.051086426
0.07562278
-0.0061968938
0.024417289
-0.035150662
0.02336102
0.053692088
0.018753827
-0.06828777
-0.06534341
-0.013780966
-0.025624324
-0.0021315217
-0.042763133
0.030509658
0.010261625
-0.012277976
-0.049308702
0.021769747
0.013562225
-0.029060345
-0.060193665
0.027901225
-0.04316838
0.030092262
0.061818242
0.013655253
-0.025007706
-0.074724734
0.018487982
0.04446429
-0.00658153
0.006934263
0.00656686
-0.041977447
-0.0027053356
-0.058920406
-0.06810589
0.03951183
0.061926007
0.032171972
-0.04460627
0.0493014
-0.040348254
0.054825976
-0.027242687
-0.058196057
-0.01798172
-0.026881482
0.06996095
0.07232055
0.006380774
0.06129363
-0.03958801
0.048044913
0.022501789
0.0163325
0.025671102
0.043306805
-0.014987294
-0.046622835
0.07437706
-0.048007302
-0.052804388
0.028617501
0.026296593
0.067132756
-0.02015267
-0.02040435
0.06423713
0.016147405
0.057198748
-0.031666853
0.0094756335
0.046086296
0.061879843
-0.043064363
-0.017191328
-0.06558901
-0.07323587
0.0061740726
-0.0069484934
0.031952903
-0.068396695
0.01873041
-0.027694784
-0.0753179
-0.065235265
-0.0062863156
-0.03061596
-0.017182235
-0.058440693
0.03336923
-0.07275052
0.04927817
-0.055199437
-0.051942356
-0.0037620217
-0.02658623
-0.059063435
-0.048837427
0.063599244
0.05138001
-0.06486424
-0.06776465
-0.00085703284
-0.038810495
-0.025892358
-0.06538709
-0.046962094
0.044774085
0.0464119
-0.031142917
0.055968076
0.032509655
0.061107278
0.06414734
0.038281836
0.00953646
-0.028696928
0.04921712
0.05435309
-0.035341587
-0.07010323
-0.05750162
-0.0069934055
-0.012529299
0.010540687
0.05184783
0.0030037686
-0.0028203651
0.03718818
0.0034545287
0.05741711
-0.072081044
0.05090785
-0.050954554
0.04057339
0.027326062
0.04033286
0.0377464
-0.019377902
-0.04752806
0.04389251
-0.021297768
-0.06955523
0.03160324
-0.020017698
0.0346613
0.033272162
-0.014382463
0.034812585
-0.07085054
0.0055188835
0.012639783
-0.06881
-0.010948904
0.046556123
-0.0036880076
-0.028017744
0.02346076
-0.056374416
0.02448035
0.06452739
-0.007869296
-0.046326444
-0.05477849
0.06020388
-0.04355121
-0.028700206
-0.054510076
-0.0653529
0.0552848
0.06332442
-0.010824844
0.029127926
0.0002958104
-0.039278727
-0.014914639
-0.06266153
-0.03995648
-0.022491667
-0.011399768
0.017813794
0.03249426
-0.035683308
-0.05386269
-0.0035007447
-0.07039645
-0.029801697
-0.07347056
-0.057925
-0.039255746
0.033263795
-0.006027624
0.059920266
-0.016042534
0.06334621
0.0043413714
0.07330792
0.07531817
0.031571418
0.054716647
-0.004401423
-0.034621984
-0.009718172
-0.014659572
-0.05363334
-0.012964264
-0.008470789
-0.07380913
-0.04586815
-0.06916047
0.026539706
0.011555888
-0.05927388
-0.025544897
0.020299137
-0.022829875
-0.06049205
-0.02224524
0.010718048
-0.061278515
-0.03408251
0.0024651662
0.055792153
-0.07368898
0.058702737
-0.004047312
-0.06250519
0.073917866
-0.01973563
0.07252613
-0.023295082
0.06415765
-0.064574026
0.040711544
-0.057483044
-0.04905834
0.023538128
-0.036206122
0.053899348
0.01536496
0.06349228
0.03269779
-0.055981483
-0.03404066
0.040460512
0.06547421
-0.030310005
0.014766395
0.03793019
0.026353873
-0.027895577
0.055712745
-0.06326359
0.055891067
0.018059574
-0.059447747
-0.023694646
0.021231815
0.038659826
-0.016037446
0.069644764
0.048746444
-0.012346342
-0.0018815994
-0.029094733
0.0019592121
0.053487778
-0.00670819
-0.0031205565
-0.059524365
-0.035930917
0.0001994893
0.009400137
0.07336439
0.05411595
0.043977626
-0.024301175
-0.037312828
0.059321225
-0.015804198
-0.026499577
-0.05398491
-0.013231389
0.01742468
-0.004501745
-0.019127019
0.051350534
-0.044071577
0.062306106
-0.01390304
0.072426364
0.0073198453
0.036281332
0.022209167
0.06421782
-0.061780535
0.057087272
0.068391204
-0.004977055
-0.052958556
-0.048267424
-0.030825049
-0.041892678
0.023286752
-0.044605274
0.07016434
0.019799717
0.0015681088
-0.033107676
-0.05216146
0.058847442
0.034222476
-0.0350714
-0.041605286
0.0227473
-0.059494305
0.010444999
-0.0026067123
0.003161952
-0.050577052
-0.03434555
-0.048103515
0.062353462
0.031243026
-0.035522554
-0.06264768
0.05555679
-0.034205418
0.024133414
-0.03831785
-0.0633177
-0.068248756
-0.0028134584
0.0004266873
-0.014711618
-0.0008349046
-0.012821883
0.02227284
0.042042784
-0.035511144
0.009033717
-0.016432136
-0.01761499
-0.07372114
0.005082108
0.05519986
0.023088515
0.026816666
-0.0024376586
-0.043365154
0.04157827
0.03138736
-0.07192804
0.006693594
0.030246384
-0.05881668
0.0076410472
0.059645593
0.027721569
0.048484698
0.031592622
0.010329574
0.043240458
0.07093687
-0.035669092
0.05787857
0.06750038
-0.06905772
-0.0201989
-0.058283255
0.0631758
-0.018922366
-0.01205755
-0.042886928
0.03526584
-0.064121455
-0.0462232
-0.06297364
0.061859652
-0.05603447
-0.045305464
-0.006036043
-0.0026779175
0.029229306
0.054350093
-0.057004564
-0.00305973
-0.07260282
0.030223913
0.010845304
-0.027417913
0.07225029
-0.056450948
-0.04739476
0.02148261
0.059811458
-0.04573351
-0.033612162
0.049325272
-0.0052896366
0.049296096
0.02397018
-0.07448332
0.0027392358
0.054611683
0.016689792
0.012899682
-0.075899675
-0.04359822
0.041968793
-0.004531823
0.038405716
0.015133202
0.06813918
0.07439838
0.054762885
0.030024856
0.028959565
-0.06513707
-0.037448503
0.048122294
0.048002392
0.06118387
0.06297718
-0.053182565
-0.056889825
0.0026796013
-0.06993494
0.04959409
-0.002909258
0.07563473
0.009272158
0.0064099804
-0.0001353696
-0.011497378
-0.07439828
0.070889935
0.05344172
-0.022583645
-0.030974448
0.022799782
-0.025473602
0.075281024
-0.0066918507
0.030604258
-0.042319022
0.053163275
0.00074405223
-0.06659747
-0.040423643
0.075413436
0.027694441
0.06434177
0.049129456
0.048477598
-0.022231024
-0.027897406
-0.06550035
-0.010148644
0.0338443
-0.054062888
-0.030569471
-0.026317779
0.075951174
-0.0021622404
0.02820646
-0.065575466
-0.052442312
-0.07046277
-0.071299925
-0.005905658
-0.0165811
0.03705115
0.039958306
0.016970396
-0.05308577
-0.03582273
0.019850932
-0.072770245
-0.06589677
-0.009745896
0.02266869
0.017345957
-0.0051122084
0.057494164
0.07498266
0.039357737
0.026835881
0.05999127
0.03447269
-0.023029257
0.019867629
0.06695339
-0.0705192
-0.062763974
-0.0743262
0.049866498
-0.0643245
-0.047024027
-0.02366462
0.03881678
-0.0073108226
0.0023650452
0.015341565
0.0074590147
0.06664084
-0.011717789
0.0006444156
-0.021640047
0.05527939
-0.0221508
-0.020762928
-0.00087592006
0.008119799
-0.00042310357
0.01399976
0.028940625
0.018185012
-0.06873381
-0.022695307
0.031744853
-0.07418131
0.0074809417
-0.049488164
0.046272546
0.06544906
-0.046853237
-0.019981012
-0.023092117
-0.065671474
0.06936984
0.07134862
-0.029658128
0.04164406
-0.04492365
-0.072609395
-0.05936589
-0.052807108
-0.03073106
0.06474087
0.037851416
0.004769452
-0.014053836
-0.052052822
0.0625584
0.044904925
-0.001070559
0.016076505
-0.051015943
-0.0061886385
0.016798444
-0.02555167
0.03774097
-0.06438125
-0.061011057
-0.028095268
-0.047411166
-0.070615396
0.05699545
-0.004114412
-0.060258966
-0.034206722
0.052758798
-0.024185512
0.04432646
0.03241898
-0.063037336
0.047352783
0.062106833
-0.051133726
0.024921559
0.004206948
-0.02987533
0.052808344
0.07253678
0.027803548
-0.037770826
-0.03491414
-0.049953025
0.01879526
-0.06789572
-0.07399385
0.054835886
0.010647789
-0.022558745
0.020426132
0.037996955
0.011537001
0.035340756
0.043732576
-0.017811857
-0.024248186
0.026286706
-0.0045567974
0.033746295
-0.0024723038
-0.05714009
-0.01286196
0.041335188
-0.035723493
0.016511649
0.025474086
0.049005628
-0.04433519
0.009192839
0.023298979
0.057490304
0.01871451
-0.05590432
-0.018825464
0.05399114
-0.0069895685
0.018012851
0.0710312
-0.06854928
0.075088575
-0.029905263
-0.07025611
-0.041664757
0.039191857
0.05460243
0.014270984
0.005709246
0.024862744
-0.05337981
0.0072973
0.06878245
0.030847229
0.034215055
0.043473415
0.01374238
-0.030794334
0.065077245
0.05037704
0.012805223
0.07575868
-0.04928804
-0.019533768
-0.0704688
-0.01599659
0.0068190545
-0.022170104
0.025065422
0.05317965
0.05143021
0.024751008
-0.06375545
0.049903587
0.0262959
-0.011264645
0.03177958
0.055086583
-0.063394025
0.0072405636
-0.06048457
-0.06717711
-0.05940917
0.034097955
0.04181879
-0.07393912
0.031069271
-0.033657797
-0.0139626935
0.050984308
-0.0639236
0.06782073
-0.018898536
0.049889907
-0.02329157
-0.074862815
0.06358984
0.05758737
0.06040755
-0.01877771
-0.0665248
0.051593915
-0.03789694
0.042076327
0.07375421
0.075694025
0.03999701
-0.035757102
0.0117190555
0.024176836
-0.0665405
0.017255165
0.066127464
0.009680018
-0.036314
-0.035667572
-0.025712334
0.011657596
0.031513683
0.035810456
-0.02581983
0.06518839
-0.00523144
0.05613403
-0.06139695
-0.019496825
0.029903233
0.074230805
-0.0001495257
0.052675888
0.049528405
0.013691127
-0.016465943
-0.02650528
0.04701318
0.03578139
-0.05507791
0.013734683
-0.045384802
0.02148541
0.014295809
0.020662352
0.0040950105
-0.07593588
0.022455327
0.020075016
0.040862806
0.03179264
0.041557245
-0.04146137
-0.023704205
-0.047562648
0.07041654
-0.01973882
-0.04983124
-0.046618816
0.006688282
0.067166135
-0.03645177
0.071449414
0.025623724
0.03911069
0.029108241
0.017420627
-0.07567815
0.027718902
0.045097373
-0.028173864
0.0033152476
-0.025382727
0.01571168
-0.04545818
-0.07358506
-0.075900674
0.051862985
0.028605275
-0.06605329
-0.06151645
0.048364267
0.006547451
-0.017360322
-0.04961183
0.053189486
-0.04939731
-0.04165561
0.03131412
0.025089689
-0.043671817
-0.060701773
-0.07028204
-0.070464596
0.0011945516
0.045261823
-0.052326325
-0.064780906
-0.03796994
-0.06345862
0.046455815
-0.04117914
0.052883312
0.033640668
0.071413845
0.017744891
-0.018719632
0.06375165
-0.03402574
-0.057109017
0.04894335
-0.02756074
0.07152721
-0.01614121
0.068168715
-0.07415494
0.009345628
-0.012589619
-0.047069427
0.012870729
-0.016298708
-0.04733976
0.03806036
-0.052424565
-0.018181302
-0.04401207
0.05703166
0.034547806
-0.056433
0.06910768
0.008662619
-0.057783768
-0.06257283
0.04731209
0.0075567663
-0.0021119118
0.030199446
-0.0043512583
-0.026718244
-0.027431622
-0.06461671
0.054509044
-0.038542133
0.0027666166
-0.026281215
-0.047734722
0.06208165
0.064766735
0.016625851
-0.0557331
-0.07195419
0.016865708
0.06192358
0.07227008
-0.03811539
0.03205678
0.023326576
-0.02229866
-0.01407785
-0.07497938
-0.04988363
-0.009183571
0.024141528
0.05724311
0.00874158
0.021774925
-0.05317387
-0.013054118
-0.012953542
-0.075131625
-0.067432284
0.027019963
-0.0711709
0.06494276
-0.0024048612
-0.0743272
-0.074050635
0.016030744
0.033568338
0.0008815229
-0.0141754225
0.042891905
-0.048543386
-0.07564464
-0.035590064
0.040360697
-0.058154806
-0.011541769
0.075388655
-0.015329521
0.0012279451
-0.0050906017
0.013086133
0.007765241
-0.015093159
0.07303189
0.02266182
-0.014601458
-0.051954072
-0.068393305
-0.0021887124
-0.065497845
0.037431896
0.04680427
-0.044388577
-0.06281622
0.0037976056
0.06295845
0.036330625
-0.06902166
-0.01228261
0.056268677
-0.0551297
-0.03445194
-0.042900745
0.069331855
0.0030473992
-0.0021271035
-0.07362065
0.050825506
0.064356014
0.050418213
-0.030366287
-0.057012204
0.04717178
0.06728262
-0.06888173
0.015492342
0.06361471
-0.028910235
0.07112341
-0.014076926
-0.06516235
-0.04754226
-0.0020170584
0.03379555
0.009155534
-0.01656951
-0.002373211
-0.021091845
0.07244015
0.06586002
0.039325304
-0.010062553
0.042782456
0.035639778
0.07378253
0.023404755
0.06714693
0.02889935
0.004988469
-0.010304041
-0.026977785
0.06112872
0.051824078
-0.07280932
-0.05033176
0.05275555
0.044191986
-0.06753797
0.017988257
-0.048179865
0.068003535
-0.05813005
0.042799152
0.06714922
-0.01936758
0.02291584
-0.041577417
0.012673333
0.036016576
0.025611125
-0.07410156
0.04283195
-0.013059497
0.0027894676
0.048680894
-0.007978566
-0.051546816
0.010065615
0.037685573
0.07439977
-0.0679869
-0.024685979
-0.038883384
0.07447228
-0.043633062
0.037901558
-0.001289539
-0.058285117
-0.009439811
0.028417066
-0.033470005
-0.00985866
0.07493122
-0.05794765
0.040761776
-0.0020959973
0.004388742
-0.006444283
-0.07346413
0.02048064
-0.048011467
-0.03112939
-0.061384704
0.038137376
-0.035782456
-0.06210552
-0.029111665
0.025751159
-0.04152084
0.00637161
0.06429243
-0.04202868
-0.05397138
-0.058457553
0.061744854
0.024903707
0.036888838
-0.06103895
-0.07209406
0.07325052
-0.025277462
0.036909625
-0.00034870952
-0.03759901
-0.028191302
-0.06318628
0.046729445
-0.07311756
0.025629826
0.01619561
-0.060757585
-0.028749138
-0.019378409
0.011243872
-0.043411933
-0.007926919
-0.02117553
-0.041978534
-0.035850964
0.06991604
0.07103428
-0.0031978637
0.039001852
-0.025978122
-0.0330607
0.070370615
0.06769708
0.05705799
-0.035198472
0.009787075
0.072652936
0.023635648
0.021581285
0.0758076
-0.034607567
-0.056982957
-0.045904823
-0.06691507
0.02819451
-0.008071013
0.06284566
0.05496876
0.0038935095
-0.011081211
-0.040561743
0.037256524
-0.074940264
-0.04759863
-0.06494575
0.032571137
0.048470356
0.074941084
-0.011613004
-0.04005876
0.06710169
-0.022324357
0.05597031
0.006221503
0.00319504
0.038782477
-0.055706933
-0.068527296
0.05286981
0.0017912164
-0.020674918
-0.009695083
-0.065511644
-0.07097188
0.0128695145
-0.045768373
-0.03880492
-0.054013796
-0.073825374
0.015043773
-0.053937845
-0.028855965
-0.056290045
-0.053555433
-0.012838908
-0.074450195
-0.03483388
3.963709e-06
-0.071075805
0.056000084
-0.06441744
0.064554036
0.029871434
0.04207395
0.027822256
-0.073100865
0.0064816773
-0.007673353
-0.06553262
-0.059016116
0.031549163
-0.008920282
-0.026851147
-0.023605566
0.02307029
-0.0081769675
-0.015171718
-0.022434406
-0.054960236
0.06419006
-0.026668716
0.044381313
-0.013141893
0.04268548
-0.00884717
-0.016188458
-0.05944664
0.0016625151
-0.0035640523
0.030398682
0.06911251
-0.06842752
-0.0002406165
-0.018568981
0.0012584403
0.023803659
-0.064469084
-0.0223504
0.03956449
-0.029716674
-0.04850226
-0.008714594
-0.06567729
-0.04782188
-0.042175036
-0.030458499
-0.028312668
-0.0013533905
-0.051481366
0.049374044
0.0015940592
-0.022457715
-0.05835989
0.0030858964
-0.012878187
0.058785915
0.041290186
-0.033026204
-0.0064408407
-0.04522468
0.05456929
0.018693589
0.017632216
0.0744776
-0.013128713
-0.015630677
-0.015241727
-0.013942629
0.02019374
-0.014744487
-0.04631007
-0.04594262
0.00756488
-0.04678053
0.037075453
0.022777759
-0.013593972
0.05060613
-0.055061214
0.011770971
0.036069997
0.026201084
0.0073693916
0.023856416
0.062560186
-0.0001457259
0.027291909
-0.01987109
-0.0009220317
0.049549624
-0.006837994
0.055437207
-0.046904434
0.016522318
-0.050441593
-0.058539372
-0.03698815
-0.018315073
0.034365922
0.013587214
-0.0077278093
0.058751777
0.06546347
-0.05907493
-0.06829309
-0.020475753
-0.0640097
-0.03410442
-0.046573814
-0.012361914
0.020738207
0.016484328
0.02584944
-0.022818394
0.03602367
0.051673546
-0.031224482
0.020492412
0.049649134
-0.017114542
0.05898656
-0.012721524
0.07332784
0.0729727
0.030118138
-0.02131144
0.024360806
-0.07470646
0.026833765
0.044257015
0.0012159199
-0.074110724
-0.031768464
0.044148885
-6.7055225e-05
0.0738772
-0.0005547926
0.007386431
0.0056014806
-0.035515293
-0.03886991
0.013607681
0.073541865
-0.016962644
0.064792976
0.0676506
-0.03246288
-0.0545654
0.02962897
0.03056509
0.056607917
0.009619713
-0.065596
0.035196006
-0.008187473
-0.05009435
-0.038824946
0.018426321
0.04525032
-0.059782334
0.006074585
-0.027410649
0.0106930435
0.06524508
0.03554269
-0.0695095
-0.006294921
0.023376323
0.009310916
0.034042634
0.0051790625
-0.004574783
-0.004687257
-0.0115356445
0.06675781
0.07118498
0.03860291
-0.01581769
0.0392987
-0.01801151
-0.011107326
-0.0071181282
-0.056295715
0.03266532
0.026630796
-0.055145055
-0.07487214
-0.044425502
-0.036361083
-0.024747457
-0.07543447
-0.005526617
-0.00818488
0.05614984
-0.050907925
-0.02085822
0.017111354
0.053323567
-0.061807718
-0.00038225204
0.07410735
-0.060547844
-0.05176612
-0.027608946
0.05113104
-0.058458116
0.07290681
-0.026400521
0.07156631
0.00778275
0.0065133125
-0.04358484
0.06847784
-0.075521626
-0.023999315
-0.045498237
0.07323691
0.032781802
-0.018754438
-0.02129713
-0.05766345
-0.0023903027
-0.008551285
-0.038996205
-0.013369545
-0.07273792
0.04794568
-0.0031978488
-0.018605128
0.038197115
0.059520945
-0.04239472
0.0044431463
-0.03729615
0.041793734
0.074864045
0.06586923
-0.05826364
-0.061841547
0.062055096
-0.06601153
-0.046256848
0.02929654
0.032576352
0.048319593
-0.07577034
0.0019307807
0.06374018
-0.057991948
-0.042951
0.039531767
-0.05052305
-0.02030098
-0.06065304
-0.06364707
0.0024699122
-0.054941926
-0.0059996843
0.06592092
0.004397832
0.019475237
-0.07021728
0.07382712
0.012332521
0.007020645
-0.06529203
0.056530192
-0.032937195
0.046983592
-0.012404412
0.060805157
0.038987674
0.004523441
0.026319608
0.04709909
0.06719828
-0.0018016323
0.014648505
-0.030037932
0.04047694
0.053636312
0.020754308
-0.0062225536
0.05119075
0.056933016
0.03456139
-0.032699656
0.027920805
-0.06716889
-0.057832297
0.01970008
0.034806862
0.051446423
0.01750058
-0.0028445944
0.05467756
0.023860581
-0.031762272
-0.07574328
-0.06804936
0.068834156
0.02589687
-0.014421832
-0.07333534
0.026006028
-0.0061732456
0.04851465
-0.02223615
0.058263496
0.052011237
0.07302472
0.06454423
0.025218189
0.00433103
0.054204807
-0.023338165
0.024312459
-0.03132001
-0.05509732
0.003765516
-0.023125816
0.06765626
0.06273925
-0.07193375
0.06486675
-0.0029428005
-0.060425606
-0.02173429
0.06519461
-0.06153427
-0.028666597
0.060810775
0.050558254
0.021080434
-0.008417167
-0.055091508
-0.05023276
0.0496777
-0.031174935
-0.049551345
0.07486346
-0.023798682
-0.020499349
0.011253446
-0.063384995
-0.054592855
0.043220483
0.022938259
0.028743722
-0.045905583
-0.0074833706
-0.019859642
-0.015204042
0.06529021
-0.06762142
0.072289035
0.055606037
0.04153046
0.01212126
0.06826395
0.034390092
-0.0545026
-0.050548583
0.018712044
-0.073692165
0.049238548
-0.0013364926
-0.05484153
-0.07202146
0.0075699687
0.059275478
-0.038251698
-0.053728536
-0.017166283
-0.027728323
-0.006837435
-0.03452508
-0.022812635
0.04117997
0.034700163
0.025080904
-0.06447703
-0.05897897
0.052068666
0.064418554
-0.035528604
-0.07430976
-0.025116507
0.017536685
-0.013290659
-0.0025732815
-0.029385004
0.06725076
-0.01761454
0.029089443
0.07242331
0.055949792
-0.03958765
-0.057630993
-0.022748675
0.06907423
-0.05620294
-0.027438574
0.065680444
0.016676918
0.015087545
-0.008863725
0.063934386
-0.0509405
-0.035437603
-0.0026892498
-0.044523526
-0.00031396002
-0.008296981
-0.007671848
-0.0028869882
0.05239661
0.06739938
-0.036364034
0.010163911
-0.041968863
-0.044867277
-0.05363839
0.015629552
0.04054402
-0.072557606
0.012416057
0.018978216
0.06167823
0.011989623
-0.0084138885
0.07505332
0.058774665
0.021871462
-0.06669608
0.00937178
-0.027345184
-0.05177095
-0.04871586
0.07550323
-0.066097625
-0.016185977
0.060353532
-0.06328184
-0.06654905
0.023655891
-0.027644351
0.013172045
-0.052036144
0.021913804
0.07024746
-0.06643845
-0.060645886
0.05352135
0.0038471892
0.057041362
0.06234826
0.0353423
0.024276786
0.026305266
-0.07252158
-0.02738557
0.030763187
-0.041448534
-0.005384095
0.05009781
-0.03851046
-0.072208695
-0.021641407
0.05295299
0.014410481
0.003726475
0.03293872
0.056505814
0.023375109
0.06505118
-0.056571357
-0.064403474
-0.010141417
-0.04796101
-0.04173714
-0.032713726
-0.06869414
-0.071723565
-0.012648582
0.02853766
-0.01571041
0.04479783
-0.006242238
-0.0027697831
0.022796124
-0.031321023
-0.023831278
-0.048916437
-0.040810347
0.042186394
0.040146083
-0.022370826
-0.045493275
-0.069766454
-0.067750394
0.05644743
-0.0009025261
-0.056042515
-0.0062470734
-0.06650564
-0.026875742
0.049088
0.056398228
-0.010366604
0.061451614
-0.017567635
-0.01777006
0.050181642
-0.012686975
0.006780423
-0.05339828
-0.030937344
-0.061938558
0.05204712
-0.03904137
0.042510927
-0.057891205
0.03357801
-0.0366398
-0.01933761
0.036042362
-0.073313884
0.0064908788
0.07067737
-0.014959116
0.051499665
-0.027011234
-0.02179508
0.05292809
-0.028495226
0.023552798
-0.0314103
0.057635576
0.067736
0.07112846
0.05623004
-0.03695039
0.07500686
0.0652826
-0.063317895
-0.03616954
0.007824652
-0.027049154
0.06752376
-0.051099844
-0.043673825
0.043105237
0.07463527
0.043631054
0.03261777
-0.06659249
-0.044076104
0.027233668
-0.067221604
0.06369203
0.02763386
-0.025926348
-0.00028637797
0.01883658
0.064659685
-0.001512371
-0.028815996
0.0029408932
0.057467356
0.05580385
-0.054928035
0.068047866
-0.057219155
0.00890784
0.06559797
-0.038403075
0.016352259
0.030806974
-0.0720816
-0.065043464
-0.03478721
0.050894722
-0.01729272
0.06895201
0.026632518
-0.07078993
0.013664
0.00043373555
-0.019143045
0.0345544
0.05015245
-0.034387525
-0.06927931
0.06925395
-0.058850177
0.022745527
-0.038371183
0.004207976
0.035494596
-0.05343598
-0.03231473
-0.0721952
0.011555187
-0.039116576
-0.016421739
-0.04821574
-0.006643519
0.026292078
-0.03971521
-0.035634793
0.0027018562
0.040908538
0.00060251355
-0.004444897
-0.057137176
0.0706602
-0.017697241
0.03986349
-0.06212615
0.0066889375
0.032278255
-0.012897037
-0.050985284
0.03464578
0.06424636
0.04155507
0.04042071
-0.02964143
-0.06464266
-0.05450696
0.039572947
-0.045653414
0.010199927
-0.028115533
-0.04104821
-0.04609964
0.017552875
-0.037663747
0.024060488
-0.00035201013
0.039015926
0.06854159
-0.025164548
-0.045088716
0.058864817
0.056187168
-0.06276847
0.041340783
0.0073469356
0.009399012
-0.07026341
0.06820211
0.057905436
-0.05652427
-0.0092684105
-0.057154525
-0.011469476
0.052154794
-0.029239297
-0.033484202
-0.043282162
0.071934685
0.07303786
-0.026044149
0.073531315
0.017748162
-0.01770581
0.0154455975
0.0035985485
-0.045239963
0.009241827
-0.013718944
0.0100393
-0.014624674
0.00721997
0.033772282
0.07118611
-0.07460311
0.052755058
-0.034472313
0.03242568
-0.074217476
-0.007456638
0.04228677
0.017319612
0.07474555
-0.024205778
-0.045919128
0.03745667
0.05903846
-0.02879519
0.071374
-0.01134184
-0.019811273
0.0112456605
-0.069400884
0.0439884
0.03351298
-0.06049964
0.029741846
-0.0433448
0.07329656
0.006033562
-0.030929808
-0.037264116
0.056278378
0.053033814
0.056813776
-0.017195202
-0.05325929
0.0010780916
0.062488556
-0.009562306
0.022356756
0.030503646
-0.034577925
-0.0607055
-0.022500161
0.060699522
0.048690923
-0.06862
-0.02750576
0.07556698
0.059663028
-0.056944728
0.025072806
-0.007232651
-0.0003651157
0.01350683
-0.045146264
0.016525835
0.059553146
-0.010503635
-0.011705093
0.03918291
-0.06603946
-0.055457547
0.053712428
0.06002301
-0.047936365
-0.010689929
-0.07077588
0.04237581
-0.033803448
0.07239263
0.017551951
0.014205843
-0.04448481
-0.0045102388
0.06695373
0.06894353
-0.013106324
-0.07066003
0.008633159
-0.026504993
-0.01924469
-0.03704101
-0.06166987
-0.008025557
-0.05509685
0.009434633
-0.013202108
0.07013513
-0.07166174
0.060362846
-0.056868307
-0.015902005
0.026934542
0.06794144
-0.025339358
0.019547492
0.027045354
-0.0021295846
0.03763599
0.044583194
-0.025011726
-0.025595676
-0.066493526
0.027437001
-0.010399021
0.016125672
-0.0085719675
-0.005777903
-0.07379779
0.022617586
0.0005229935
-0.002275236
0.0011973605
0.05908647
0.016359009
-0.05235711
-0.03212114
-0.06068629
-0.026417997
-0.025838193
0.04654421
0.06633663
-0.0646218
0.070256144
0.0024672672
0.07173358
0.047598176
-0.06216606
-0.06391217
0.036919698
0.027188957
-0.01225429
-0.06694935
-0.028427463
-0.045929417
-0.02653949
0.04685487
-0.059229784
-0.069732845
-0.04481601
-0.048321567
-0.064495936
0.057577938
-0.05760173
-0.033242807
-0.022758871
-0.0073435307
-0.033373553
0.049098477
-0.028109666
0.043446884
-0.046572544
-0.006634213
0.0735317
-0.05971136
0.05910659
0.037443668
-0.018266413
0.07199791
-0.04158053
-0.053305943
0.030549228
-0.07464342
0.052246675
-0.064695776
-0.05759918
0.039888732
-0.04066886
0.015284702
-0.014190815
-0.05485348
-0.0077665225
0.0033561736
-0.0152163915
-0.017127365
-0.060745668
0.03422559
0.007863067
0.041971706
-0.04742013
-0.007886261
0.030683905
-0.037649658
-0.008866675
0.056707352
-0.0036392584
-0.04499746
0.064143434
-0.054602433
0.024774969
-0.044452067
-0.022306737
0.02871281
-0.023672406
0.032428727
0.015051201
-0.025551978
0.03117343
0.05583848
-0.0014555976
-0.041555267
0.0348664
0.023417227
-0.04370961
0.021570057
-0.03799462
-0.018096134
0.0125591755
0.06592733
-0.07038244
-0.060863033
0.007316783
-0.056241605
0.024401337
-0.07568847
0.044808425
0.05719009
0.021224983
-0.07358045
-0.056817006
0.030344464
0.074791566
-0.029945195
-0.009447187
0.024106517
-0.0017045438
0.064822376
0.07513644
0.013573222
-0.06525361
-0.016440593
-0.03178114
0.07589942
0.0019729584
-0.026252586
-0.074824385
0.047842868
-0.018743537
0.03852629
-0.07586675
0.012163274
0.04539121
-0.024367638
0.017677069
0.004610762
0.0226048
-0.013780985
0.053221196
-0.06324575
0.06463587
-0.045967482
-0.014918514
0.0009666309
-0.075287096
-0.04798224
0.0633865
-0.03475992
-0.06677088
0.06344874
0.014321886
0.007119715
0.02452571
0.033738114
0.06524064
-0.05318117
-0.02369861
0.056255654
-0.052329857
-0.012027204
0.0008884743
-0.07538952
0.059648216
-0.0050745383
0.070040405
0.04668229
0.074003726
0.044887163
0.0021360368
-0.04355563
-0.06387452
-0.020068262
0.06518626
-0.0070106685
-0.014480017
0.042885862
0.04723134
-0.021906778
0.06345637
-0.046051472
0.010514289
-0.050454997
-0.053612188
-0.02305537
-0.00046113133
0.057219163
-0.019918371
-0.01549178
-0.008665971
0.05961381
-0.063437544
-0.02050855
-0.011672117
-0.035536498
-0.07242711
-0.043626726
0.02100157
0.030222952
-0.048037272
-0.0029897168
-0.018074658
-0.07182007
0.048451915
-0.059372846
-0.026639596
-0.070029125
0.0011220649
-0.025338378
0.016618572
0.054016724
-0.0014779642
0.01638969
0.06893788
-0.043212097
-0.026157875
-0.0076311007
-0.0016934052
0.041720115
-0.020052887
0.028760545
-0.010767616
-0.006439775
-0.026023325
-0.015510377
0.038409464
-0.012025498
0.005782485
0.027077511
-0.06096863
-0.05938487
-0.06173133
0.007671401
-0.0073037967
-0.07012905
-0.019637298
0.07407193
-0.057753652
-0.06038363
-0.015668526
-0.045267906
0.034355327
0.048975058
0.060974717
-0.06408653
0.018219315
0.05029407
0.02777519
-0.017248299
-0.0068809837
0.03262543
0.06201239
-0.059084766
0.040981427
0.066767156
0.06872046
-0.000601314
0.042306677
-0.045963265
-0.028764348
-0.05644336
-0.040188476
0.014051788
0.053428054
0.069723025
-0.04158848
0.04439392
0.072083846
0.06709233
-0.06682174
-0.05337275
-0.03674985
-0.036951784
-0.068677366
-0.021346334
0.036355704
-0.016531464
0.035798103
0.07363555
0.02118098
-0.034554906
-0.002087608
0.00020088255
-0.04399934
0.0072446913
-0.0005970076
-0.016327862
-0.045345068
-0.046637394
0.030736588
0.0032766238
-0.019497171
-0.020220362
-0.0066080242
0.025479361
0.034206524
0.042212635
0.057108417
0.042126574
-0.05002673
0.008578308
-0.0036266
0.06053959
-0.030178532
0.055685848
0.021387734
-0.0598355
0.046658635
-0.059205987
-0.07322042
0.045774072
0.06892724
-0.021777987
-0.042772748
-0.008200549
-0.037741546
0.0041322634
-0.051569812
0.05489725
-0.052744776
-0.062491465
-0.0012964904
-0.04582525
0.019617505
0.0008068383
0.06416391
-0.07028459
-0.024707891
-0.044654783
0.049038276
-0.055931993
-0.054947704
0.04187964
-0.0100639835
0.0075934157
0.03657122
-0.04001318
0.030528076
-0.05425164
-0.06820512
0.048846334
0.0023401603
0.03165023
0.024785466
0.015745126
0.029801153
0.0035279244
0.064067796
0.03712134
0.03682585
-0.02509519
0.012681648
0.004164681
0.00083295256
0.024486743
0.051760256
-0.075051606
-0.050282143
-0.02378472
0.028229475
0.041927956
-0.04342535
-0.013613984
0.023684703
0.033254392
0.058560476
-0.030156784
0.0181152
0.047686353
0.039526656
-0.071388386
-0.0735945
0.009229548
-0.009138443
0.056060582
0.009529129
0.03038682
-0.03578378
-0.038180586
0.051386416
-0.057699014
0.037615523
-0.047811575
0.034605034
0.071345225
-0.035703517
-0.02244562
0.016320474
-0.009424038
0.047284655
0.047720052
-0.046017647
0.075551376
-0.049293615
-0.0463941
0.02168329
0.013915196
-0.012635998
0.054505274
-0.029812708
-0.06643179
0.04564389
0.015909776
0.014102317
-0.042437095
0.00028259307
0.017755732
0.021164425
-0.023532912
-0.036272492
0.013389029
-0.01769105
0.007969327
0.041844234
0.012580581
-0.0061890706
-0.042637076
0.053276435
-0.006153539
0.041887447
0.07215363
-0.05291667
-0.012052789
-0.052384745
-0.0460776
0.02668485
0.01818505
0.06627856
-0.009004146
-0.031932298
-0.007858612
0.041655324
-0.06668338
0.018943593
-0.03972691
0.04798186
0.04808723
-0.02389459
0.049988553
-0.065585114
0.023845382
-0.0641771
0.0489934
0.07327649
-0.04438523
0.06165445
0.04746473
-0.051978305
-0.052632228
0.02686815
-0.013541799
-0.03921449
0.06558357
0.069511786
-0.027727816
0.05577886
0.07105981
-0.0155834295
0.026466615
-0.014586013
0.009806037
0.04452134
-0.018197238
-0.020608421
0.0060273036
-0.011989623
-0.019543149
-0.05399688
-0.05872727
-0.01624434
0.024700157
-0.013610814
-0.0398749
-0.0146497935
0.021310858
-0.068459764
0.00821989
-0.053651102
-0.0638954
-0.04555575
-0.025441531
0.0039778277
-0.042742036
0.05265124
-0.019856095
0.009181142
-0.03072809
0.03344184
0.014983922
-0.0010282397
-0.016321361
0.031176887
0.03722065
0.00681483
-0.023476265
0.045133606
0.05681558
-0.048888803
-0.010373741
0.011405259
0.049442828
-0.045481957
-0.05000011
0.026545972
-0.06777971
0.0067688897
-0.052678153
0.048314415
0.053498566
0.0037831515
0.033270694
-0.0013652891
-0.029184535
-0.05495192
-0.032627255
0.07118346
0.008282132
-0.00033815205
0.022144206
-0.06459523
0.058257595
-0.048786484
-0.04180092
-0.052687876
-0.07410132
0.071402624
0.06660384
0.0077015683
-0.05246763
-0.024276093
-0.036612637
-0.018437944
0.049789995
0.041431278
-0.071377516
0.045573913
-0.0048507676
0.020125486
-0.010310471
0.043208852
-0.026072238
-0.02084862
0.005235605
-0.015310742
-0.02171129
-0.046295602
-0.06927578
0.0113298
0.007698655
0.060369194
0.043872662
-0.01139579
-0.037617967
-0.06155459
-0.033008818
-0.00058706105
0.07469024
0.052945584
0.02700486
0.043014564
-0.035466343
-0.055775546
0.030445695
0.036108837
0.06544031
0.046657532
0.0036137104
0.0058859065
0.026262835
-0.033655588
0.019963734
0.050413817
0.045882367
-0.05075662
-0.0747076
-0.057605207
0.029500991
0.015974082
-0.07463324
-0.01748379
-0.044873036
0.00020803511
-0.051387057
0.0398644
0.023951054
0.005617924
0.055657595
-0.057177633
0.057785362
0.016968295
-0.03982566
0.020378366
-0.07395048
-0.046312533
-0.04846061
-0.008106142
-0.043073345
-0.043203223
-0.020199988
-0.008041151
-0.037744045
-0.028734341
0.033455297
-0.04252925
-0.052715674
0.014971212
-0.02874874
-0.033509426
0.030727327
0.060989007
-0.06697525
0.031575657
0.018544443
0.05346097
-0.015972886
-0.062375695
-0.04266804
-0.024092015
0.014214106
0.06982429
0.0022783875
-0.0023908988
-0.07057112
0.06391546
-0.022593189
-0.043306753
0.039055564
0.037910253
-0.018784609
-0.037651088
-0.00440187
-0.055337377
-0.041670315
-0.010763779
-0.0031800643
0.038663685
0.054467082
0.05154325
0.037406854
-0.04063282
-0.03921634
0.054362178
0.070954695
-0.05179958
0.032989368
-0.009557448
-0.058723614
0.049396113
-0.045976773
-0.023116253
-0.01137846
0.0022757128
0.06332597
0.021906994
0.02152536
-0.034929696
-0.030079186
0.035212286
0.04081998
-0.07581708
-0.06588645
0.00071344525
0.06368697
0.018175974
-0.03994927
0.055822
0.0012659952
0.054999173
0.018901482
0.064885736
0.014232777
0.015583649
-0.042775754
0.025172539
-0.021835428
0.06322618
-0.03068633
0.0536623
-0.025598064
0.05692248
-0.013567552
0.029012352
-0.014132809
-0.014993977
-0.05005487
-0.035781406
-0.030435719
0.04580093
0.072788626
-0.0036408678
0.032775283
0.07458687
-0.06804813
-0.014077775
-0.0028282776
0.053001076
-0.014258236
-0.0697967
0.031212404
-0.043099657
-0.053294115
0.07442856
-0.03966335
-0.0676059
-0.04112014
-0.062301755
0.013954692
-0.057700463
0.04459381
0.04823059
0.055421367
-0.049577877
0.06740475
-0.017525189
-0.0185531
0.05079633
-0.013255641
-0.02291968
-0.061566196
-0.043570243
0.07069984
-0.05544413
0.036002412
-0.04854556
0.040397927
-0.014090091
-0.07489896
0.059414387
0.05063197
-0.023865957
-0.06786893
0.06497848
0.038435034
0.03289158
-0.004132025
0.033218704
0.05169995
0.05645998
0.035431445
0.0088088885
0.0014808625
0.023768961
0.020948388
0.06646821
-0.008378595
-0.014452346
-0.07308337
0.06649798
-0.0018562451
-0.06534533
0.038795702
0.062198102
-0.022084665
-0.055757854
-0.050927136
0.06139843
0.0005045384
-0.055833966
-0.05095075
0.07176724
0.014507145
0.07060778
0.052562833
0.011031844
0.074648276
-0.0026159286
-0.026777048
0.05283405
0.015757874
0.056591287
-0.009256877
0.016854152
0.009671956
0.053209886
0.020320758
0.053487837
0.053353965
-0.029375117
0.014723949
-0.0024213642
0.042038642
-0.017302606
0.07287437
0.0461445
-0.010011524
-0.06187532
-0.02552494
-0.019049041
-7.428229e-05
-0.027663872
-0.028738506
-0.03904211
0.022812597
0.052616328
0.043476276
0.06945902
-0.06979253
-0.018219821
0.0071478263
-0.018667154
0.0032954365
-0.053821564
-0.0054523125
-0.027671404
0.011568621
0.011471994
-0.017306954
-0.03454145
0.031110615
-0.061405838
0.06741713
0.019264013
-0.072546996
0.07198703
0.015688986
0.06495193
-0.05531378
0.0079405755
0.02042871
0.0068658814
0.015804924
0.07030764
0.0655265
-0.02239636
-0.027394496
0.010543898
-0.018512864
-0.009211279
0.04341983
0.06700902
0.047946095
0.0596644
0.004373245
-0.044090066
-0.015142616
0.07138431
0.05486992
0.06655781
0.012237325
-0.012084603
-0.03923653
-0.038003385
-0.07496745
-0.026558757
0.0565141
0.028235666
-0.022345528
0.063782945
-0.06976595
-0.060689893
-0.060881235
0.05308442
-0.04432212
0.01150848
0.027541615
0.046950735
0.03508967
-0.07368132
0.052788123
-0.058380716
0.018083021
-0.0016037524
-0.04673075
-0.062513016
-0.012851842
-0.070310615
0.032074273
-0.006179817
-0.07370828
-0.0041596442
-0.04430801
-0.008310579
0.071167886
-0.020161923
-0.039596904
0.035288706
0.07136895
0.0650675
-0.05930447
-0.023253068
-0.050554704
0.012687534
-0.05594836
0.064402506
0.0072527826
0.04841067
0.005559467
0.049506918
0.074970305
-0.06353171
-0.0096198395
0.016404808
-0.05400983
0.017544203
0.04042851
0.056950092
-0.016039003
-0.07260148
-0.034196854
0.008361429
-0.062330674
0.041157484
0.03937809
-0.0094449
-0.032937884
-0.002634652
-0.070586786
-0.0337451
-0.06546186
0.040160574
0.034748875
-0.022710446
0.06929472
-0.042873908
0.071136996
-0.017156012
-0.020677816
0.06622043
-0.065917924
-0.012430564
-0.044008356
-0.017042994
-0.013426863
-0.060440674
-0.00669986
-0.06291231
-0.060908996
0.031370714
-0.020158626
0.046743892
0.039708026
0.018353626
-0.043650974
-0.013709724
-0.045454305
0.05334547
0.062880784
-0.010225825
0.057036087
0.024676003
-0.02612738
-0.058709867
-0.020936016
-0.010171659
-0.061308265
0.04777257
0.03891824
0.00585939
-0.06384386
-0.075912386
0.027723454
-0.03003116
-0.023838777
0.050309688
-0.0020493418
0.074814096
-0.07512742
-0.052007474
0.03531868
-0.012444548
-0.072972886
0.048210107
0.026988178
0.01905813
0.039702423
-0.06989954
0.065660015
-0.073131904
-0.046075467
-0.04915932
0.0015833229
-0.056487076
-0.047482915
0.06040141
-0.059979774
0.06177348
-0.05077607
0.07263453
-0.06661852
0.033709697
-0.0495926
0.046726547
0.035053886
0.010656424
0.017828025
0.030468643
0.035472848
-0.062752545
0.06326246
-0.057959408
-0.03248847
-0.07568014
-0.02818165
0.006363876
0.068226025
-0.026265841
-0.046232946
-0.042179454
-0.0020189583
0.06614788
0.033422723
0.054678738
-0.05212982
0.012310974
0.0730695
0.071209356
-0.07585527
-0.0073203146
-0.028705947
0.05322613
0.00019970536
-0.028467357
0.018118516
0.058704466
-0.06375576
-0.009740189
0.0045004264
0.06975454
0.023568042
-0.0025714114
0.038592495
-0.014634199
0.017266952
-0.021352004
0.035336353
0.049631745
0.015639007
0.04055629
0.06684558
0.0674693
-0.06647699
-0.05181742
-0.0029388517
-0.051494427
-0.06575117
-0.067999355
0.04004804
-0.026279405
0.035691075
-0.064908825
0.0051823035
0.0064668283
0.064554244
0.07571438
-0.047781155
-0.063015096
-0.06770572
-0.071259685
0.050035164
-0.03844623
-0.016634632
-0.007891983
0.014100887
0.044257887
-0.016225182
-0.047071308
0.04931897
0.008417949
-0.06944799
-0.034777235
0.061353683
0.021892294
-0.031156864
0.045420878
0.011027627
0.06126155
-0.067690544
0.015060656
-0.031765513
-0.034155145
0.0009637922
-0.059771847
0.023551345
-0.008391418
0.024986014
0.045048878
0.069598004
-0.007260479
-0.020837266
-0.0068791956
0.032236263
0.03568373
0.021629438
-0.050315753
-0.045139838
0.074000135
0.028180838
0.02203668
-0.020262536
0.0022510812
-0.013503246
0.055898786
-0.04500824
0.03948497
0.05167219
-0.06777547
0.037061654
-0.011113249
-0.04815375
-0.023760743
-0.0315436
0.0313285
0.0040134117
-0.040700406
-0.02768229
0.06596281
-0.057105392
-0.07342331
0.04574635
0.07548724
0.062437773
0.004517518
0.052710697
-3.5710633e-05
0.028831586
-0.028383061
0.0013287961
0.04688683
0.07344267
-0.012719892
0.056117907
-0.07258223
0.058084995
-0.0247888
0.056185126
0.0563813
0.07116939
0.0026893392
-0.06593868
-0.028948791
0.06563467
-0.06606598
-0.016162433
-0.06004323
0.014956616
0.03368199
0.012011178
-0.06337753
-0.04638814
0.063926145
0.048550993
-0.029234335
-0.05183062
0.03768941
0.034750506
0.034421228
-0.07278078
0.036322147
-0.05836974
-0.054916285
-0.07256588
0.054789707
-0.039434467
0.06673661
-0.04951232
0.03515394
0.06050001
0.052202895
-0.02482156
0.032826275
-0.066463664
0.044224434
0.018463515
-0.052569494
0.009521924
-0.07181533
-0.06390542
-0.012644596
-0.007680163
-0.060352266
0.062248066
-0.016280327
-0.031778097
0.05895011
-0.023893502
-0.029652532
0.056471378
0.051008433
0.01775144
0.02235286
-0.007959947
-0.07156528
0.01750686
-0.005793616
-0.045732733
-0.0757061
0.053243175
0.0021118969
0.04611837
-0.027974319
0.0152960345
0.06227222
-0.0020228177
0.007894412
0.06642549
-0.03876676
0.041350782
0.008147307
0.028318122
0.043121748
-0.036883008
-0.04423945
0.034735568
0.04974225
0.004893951
-0.04077127
0.052342266
-0.0050894096
0.012366205
0.033032343
0.00912185
0.06602132
0.011453301
-0.016675014
-0.07577814
-0.017058913
-0.0314626
-0.007874906
0.04155659
0.037033148
-0.057652257
-0.009161569
0.06411396
0.007819332
0.053901047
-0.0075719804
-0.025372189
-0.01893305
0.005147755
-0.017062604
-0.05785908
-0.040691823
0.024812274
-0.0008096993
-0.0649417
0.0051225796
-0.044444554
0.032268316
-0.03633502
-0.034675896
0.039527312
0.040032253
-0.014972135
-0.038729165
0.014435381
0.014844589
-0.04998088
-0.041018803
-0.07541829
0.014174096
-0.074932694
0.028169386
-0.008178763
0.056240633
-0.016602922
0.04185293
-0.06064605
-0.06748917
0.031928584
0.044104412
0.012620494
-0.025544517
-0.055116102
0.019406028
-0.056212105
0.0453208
-0.040401135
0.053965464
-0.014588274
0.068185836
0.029878266
-0.02923365
-0.008035988
0.0013159588
0.05296196
-0.018258791
-0.06078196
0.027918816
-0.03367585
0.0045725703
-0.0046738014
-0.014517777
-0.036712147
1.6786158e-05
-0.016981296
-0.047383636
-0.02539707
0.061882854
0.056036517
-0.06193988
0.024095349
0.036293335
0.06100084
-0.012970671
0.054043055
0.05720307
0.019954138
-0.070603386
-0.056790985
-0.06752198
-0.029415555
0.04986152
-0.06164613
-0.0692308
-0.038672067
0.010413744
-0.0035551414
-0.003735438
-0.047821067
-0.037702974
-0.05427663
0.0758965
-0.040617537
-0.061038006
-0.015840653
-0.0039065853
0.026096307
0.011173263
-0.039789476
0.00016475469
0.028937891
-0.0061539933
0.018113881
0.013537072
0.049293175
-0.04520277
-0.03318712
-0.0076030344
0.051582694
-0.05185364
0.060141236
-0.02885256
-0.013593901
0.029758558
-0.056507666
0.019573249
-0.006255351
0.044225886
-0.010373212
-0.041213818
-0.05497653
-0.061188817
-0.024497896
-0.0009934008
-0.052881934
0.01372119
-0.017562367
-0.019843236
-0.05534848
-0.026761636
-0.04263773
-0.03505972
-0.06371172
-0.06385936
0.0028387755
-0.059564043
0.06971291
-0.026672628
0.070562646
0.06674209
0.011658356
-0.009877987
0.060549766
-0.04995335
0.07465519
0.058190256
0.031375982
-0.0679992
-0.020198666
-0.036905263
-0.007818356
0.0031926334
0.028129026
0.012511112
-0.00038652122
0.04698196
-0.07101926
0.06470464
0.011605494
0.04255817
-0.04891298
0.048745506
-0.068302326
0.03131617
0.027257591
0.033223465
0.07463728
-0.062853
0.05504164
-0.023609478
0.04440272
-0.034636144
0.028227359
-0.07377531
0.024802163
-0.025159206
0.018871784
0.049886838
0.038754553
0.011544302
0.035453543
0.031541936
0.031954482
-0.05136136
-0.032991506
0.021363609
0.01134485
0.00562834
0.055931285
0.001322642
0.055947885
0.008049518
-0.053895142
-0.06605823
-0.03532185
0.049904287
-0.023430794
0.037827477
-0.031938747
-0.033722933
0.015248172
-0.07063323
-0.07148496
0.053871885
0.02609723
0.017584696
0.033786483
-0.040055793
0.001910232
-0.02008896
-0.0018294975
-0.020141076
0.012823626
-0.037144285
0.02316562
-0.032814886
0.05686398
0.053566635
-0.014622465
0.02091854
0.014843576
-0.021503706
0.047778383
-0.0026969984
-0.0414178
0.022528447
-0.06597265
-0.01025252
-0.01611124
-0.06355761
0.00013592839
0.023432948
0.07444528
0.029320009
0.026760332
0.07288216
-0.06588424
0.03705883
-0.07408798
-0.048352063
-0.07539072
0.007290721
-0.07205254
0.059584826
-0.0016589314
-0.058507062
0.004619181
0.051511556
-0.07471691
0.05158943
-0.01229234
-0.039852496
0.013642669
0.005342953
0.06196913
-0.043788474
-0.0043992996
-0.031839415
-0.00888069
0.042040616
0.0095553845
0.07277845
0.046330936
-0.013019152
-0.04794428
-0.07286425
-0.019729927
-0.028929777
0.022113204
-0.056176085
-0.009000868
-0.056708947
-0.051645078
0.07055424
-0.020358082
0.005975507
-0.0534299
0.046891883
0.063337415
-0.024763342
-0.024320733
0.0725082
-0.060536925
0.0648265
-0.038198315
0.036525242
-0.030371722
0.048890598
-0.05169765
-0.063524865
0.030941218
0.017497823
-0.041732937
0.031747967
-0.07485879
0.031198643
0.009567104
0.020663567
-0.0071800053
-0.028005917
0.071511015
0.00092078
0.051442653
-0.068912916
-0.032342996
0.04255113
-0.027475897
-0.010174014
-0.016318772
0.07324076
-0.063256614
-0.069018595
0.07479139
0.010080971
0.0631247
0.03809911
-0.0015971065
0.013189681
0.033381537
-0.019044567
-0.0061378404
-0.028098255
0.059917793
0.03685099
0.03375341
0.006336242
0.047375776
0.042876206
-0.022948746
0.017741844
-0.007856168
-0.017636053
-0.012791768
-0.07179401
-0.04598858
0.05283712
0.015616387
0.010911673
-0.07010135
0.035354175
-0.04395405
-0.04458021
0.0128084645
0.0682679
0.044311725
-0.008970842
0.030163884
-0.057194058
-0.059018143
0.061638355
0.06095478
0.05750671
-0.012483098
0.03812392
0.035332642
-0.02056735
0.07289608
0.028083697
0.031301282
-0.016265187
0.0048306063
0.049997702
-0.033631466
-0.070480645
0.038815312
0.0069741905
-0.074657224
0.023075022
0.0332982
-0.023811214
0.018832527
-0.050460733
0.04970798
0.003645651
0.0065079033
-0.033007804
0.06659892
-0.060770497
-0.06634584
0.05320084
0.04779522
0.007932477
-0.004247308
0.03347993
0.03559325
-0.021224298
0.02847924
-0.012574099
-0.011675522
-0.07049964
-0.02463846
-0.02565835
-0.012487933
0.047655836
0.057737023
-0.007151231
0.055933952
-0.032128204
0.04400751
-0.02458623
0.07010013
0.06994164
-0.07338741
-0.005970508
0.0652307
-0.06163097
0.07235865
-0.0030632094
-0.003036335
-0.02136524
-0.00024999678
0.06569308
-0.071779855
-0.022874009
0.027111888
-0.05270729
0.048510052
0.05298564
0.0015071407
-0.00014586747
-0.03489179
0.009266838
0.07148212
0.047982983
0.05143629
-0.07283826
0.008011937
0.0666769
-0.05098237
-0.01221972
-0.030057382
-0.037208736
-0.015061557
-0.026087303
0.023696944
-0.012338825
0.033299364
0.023722969
0.007042609
-0.0678871
-0.021186106
-0.034512315
-0.03669666
-0.067013696
0.031382322
-0.011042841
-0.0027820393
-0.0645547
-0.023456782
0.029940814
-0.062250145
0.045640737
0.034961842
-0.035468496
0.030786604
-0.036034573
0.020206086
0.010076657
-0.019977499
-0.025373802
-0.0025853738
-0.06789201
0.0071373954
-0.058903188
0.062702164
0.06785673
-0.030535609
-0.039452393
0.06583552
0.06842686
-0.053793278
0.015482977
-0.032920353
0.008786835
-0.058052234
0.025610074
-0.05078489
0.062192976
-0.016338855
-0.02780027
0.031148553
0.057155684
0.06743868
0.062399402
0.056360424
-0.064117745
-0.033570997
-0.044715304
-0.04144828
0.05692877
0.059098944
0.024264596
-0.0025877133
-0.0721487
-0.012254022
0.02499152
-0.0016845688
0.07473306
-0.052579783
-0.015498586
-0.056951467
0.0024627224
-0.014584437
-0.024247248
-0.05218739
0.047761828
0.054249287
0.04057174
-0.05940164
-0.023213666
-0.06256503
-0.002970323
0.024741955
-0.06312065
-2.2307038e-05
-0.0023771003
-0.0026959702
-0.044889204
-0.04809933
-0.03574115
0.011748031
0.04834777
-0.07070893
0.010523543
0.06893952
0.017138064
0.0002560094
0.07183331
0.020146742
0.0061972737
0.06943335
-0.050101645
-0.036829785
0.0122394785
0.07230693
0.021937221
0.047131598
0.06811307
0.047829576
0.012734294
-0.032053467
0.046022825
0.01766675
-0.019807886
0.026887968
0.0349852
-0.053163476
-0.025056925
0.06782924
0.046701342
-0.07255773
0.040908985
0.06388812
0.0712219
0.028386734
0.011923492
0.003040187
-0.036532104
0.06672597
0.05040613
0.07072836
0.014965691
0.033960856
0.013493739
-0.047626954
-0.024424952
-0.03464306
-0.025008377
-0.0511294
0.05888228
0.035947397
-0.0041261762
-0.016477138
0.07194626
-0.0015315488
-0.06657949
0.06437066
-0.020667873
0.0052245557
-0.008777581
-0.050824657
0.021054327
0.057966545
0.015541926
0.04507897
0.046727724
0.041209005
0.0036699027
-0.07265688
-0.06223238
0.010217227
0.0075492337
0.011400133
-0.012264773
-0.009753391
-0.06307639
-0.02120443
0.04436945
0.052248225
0.06672594
0.021202348
-0.07185024
-0.058797754
0.0035755113
-0.019015122
0.01819963
-0.019969746
0.011288218
0.053684607
0.069030136
0.028985567
0.028892674
0.038301207
-0.038321186
-0.025735967
-0.047933906
-0.027850829
-0.061862353
-0.040822025
-0.066517666
0.0036263838
-0.07257553
-0.0041248426
-0.048232943
0.0041697472
0.034338444
0.0052320734
0.021372229
0.040427715
-0.0067892447
0.03207404
0.040526085
0.048974715
0.028926753
0.059780672
0.023352742
-0.018453863
-0.033780687
-0.01806216
-0.06393591
0.03975027
0.07492049
0.05668041
-0.010919154
-0.054607704
-0.00845556
-0.015022244
0.0016282499
0.07359247
-0.000908196
-0.06104438
-0.017856222
0.0029418021
-0.062018923
0.027289338
-0.02785867
0.010425784
-0.018636186
0.047677226
0.06683792
-0.047246173
-0.05539205
0.020385735
-0.057719134
0.027367294
-0.06927169
0.052409068
0.050387084
-0.027470611
0.04723165
-0.023382604
0.07011582
-0.075671025
0.01653324
-0.024730816
-0.04115223
0.06393771
-0.07279031
-0.016918693
-0.04545052
-0.030954458
0.01867842
0.053897277
-0.07023275
-0.046114817
-0.031467363
-0.062880926
0.010803759
0.019117907
-0.021121692
0.03339217
0.009868495
0.05227475
0.031086236
-0.043732263
0.048681907
0.074622944
0.037553392
0.027534448
0.040865257
0.04602351
-0.0726046
0.043552622
0.023175344
-0.035273407
0.06814134
-0.06870406
0.024425223
0.007954694
-0.0069614276
0.04270424
-0.019451372
0.0730128
-0.029832609
0.015285172
-0.01741809
0.007955618
-0.06375869
0.03192529
-0.015572164
-0.01323463
-0.04685563
-0.009596691
0.016004652
-0.01107578
0.020853259
-0.0184349
0.057335377
-0.024419628
-0.051109023
-0.06723972
0.06004624
-0.04699534
-0.06877394
-0.06781731
-0.060499962
-0.07298891
0.031117164
0.047150157
0.043603167
0.0133353025
-0.0073488876
-0.053460233
0.023077175
0.06700449
0.04039137
0.028628908
0.064784184
0.038351208
-0.015162084
-0.06939777
0.010324463
-0.05688946
-0.06304077
0.06318909
-0.0036229268
0.06785108
-0.053450145
-0.072502375
0.06739457
-0.0143585615
0.002990082
-0.0611955
-0.0484498
0.051669866
-0.027962074
-0.0045168325
-0.013884932
0.006313771
-0.05256196
0.06887269
-0.07562032
0.043806873
-0.06101517
-0.0152275115
-0.065842606
0.02442459
0.06816284
0.03561741
-0.021245666
0.0014230758
-0.03914923
0.004524529
0.03381183
-0.062892474
0.070178986
0.0135689825
-0.015461735
0.029585294
0.0748305
0.06302683
0.04718045
-0.068288654
-0.041199677
0.066926256
0.025719255
-0.053711787
-0.06722012
-0.034646668
0.03536462
-0.02587682
-0.047950257
0.05065544
-0.028004307
0.009699881
0.0078227
0.03727732
-0.0008960441
-0.0031817108
-0.027334936
0.042349607
0.06873672
-0.045655914
-0.03107166
0.061251238
0.018937998
0.039972782
0.018780336
0.06129676
0.067769796
-0.04006506
-0.07019193
0.032757603
-0.010574013
-0.053512804
0.034820803
0.016371615
-0.050155774
0.035388947
0.040326647
-0.0578721
-0.075215705
-0.06548263
-0.012092754
0.041352645
-0.032664254
0.021206513
-0.024804357
-0.020708911
-0.060000874
0.0007586852
-0.0543844
-0.043221205
0.040740952
-0.059967898
-0.057861492
-0.012807198
0.0030169338
-0.02713912
0.068620324
-0.029470608
0.044820428
-0.03375227
-0.008637413
-0.054538183
-0.0042930767
0.02858673
0.025346965
-0.043819733
0.044853114
-0.014246028
-0.07143534
-0.07051177
0.047611058
0.039962187
-0.072335064
-0.06642587
-0.056065314
-0.07055466
0.013989039
-0.06982524
0.005503945
-0.05275975
-0.013273783
0.008751988
0.027791798
-0.01685495
0.028452165
0.056573108
-0.026181888
0.008679286
-0.021198511
0.038998052
-0.06516387
-0.025941398
0.036704123
0.021693148
0.0025656894
-0.07330138
0.02395098
-0.015334103
-0.02632609
-0.005338028
0.030308068
-0.025728632
-0.02707487
0.00029780716
0.03661564
-0.001047276
-0.062935196
0.016263701
0.062095568
-0.026513774
-0.009367973
-0.053294677
0.024425045
0.03861995
0.06671938
0.07006955
-0.063399844
0.05624111
0.004786603
-0.032197237
0.008493118
0.03438133
0.01827386
-0.037937902
0.010760099
0.0015521422
0.07566534
0.045028992
-0.064688995
0.051249683
-0.016536482
0.02057635
0.011793517
0.018730573
0.06008093
-0.040833764
-0.029514901
-0.057171695
-0.033022072
-0.02617564
-0.06467913
-0.06846937
0.053333834
-0.06836875
0.07480407
-0.043207806
-0.031107932
0.016928256
0.04852897
-0.05269756
0.029381946
-0.016211472
-0.0099025965
0.067150235
-0.06452248
-0.025395151
-0.0019948706
0.07017374
-0.066356435
-0.008185245
0.00258518
-0.0031813532
-0.003255941
0.012984835
-0.015886977
0.024797946
-0.038848758
-0.03255942
0.05647838
-0.060963232
-0.00071775913
0.04450924
0.030795403
0.07539639
-0.045223467
-0.00910496
0.056325138
-0.0033928677
-0.0744653
-0.024045765
-0.05140466
-0.006518692
0.07525638
-0.0429117
0.06746675
0.07023899
0.06225282
-0.07595105
0.012384474
0.048348315
-0.005008638
0.025096513
-0.030959725
0.054913357
-0.053627744
-0.048421875
-0.05411227
-0.030246116
0.066758245
-0.012625001
-0.04512892
-0.0259745
-0.0024381503
0.033863895
0.0406311
0.05344279
0.014901727
0.020205274
-0.03285496
-0.028466597
-0.019230783
0.045386337
-0.027844202
0.014306873
0.026733622
-0.040962048
0.048906438
0.023743235
0.011938177
0.062371388
-0.011667103
-0.03540921
0.059518278
0.05249001
-0.013950668
0.0060735717
-0.04991067
-0.015003338
-0.009529091
0.00755322
-0.026436612
-0.0030237809
0.030040033
0.0756914
-0.06808119
0.0373817
0.059537753
-0.020439245
0.0054897815
0.0033082739
-0.046065707
-0.06109699
0.017959371
0.05826366
-0.02014115
-0.021019574
0.007461205
0.058915585
-0.07117852
-0.037566356
-0.010247372
-0.022275683
-0.016748123
-0.04235615
0.027053498
-0.067144915
-0.059264302
0.052984074
-0.0005446151
0.052336067
-0.04999205
-6.595254e-05
-0.05557573
-0.03962262
-0.015171625
-0.012455538
0.008556955
-0.041427597
-0.04321923
0.07286082
0.014858462
-0.013984986
-0.051497556
-0.012725309
-0.027114041
0.025098145
0.021542966
-0.06481201
0.016958497
0.027092725
0.035596803
-0.032070708
0.013061777
-0.022117443
0.003969297
0.073927835
0.008175217
-0.048500597
-0.009429418
-0.0049000233
-0.026622485
-0.013145573
0.03313908
-0.054054193
-0.03339476
0.049635395
0.042658754
0.06214641
-0.052549105
-0.045474023
-0.03330648
0.07153809
-0.07433372
0.043413214
0.06812891
0.048733875
0.071543455
-0.0065936446
-0.06330517
-0.0043006465
-0.045590773
0.018472187
-0.037641563
0.0048378855
0.069031015
0.0570959
-0.0025560409
-0.025564037
-0.045290522
-0.00372158
-0.07002907
0.041000582
0.0643872
0.040916197
0.065242305
0.06834084
0.05700828
0.030265711
-0.03206377
0.00077375025
-0.02382771
-0.06061691
-0.057170987
-0.0031751916
-0.021697726
0.003337033
0.021134421
0.07073718
-0.0059932694
0.005877316
-0.07029032
0.041801266
0.054442585
0.003722325
-0.057545394
-0.017085947
0.0012632981
-0.020851213
-0.017802548
-0.053148933
-0.02517547
0.037854
-0.028152693
-0.038112294
0.003983967
0.0063323677
-0.008709528
0.03571015
0.059263572
-0.042991057
4.000962e-06
-0.068755634
-0.03050888
0.058190152
0.032332495
0.017635383
0.034814723
0.03646081
-0.06397973
-0.040081035
0.06491296
0.031282827
-0.074696176
0.025787957
0.0023510829
-0.034341726
-0.053265557
0.062232643
-0.049526878
-0.046083637
0.011510909
-0.039462134
0.008734845
-0.03245884
