128
1
0.0053029726
-0.0075673386
0.0011661344
0.017434685
0.009384232
-0.009372169
0.006792231
0.008828724
0.0056870086
0.005148926
-0.006357099
-0.0074448967
0.001757559
-0.0021658028
0.008683897
0.0091202175
0.0036037494
-0.0079565905
0.007997517
-0.012492406
0.0068735937
0.0019247661
0.009030654
0.00080090883
-0.00026033487
-0.010207276
0.0025177277
-0.008135303
-0.0012557544
-0.004396031
0.0004561321
0.0055901553
0.009388224
0.0010838292
0.014041587
0.011227277
-0.007618602
4.5058434e-05
0.001545374
-0.006635889
0.0063874507
-0.00879561
-0.0024302476
0.0085823
-0.0054146154
0.003551149
0.018695692
0.009562726
-0.000595681
-0.009400034
0.0055857333
0.0033700226
0.0027498426
-0.0017343237
-0.0052520484
0.007721626
0.022922931
0.012067734
-0.00021449957
-0.0034544258
0.016386773
0.013822238
0.00084656966
-0.008523841
0.00025969272
-0.00432645
-0.0006108724
0.010056371
-0.009721332
0.0042401794
-0.0031571628
0.0053254697
0.009315515
0.003923017
0.010737912
-0.0050210813
-0.00027025994
-0.0056487718
0.0009231356
0.005572606
0.008571143
0.020625632
0.017260045
-0.00059330795
-0.0016036641
0.00093776424
0.0032728335
0.012315233
0.009070996
-0.0046404307
0.0021364957
-0.0021361916
0.0010519634
0.0049670823
-0.0053510126
-0.00941457
-0.004505332
-0.008255745
0.0014217271
-0.001704806
-0.0006239309
0.008548528
-0.003333287
0.013557739
0.0038355275
-0.0008794222
0.0032676281
-0.0007619125
-0.0019929449
0.0011631278
-0.0046464573
-0.00039499046
-0.011044353
0.0037180707
0.0029456175
0.003782519
-0.012864747
-0.0063311835
0.005728425
-0.0021594304
0.0062232683
0.020176895
-0.008882975
0.005187141
0.009220353
0.011445966
-0.010201266
-0.01845076
