256
1
-0.010097986
-0.051435333
0.01798856
-0.038615335
-0.008565498
0.03973087
-0.04760594
-0.0054184366
-0.0021733788
-0.032192383
0.040709343
0.018136507
0.0039147036
-0.023526438
-0.01442214
0.016838199
0.00877309
0.018611902
0.057140224
-0.041686714
0.050727718
0.041831043
-0.057225868
0.022793114
-0.04454948
-0.017621152
0.062264606
-0.017470138
0.0042261467
-0.07469854
0.0016075604
-0.006052214
0.009066805
0.005239777
0.05080598
0.034196224
-0.021364283
0.026714996
0.065793276
-0.0070965774
0.002081022
0.009286851
-0.020606099
0.021657677
0.035969716
0.033532836
0.008674172
-0.01335917
0.016784018
-0.013820007
-0.028449263
-0.017691193
0.023846066
0.031715553
0.004439469
0.021613037
-0.035137508
-0.04544563
0.025808128
0.015500853
-0.03518027
0.03117536
0.0012425258
-0.038211294
0.022192495
0.006720521
0.02946824
0.0309413
-0.01090455
0.0002667871
0.010267325
-0.020285994
-0.031434167
0.015552919
0.033697654
0.04011433
0.04617747
0.0009060802
-0.045820426
-0.018295977
-0.07590934
-0.024197629
0.001268593
-0.0054576076
0.04179104
0.022597183
0.01509851
0.04319769
-0.03114223
0.050674494
0.015356374
0.0060176933
0.06326468
0.03665351
-0.070553206
0.082837
-0.01967429
0.027603608
-0.005684211
0.052902725
0.035788402
-0.000924899
-0.006630385
0.0244256
0.00076653383
-0.0137818875
0.025882958
0.011731347
0.019152006
-0.025587687
-0.008966716
-0.06223805
0.03146401
-0.025952028
-0.0004826891
-0.0670439
0.037015118
-0.023072425
-0.01681846
-0.021198545
-0.03354554
-0.044626314
-0.04708861
0.0015443205
0.025537975
0.03270499
0.029605402
0.072915584
0.06660258
0.053118307
-0.016146554
0.0069811647
-0.02881129
-0.012523003
-0.0355474
0.0435554
-0.056339677
0.062207103
0.016772317
-0.056184504
-0.0027035528
0.0371264
0.04627036
-0.022686055
-0.00992713
-0.048169505
0.024783444
-0.009195388
-0.009822847
-0.032978967
-0.024897799
-0.010404702
-0.019201068
0.0017299369
-0.014918415
-0.011828858
-0.046340957
0.0316062
-0.02919871
0.057468604
-0.0008141027
-0.008606953
0.019861113
0.050954375
-0.006560337
-0.01148239
0.009813791
-0.035339803
-0.023270907
0.011812054
-0.016505163
-0.0057341005
0.003207236
0.0049012094
0.056989577
0.03300081
0.0014523267
0.014045514
-0.036505703
-0.02395778
0.039504904
0.013748231
0.0030622531
-0.0631161
0.018284058
0.03979754
0.023602882
0.008201857
-0.017879775
0.037307315
-0.020139365
-0.014253732
0.004104328
0.040981025
-0.02821561
-0.041904457
-0.033320215
0.060039762
0.04649102
-0.056431655
0.026148085
0.025944233
0.07304135
-0.058059193
-0.0160857
0.008073455
0.012184639
-0.020829178
-0.090071164
-0.07051728
-0.054232176
-0.04092498
0.041710734
0.038344037
0.057055056
-0.041035056
0.0733763
-0.008576427
-0.05561091
-0.021618638
-0.046645936
0.031326197
0.021787709
0.004125853
-0.00795009
-0.020355105
0.05800595
0.034968756
0.07763995
0.056402244
-0.043037634
0.054242153
-0.06356071
-0.00030720735
-0.014070822
0.005505642
-0.0073263366
0.012309493
0.030729346
0.038793042
0.027207755
-0.013046964
0.010785335
-0.00024058852
0.037625015
0.0012963195
-0.032008532
0.020865843
0.046449468
-0.027974095
0.046044603
-0.022038735
-0.011980371
-0.008525399
0.021047054
0.008505269
